tree
version=v3
num_class=1
num_tree_per_iteration=1
label_index=0
max_feature_idx=9
objective=regression
feature_names=Column_0 Column_1 Column_2 Column_3 Column_4 Column_5 Column_6 Column_7 Column_8 Column_9
feature_infos=[1579047004:1581638391] [32:1677838] [1:22985] [1:8082] [80:60443] [0:65533] [0:164] [1579042809:1581634154] [1:17] [0:31]
tree_sizes=2972 3081 3087 3101 3102 3102 3106 3106 3103 3117 3116 3123 3112 3113 3131 3133 3130 3104 3126 3120 3107 3104 3097 3084 3101 3095 3108 3085 3107 3079

Tree=0
num_leaves=32
num_cat=0
split_feature=4 3 5 9 2 5 1 9 4 3 3 3 4 4 4 4 3 4 5 3 5 5 4 4 9 5 3 3 8 1 4
split_gain=1.67974e+06 1.38971e+06 820634 613680 425476 331571 198555 169159 122636 265630 175479 104025 190937 142943 87359.7 91877.9 192335 81935.8 56988.1 43671.1 36609.5 35295.9 33387.7 26612.1 23856.7 22929.5 18471.7 15208.8 13244 13048.9 12281.8
threshold=15683.500000000002 2487.5000000000005 28993.500000000004 3.0000000000000004 25.500000000000004 3102.5000000000005 1507.5000000000002 26.500000000000004 442.00000000000006 829.50000000000011 1271.5000000000002 541.00000000000011 8262.0000000000018 3635.0000000000005 3635.0000000000005 5225.5000000000009 2506.5000000000005 9399.0000000000018 49028.500000000007 2976.5000000000005 28993.500000000004 1.0000000180025095e-35 101.50000000000001 101.50000000000001 26.500000000000004 50517.500000000007 7374.5000000000009 894.50000000000011 11.500000000000002 151.50000000000003 25550.000000000004
decision_type=2 2 2 2 2 2 2 2 2 2 2 2 2 2 2 2 2 2 2 2 2 2 2 2 2 2 2 2 2 2 2
left_child=1 2 5 4 14 21 -6 19 9 22 27 13 -13 -7 20 -16 -17 24 -9 25 29 -1 -4 -12 28 -5 -21 -11 -10 -3 -2
right_child=30 3 8 7 6 11 -8 18 17 10 23 12 -14 -15 15 16 -18 -19 -20 26 -22 -23 -24 -25 -26 -27 -28 -29 -30 -31 -32
leaf_value=8.0195861091851306 7.8196246151627369 8.4131440566950886 7.8532553563800587 8.0536803397959584 7.4196245913208791 8.0257118617260037 8.3196246151627378 8.0212760586445242 7.8372375916526451 8.1087560071789504 7.8704195246615765 8.4192799212908973 8.0196246151627371 8.4196246151627374 8.4196246151627374 8.3195187028554187 7.8136102637751907 7.4196245913208791 7.6924447471492359 8.2019996952129279 7.480735705990476 8.3991596064467302 7.3233523563857528 7.3380029705691632 7.6804314695848985 7.6726450935475174 8.067674096784085 7.8373261903310496 7.6946563044789853 8.0191625435140939 7.7196257922234457
leaf_weight=2597 14407 1003 1457 10659 7719 167892 3592 73572 79396 47559 1258 23209 24651 9747 94182 383336 7665 5792 5677 135507 1206 43225 6465 3700 13038 1854 11074 2158 7097 5194 83271
leaf_count=2597 14407 1003 1457 10659 7719 167892 3592 73572 79396 47559 1258 23209 24651 9747 94182 383336 7665 5792 5677 135507 1206 43225 6465 3700 13038 1854 11074 2158 7097 5194 83271
internal_value=8.13292 8.16587 8.02488 8.2493 8.31183 8.13241 7.70543 8.11708 7.85114 7.96199 8.0404 8.08258 8.21343 8.04733 8.32576 8.33096 8.3096 7.78525 7.99772 8.17654 7.98483 8.37765 7.42081 7.47309 7.80653 7.99722 8.19185 8.09697 7.82554 8.08293 7.73438
internal_weight=0 1.18148e+06 439241 742240 503897 271321 11311 238343 167920 62597 54675 225499 47860 177639 492586 485183 391001 105323 79249 159094 7403 45822 7922 4958 99531 12513 146581 49717 86493 6197 97678
internal_count=1279159 1181481 439241 742240 503897 271321 11311 238343 167920 62597 54675 225499 47860 177639 492586 485183 391001 105323 79249 159094 7403 45822 7922 4958 99531 12513 146581 49717 86493 6197 97678
is_linear=0
shrinkage=1


Tree=1
num_leaves=32
num_cat=0
split_feature=4 3 5 9 2 5 1 9 4 3 3 3 4 4 4 4 3 4 1 3 5 5 4 4 5 9 3 3 5 8 1
split_gain=1.36059e+06 1.12566e+06 664713 497081 344636 268572 160830 137019 99334.9 215160 142138 84259.9 154659 115784 70761.4 74421.1 155791 66368 47292.6 35373.6 29653.7 28589.7 27044 21555.8 19612 19323.9 16658.4 12319.1 12175.2 10727.6 10570.7
threshold=15683.500000000002 2487.5000000000005 28993.500000000004 3.0000000000000004 25.500000000000004 3102.5000000000005 1507.5000000000002 26.500000000000004 442.00000000000006 829.50000000000011 1271.5000000000002 541.00000000000011 8262.0000000000018 3635.0000000000005 3635.0000000000005 5225.5000000000009 2506.5000000000005 9399.0000000000018 885.00000000000011 2976.5000000000005 28993.500000000004 1.0000000180025095e-35 101.50000000000001 101.50000000000001 49028.500000000007 26.500000000000004 7645.5000000000009 894.50000000000011 4398.5000000000009 11.500000000000002 80.500000000000014
decision_type=2 2 2 2 2 2 2 2 2 2 2 2 2 2 2 2 2 2 2 2 2 2 2 2 2 2 2 2 2 2 2
left_child=1 2 5 4 14 21 -6 19 9 22 27 13 -13 28 20 -16 -17 25 -9 24 30 -1 -4 -12 -5 29 -21 -11 -7 -10 -3
right_child=-2 3 8 7 6 11 -8 18 17 10 23 12 -14 -15 15 16 -18 -19 -20 26 -22 -23 -24 -25 -26 -27 -28 -29 -30 -31 -32
leaf_value=-0.10199711459574444 -0.35868699720781194 0.25239816368696932 -0.25169478533974887 -0.049615631564624667 -0.64196248054504401 -0.098324909857916198 0.1680375337600708 -0.10252437860005406 -0.26611078029567997 -0.021744206230344489 -0.23624703769463992 0.25772732474175342 -0.10196245908737184 0.258037543296814 0.258037543296814 0.16794221915759777 -0.28737538203023577 -0.64196248054504401 -0.43326725657971682 0.056393778168079049 -0.58696246647320771 0.23961902489518763 -0.72860746880049687 -0.71542193660864961 -0.33828437814297585 -0.40723626523990542 -0.2860008644268488 -0.26603105097484325 0.29742882251739505 -0.39443393318488829 -0.10234732155965083
leaf_weight=2597 97678 1002 1457 9370 7719 167111 3592 74660 79396 47559 1258 23209 24651 9747 94182 383336 7665 5792 4589 145146 1206 43225 6465 3700 3143 13038 1435 2158 781 7097 5195
leaf_count=2597 97678 1002 1457 9370 7719 167111 3592 74660 79396 47559 1258 23209 24651 9747 94182 383336 7665 5792 4589 145146 1206 43225 6465 3700 3143 13038 1435 2158 781 7097 5195
internal_value=0 0.0296542 -0.0972311 0.104742 0.161024 -0.000453439 -0.384733 -0.0142481 -0.253602 -0.153836 -0.0832645 -0.0453025 0.0724638 -0.0770315 0.173556 0.178238 0.159016 -0.312897 -0.121676 0.0392648 -0.133279 0.220258 -0.640895 -0.59384 -0.122123 -0.293747 0.0530418 -0.0323476 -0.0964839 -0.27664 -0.0449881
internal_weight=0 1.18148e+06 439241 742240 503897 271321 11311 238343 167920 62597 54675 225499 47860 177639 492586 485183 391001 105323 79249 159094 7403 45822 7922 4958 12513 99531 146581 49717 167892 86493 6197
internal_count=1279159 1181481 439241 742240 503897 271321 11311 238343 167920 62597 54675 225499 47860 177639 492586 485183 391001 105323 79249 159094 7403 45822 7922 4958 12513 99531 146581 49717 167892 86493 6197
is_linear=0
shrinkage=0.1


Tree=2
num_leaves=32
num_cat=0
split_feature=4 3 5 9 2 5 1 9 2 3 3 3 4 4 8 4 4 3 8 4 5 1 3 5 5 5 5 3 3 9 4
split_gain=1.10207e+06 911786 538418 402636 279155 217872 130272 110985 82010 128076 122159 70228.2 129733 97551.9 60201.5 57316.7 60281.1 126191 46104.2 44771.3 38736.9 31614.9 28652.6 24243.3 24019.5 15925.9 14431.6 13884 10608.7 10041.9 9948.22
threshold=15683.500000000002 2487.5000000000005 28993.500000000004 3.0000000000000004 25.500000000000004 3031.5000000000005 1507.5000000000002 26.500000000000004 2.5000000000000004 890.00000000000011 894.50000000000011 541.00000000000011 8262.0000000000018 3635.0000000000005 11.500000000000002 3635.0000000000005 5225.5000000000009 2506.5000000000005 11.500000000000002 9399.0000000000018 49234.500000000007 135.50000000000003 2976.5000000000005 1.0000000180025095e-35 28993.500000000004 50517.500000000007 49234.500000000007 7374.5000000000009 272.50000000000006 26.500000000000004 25550.000000000004
decision_type=2 2 2 2 2 2 2 2 2 2 2 2 2 2 2 2 2 2 2 2 2 2 2 2 2 2 2 2 2 2 2
left_child=1 2 5 4 15 23 -6 22 9 18 -11 13 -13 28 21 24 -17 -18 -4 26 -9 -12 25 -1 -3 -5 -10 -24 -7 -28 -2
right_child=30 3 8 7 6 11 -8 20 19 10 14 12 -14 -15 -16 16 17 -19 -20 -21 -22 -23 27 -25 -26 -27 29 -29 -30 -31 -32
leaf_value=-0.091797406851533841 -0.24609375 -0.040489305594053233 -0.26628162530307342 -0.062859851889162335 -0.57776622772216801 0.29352747097407306 0.15123378038406374 -0.090165381178484147 -0.23267927314390385 -0.019208670425467211 -0.25478691807228981 0.23207907081269355 -0.092960115931681464 0.23238743520835559 -0.62956277766339463 0.2322337865829468 0.15114799060706 -0.25863783790640638 -0.65468184113520855 -0.57776622772216801 -0.36220502183515624 0.02028851077504043 0.056535733409307155 0.22327245113565397 -0.52826620501467647 -0.38041556518054703 -0.2935554186416886 -0.059920456397290135 -0.088516396584184018 -0.40765180084717728 -0.3360926778520556
leaf_weight=2597 14407 6197 5770 10659 7719 730 3592 73614 27436 47528 30048 24072 25066 10148 3926 94182 383336 7665 6498 5792 5635 4853 135507 40966 1206 1854 24891 11074 167742 11178 83271
leaf_count=2597 14407 6197 5770 10659 7719 730 3592 73614 27436 47528 30048 24072 25066 10148 3926 94182 383336 7665 6498 5792 5635 4853 135507 40966 1206 1854 24891 11074 167742 11178 83271
internal_value=0 0.0266887 -0.087508 0.0942678 0.144922 -0.000408093 -0.34626 -0.0128233 -0.228242 -0.169662 -0.126709 -0.0395986 0.0662719 -0.0687234 -0.258301 0.156201 0.160414 0.143115 -0.472006 -0.311613 -0.109509 -0.216538 0.0353383 0.20449 -0.119952 -0.109911 -0.287338 0.0477376 -0.086861 -0.328915 -0.322818
internal_weight=0 1.18148e+06 439241 742240 503897 271321 11311 238343 167920 98623 86355 227758 49138 178620 38827 492586 485183 391001 12268 69297 79249 34901 159094 43563 7403 12513 63505 146581 168472 36069 97678
internal_count=1279159 1181481 439241 742240 503897 271321 11311 238343 167920 98623 86355 227758 49138 178620 38827 492586 485183 391001 12268 69297 79249 34901 159094 43563 7403 12513 63505 146581 168472 36069 97678
is_linear=0
shrinkage=0.1


Tree=3
num_leaves=32
num_cat=0
split_feature=4 3 5 9 2 5 1 1 2 3 3 3 4 4 8 4 4 3 8 4 1 3 5 5 5 9 5 5 3 9 5
split_gain=892680 738547 436118 326135 226115 176476 105520 90315.6 66428.1 103741 98948.9 56884.8 105084 79017 48763.2 46426.5 48827.7 102215 37344.4 36264.7 25608.1 21067.2 19637.1 19512.9 17653.4 18839.4 12878.8 11689.6 10617.1 15608.3 9327.36
threshold=15683.500000000002 2487.5000000000005 28993.500000000004 3.0000000000000004 25.500000000000004 3031.5000000000005 1507.5000000000002 467.50000000000006 2.5000000000000004 890.00000000000011 894.50000000000011 541.00000000000011 8262.0000000000018 3635.0000000000005 11.500000000000002 3635.0000000000005 5225.5000000000009 2506.5000000000005 11.500000000000002 9399.0000000000018 135.50000000000003 2976.5000000000005 1.0000000180025095e-35 33983.500000000007 49234.500000000007 26.500000000000004 50517.500000000007 49234.500000000007 7060.5000000000009 22.500000000000004 4398.5000000000009
decision_type=2 2 2 2 2 2 2 2 2 2 2 2 2 2 2 2 2 2 2 2 2 2 2 2 2 2 2 2 2 2 2
left_child=1 2 5 4 15 22 -6 21 9 18 -11 13 -13 30 20 23 -17 -18 -4 27 -12 26 -1 -3 -9 -26 -5 -10 -23 -30 -7
right_child=-2 3 8 7 6 11 -8 24 19 10 14 12 -14 -15 -16 16 17 -19 -20 -21 -22 28 -24 -25 25 -27 -28 -29 29 -31 -32
leaf_value=-0.082617665695877876 -0.29053646837719449 -0.038439498309169894 -0.23965346482638883 -0.054004928633291122 -0.51998958587646482 -0.079780662888642204 0.13611040115356446 -0.074513592579575294 -0.20941135596800589 -0.017287803411564027 -0.22930824117828263 0.20887116789780669 -0.083664104006937801 0.20914868187800986 -0.56660649276348485 0.20901041030883791 0.13603319444379131 -0.23277404754517983 -0.58921367267915503 -0.51998958587646482 0.018259659392328181 0.060157106946180774 0.20094521847305158 -0.48711740679084059 -0.083583923066190474 -0.35023042209653638 -0.37688018503263704 -0.29602311988008961 -0.19096458665835181 0.023331101962413888 0.26660735665149177
leaf_weight=2597 97678 6256 5770 10181 7719 167691 3592 79120 27436 47528 30048 24072 25066 10148 3926 94182 383336 7665 6498 5792 4853 112750 40966 1147 5508 5106 1406 36069 4087 20185 781
leaf_count=2597 97678 6256 5770 10181 7719 167691 3592 79120 27436 47528 30048 24072 25066 10148 3926 94182 383336 7665 6498 5792 4853 112750 40966 1147 5508 5106 1406 36069 4087 20185 781
internal_value=0 0.0240199 -0.0787572 0.0848411 0.13043 -0.000367284 -0.311634 -0.011541 -0.205418 -0.152696 -0.114038 -0.0356388 0.0596447 -0.0618511 -0.232471 0.140581 0.144373 0.128803 -0.424805 -0.280451 -0.194884 0.036293 0.184041 -0.107956 -0.090759 -0.211858 -0.0931835 -0.258604 0.0472419 -0.0127527 -0.0781749
internal_weight=0 1.18148e+06 439241 742240 503897 271321 11311 238343 167920 98623 86355 227758 49138 178620 38827 492586 485183 391001 12268 69297 34901 148609 43563 7403 89734 10614 11587 63505 137022 24272 168472
internal_count=1279159 1181481 439241 742240 503897 271321 11311 238343 167920 98623 86355 227758 49138 178620 38827 492586 485183 391001 12268 69297 34901 148609 43563 7403 89734 10614 11587 63505 137022 24272 168472
is_linear=0
shrinkage=0.1


Tree=4
num_leaves=32
num_cat=0
split_feature=4 3 5 9 2 5 1 9 1 3 3 8 3 4 4 8 4 4 3 1 4 3 5 5 5 3 5 1 3 4 2
split_gain=723071 598223 353256 264169 183154 142946 85471.5 74288.4 54121.6 62754.9 89222.6 51795.2 46076.7 85118 64003.8 40290.1 37605.5 39550.4 82793.8 26458.9 23629.1 19174.1 15906 15857.2 12095.7 11322.7 10310.9 8562.39 8124.16 8058.06 7833.46
threshold=15683.500000000002 2487.5000000000005 28993.500000000004 3.0000000000000004 25.500000000000004 3031.5000000000005 1507.5000000000002 26.500000000000004 779.50000000000011 890.00000000000011 894.50000000000011 11.500000000000002 541.00000000000011 8262.0000000000018 3635.0000000000005 11.500000000000002 3635.0000000000005 5225.5000000000009 2506.5000000000005 885.00000000000011 9399.0000000000018 2976.5000000000005 1.0000000180025095e-35 28993.500000000004 46325.500000000007 7645.5000000000009 49514.500000000007 151.50000000000003 272.50000000000006 25550.000000000004 14.500000000000002
decision_type=2 2 2 2 2 2 2 2 2 2 2 2 2 2 2 2 2 2 2 2 2 2 2 2 2 2 2 2 2 2 2
left_child=1 2 5 4 16 22 -6 21 9 11 -11 -4 14 -14 28 -12 23 -18 -19 30 26 24 -1 27 -5 -23 -10 -3 -7 -2 -9
right_child=29 3 8 7 6 12 -8 19 20 10 15 -13 13 -15 -16 -17 17 18 -20 -21 -22 25 -24 -25 -26 -27 -28 -29 -30 -31 -32
leaf_value=-0.074355895706539582 -0.19243073463439941 0.23489346850072873 -0.20404411102941966 -0.031917357457592423 -0.46799063682556152 0.26252035611296354 0.12249937057495118 -0.078333293516406485 -0.18467873278808436 -0.015832734878899215 -0.17957809572980787 -0.52237956907596395 0.18798404379845923 -0.075297697845673722 0.18823381686685214 -0.49809976084640922 0.18810936212539675 0.12242987670845099 -0.20949664503433155 -0.32255239673730052 -0.46799063682556152 0.041922771296727147 0.18085069264982884 -0.42892288723296396 -0.25679534038228674 -0.24036071253155167 -0.29148345121984787 -0.084250710924680672 -0.071806048612126069 -0.27342976643244599 0.25588429250286121
leaf_weight=2597 14407 1003 19482 9292 7719 730 3592 73952 14477 47549 45275 6929 24072 25066 10148 4353 94182 383336 7665 4589 5792 145146 40966 1206 3221 1435 24063 5194 167742 83271 708
leaf_count=2597 14407 1003 19482 9292 7719 730 3592 73952 14477 47549 45275 6929 24072 25066 10148 4353 94182 383336 7665 4589 5792 145146 40966 1206 3221 1435 24063 5194 167742 83271 708
internal_value=0 0.0216179 -0.0708815 0.0763569 0.117387 -0.000330555 -0.280471 -0.0103869 -0.184876 -0.150874 -0.113725 -0.28756 -0.0320749 0.0536802 -0.055666 -0.207516 0.126523 0.129936 0.115923 -0.0894892 -0.279666 0.0290161 0.165637 -0.0971608 -0.0898037 0.0391593 -0.251364 -0.0325964 -0.0703574 -0.261483 -0.0751639
internal_weight=0 1.18148e+06 439241 742240 503897 271321 11311 238343 167920 123588 97177 26411 227758 49138 178620 49628 492586 485183 391001 79249 44332 159094 43563 7403 12513 146581 38540 6197 168472 97678 74660
internal_count=1279159 1181481 439241 742240 503897 271321 11311 238343 167920 123588 97177 26411 227758 49138 178620 49628 492586 485183 391001 79249 44332 159094 43563 7403 12513 146581 38540 6197 168472 97678 74660
is_linear=0
shrinkage=0.1


Tree=5
num_leaves=32
num_cat=0
split_feature=4 3 5 9 2 5 1 1 1 3 3 8 3 4 4 8 4 4 3 4 3 5 5 5 9 5 5 3 9 5 1
split_gain=585687 484560 286137 213977 148354 115786 69231.9 60307.8 43838.5 50831.5 72270.4 41954.1 37322.1 68945.5 51843.1 32635 30460.4 32035.8 67063 19139.6 13870.9 12883.9 12881.6 12766 12295.4 9043.92 8388.42 8206.74 12171.2 7144.79 6671.57
threshold=15683.500000000002 2487.5000000000005 28993.500000000004 3.0000000000000004 25.500000000000004 3031.5000000000005 1507.5000000000002 414.50000000000006 779.50000000000011 890.00000000000011 894.50000000000011 11.500000000000002 541.00000000000011 8262.0000000000018 3635.0000000000005 11.500000000000002 3635.0000000000005 5225.5000000000009 2506.5000000000005 9399.0000000000018 2982.5000000000005 1.0000000180025095e-35 33983.500000000007 49234.500000000007 26.500000000000004 46325.500000000007 49234.500000000007 7060.5000000000009 22.500000000000004 4398.5000000000009 135.50000000000003
decision_type=2 2 2 2 2 2 2 2 2 2 2 2 2 2 2 2 2 2 2 2 2 2 2 2 2 2 2 2 2 2 2
left_child=1 2 5 4 16 21 -6 20 9 11 -11 -4 14 -14 29 30 22 -18 -19 26 25 -1 -3 -9 -25 -5 -10 -22 -29 -7 -12
right_child=-2 3 8 7 6 12 -8 23 19 10 15 -13 13 -15 -16 -17 17 18 -20 -21 27 -23 -24 24 -26 -27 -28 28 -30 -31 -32
leaf_value=-0.066920305666301083 -0.23533453633076473 -0.030962134592825805 -0.18363969945654268 -0.027067490193888839 -0.42119154930114749 -0.064727059989722779 0.1102494239807129 -0.06001658975563099 -0.16427969841533863 -0.014249460052703318 -0.1887685256463712 -0.47014162902695944 0.16918563290677741 -0.067767926517701305 0.16941044307807607 -0.44828978094723537 0.16929842233657838 0.11018689193286633 -0.18854698352073426 -0.42119154930114749 0.050186971706809927 0.16276561885567284 -0.39551336666034842 -0.074552429839310735 -0.28851944945649083 -0.23708929220460498 -0.26136267843172101 -0.17138118271436656 0.01794559921954875 0.23843732673899007 -0.10734179434534651
leaf_weight=2597 97678 6256 19482 9061 7719 167691 3592 79290 13948 47549 30180 6929 24072 25066 10148 4353 94182 383336 7665 5792 112368 40966 1147 5662 5109 2650 24592 4085 20118 781 15095
leaf_count=2597 97678 6256 19482 9061 7719 167691 3592 79290 13948 47549 30180 6929 24072 25066 10148 4353 94182 383336 7665 5792 112368 40966 1147 5662 5109 2650 24592 4085 20118 781 15095
internal_value=0 0.0194561 -0.0637934 0.0687213 0.105648 -0.000297502 -0.252423 -0.00934819 -0.166388 -0.135787 -0.102353 -0.258804 -0.0288674 0.0483122 -0.0500994 -0.186765 0.11387 0.116942 0.104331 -0.2517 0.0298539 0.149073 -0.0874447 -0.073893 -0.176043 -0.0745918 -0.226227 0.0388102 -0.0140091 -0.0633217 -0.16162
internal_weight=0 1.18148e+06 439241 742240 503897 271321 11311 238343 167920 123588 97177 26411 227758 49138 178620 49628 492586 485183 391001 44332 148282 43563 7403 90061 10771 11711 38540 136571 24203 168472 45275
internal_count=1279159 1181481 439241 742240 503897 271321 11311 238343 167920 123588 97177 26411 227758 49138 178620 49628 492586 485183 391001 44332 148282 43563 7403 90061 10771 11711 38540 136571 24203 168472 45275
is_linear=0
shrinkage=0.1


Tree=6
num_leaves=32
num_cat=0
split_feature=4 3 5 9 2 5 1 9 2 3 3 3 4 4 9 4 4 3 8 4 1 5 3 5 5 5 3 9 1 4 3
split_gain=474407 392494 231771 173321 120167 93786.8 56077.9 49788.7 36352.7 56436.3 51330.6 30230.9 55845.9 41992.9 27088.7 24673 25949 54321 19760 19094.7 18992.4 17574.6 12875.8 10468.7 10435.9 9349.19 8488.74 7967.25 6936.37 6527.02 6221.43
threshold=15683.500000000002 2487.5000000000005 28993.500000000004 3.0000000000000004 25.500000000000004 3031.5000000000005 1507.5000000000002 26.500000000000004 2.5000000000000004 890.00000000000011 894.50000000000011 541.00000000000011 8262.0000000000018 3635.0000000000005 3.0000000000000004 3635.0000000000005 5225.5000000000009 2506.5000000000005 11.500000000000002 9399.0000000000018 135.50000000000003 49028.500000000007 2824.0000000000005 28993.500000000004 1.0000000180025095e-35 49766.500000000007 7374.5000000000009 26.500000000000004 80.500000000000014 25550.000000000004 272.50000000000006
decision_type=2 2 2 2 2 2 2 2 2 2 2 2 2 2 2 2 2 2 2 2 2 2 2 2 2 2 2 2 2 2 2
left_child=1 2 5 4 15 24 -6 22 9 18 -11 13 -13 30 -12 23 -17 -18 -4 27 -16 -9 25 28 -1 -5 -24 -10 -3 -2 -7
right_child=29 3 8 7 6 11 -8 21 19 10 14 12 -14 -15 20 16 17 -19 -20 -21 -22 -23 26 -25 -26 -27 -28 -29 -30 -31 -32
leaf_value=-0.060228277620646788 -0.14965420961380005 0.21465809997208343 -0.17676592219227108 -0.041093813949689563 -0.37907240390777591 0.23431056721569743 0.099224489927291881 -0.060090258179027613 -0.17153520012093132 -0.012550803727773362 -0.39636614641446011 0.15226706906400397 -0.060991134805395114 0.15246939683435093 -0.16729174819112275 0.15236858129501343 0.099168198488614301 -0.16969228185475146 -0.43104020661392667 -0.37907240390777591 0.046234503199875834 -0.24270017922964027 0.038784160739226914 -0.3482627004045209 0.14648905640053969 -0.29996089656482988 -0.052260342848342384 -0.25961575440973966 -0.072704570744333646 -0.22255333973430866 -0.058257203714937193
leaf_weight=2597 14407 1002 5770 10289 7719 730 3592 73572 50622 47528 4565 24072 25066 10148 29409 94182 383336 7665 6498 5792 4853 5677 136117 1206 40966 1614 11074 12883 5195 83271 167742
leaf_count=2597 14407 1002 5770 10289 7719 730 3592 73572 50622 47528 4565 24072 25066 10148 29409 94182 383336 7665 6498 5792 4853 5677 136117 1206 40966 1614 11074 12883 5195 83271 167742
internal_value=0 0.0175105 -0.057414 0.0618491 0.0950832 -0.000267752 -0.227181 -0.00841337 -0.14975 -0.110748 -0.0822353 -0.0259807 0.043481 -0.0450894 -0.167536 0.102483 0.105248 0.0938976 -0.311448 -0.205257 -0.137047 -0.0731715 0.0238444 -0.0787002 0.134166 -0.0761952 0.0319344 -0.189404 -0.0262406 -0.211801 -0.0569895
internal_weight=0 1.18148e+06 439241 742240 503897 271321 11311 238343 167920 98623 86355 227758 49138 178620 38827 492586 485183 391001 12268 69297 34262 79249 159094 7403 43563 11903 147191 63505 6197 97678 168472
internal_count=1279159 1181481 439241 742240 503897 271321 11311 238343 167920 98623 86355 227758 49138 178620 38827 492586 485183 391001 12268 69297 34262 79249 159094 7403 43563 11903 147191 63505 6197 97678 168472
is_linear=0
shrinkage=0.1


Tree=7
num_leaves=32
num_cat=0
split_feature=4 3 5 9 2 5 1 1 2 3 3 3 4 4 8 4 4 3 1 1 4 5 3 5 5 0 3 9 4 5 4
split_gain=384270 317920 187735 140390 97335.3 75967.3 45423.1 40543 29445.7 45713.4 41577.8 24487 45235.2 34014.2 22308.8 19985.1 21018.7 44000 16455 15714.9 15466.7 9176.58 9135.36 8503.85 8453.11 8180.85 6560.73 6453.47 6113.2 5472.97 5286.89
threshold=15683.500000000002 2487.5000000000005 28993.500000000004 3.0000000000000004 25.500000000000004 3031.5000000000005 1507.5000000000002 414.50000000000006 2.5000000000000004 890.00000000000011 894.50000000000011 541.00000000000011 8262.0000000000018 3635.0000000000005 11.500000000000002 3635.0000000000005 5225.5000000000009 2506.5000000000005 80.500000000000014 135.50000000000003 9399.0000000000018 49234.500000000007 2976.5000000000005 33983.500000000007 1.0000000180025095e-35 1580055000.5000002 2548.5000000000005 26.500000000000004 718.00000000000011 4398.5000000000009 25550.000000000004
decision_type=2 2 2 2 2 2 2 2 2 2 2 2 2 2 2 2 2 2 2 2 2 2 2 2 2 2 2 2 2 2 2
left_child=1 2 5 4 15 24 -6 22 9 18 -11 13 -13 29 19 23 -17 -18 -4 -12 27 -9 26 -3 -1 -23 -5 -10 -24 -7 -2
right_child=30 3 8 7 6 11 -8 21 20 10 14 12 -14 -15 -16 16 17 -19 -20 -21 -22 25 28 -25 -26 -27 -28 -29 -30 -31 -32
leaf_value=-0.054205448805574367 -0.13468879461288452 -0.024938164205502367 -0.35936762524437493 -0.0010768030348510759 -0.34116516113281253 -0.052520575934041448 0.089302039146423345 -0.048728637890987733 -0.15438168394973525 -0.011295723486136777 -0.15232642390066015 0.1370403711417558 -0.054892018003179534 0.13722245717523227 -0.37678569340229157 0.13713172674179078 0.089251380343131903 -0.15272305450560764 -0.11065805968909692 0.04161105280484511 -0.34116516113281253 -0.20798894909204588 0.034460924943046624 -0.3211357729374687 0.13184015365373936 -0.022359793885652388 -0.15579858487200599 -0.23365418563553458 -0.13561987760847649 0.21281478537792739 -0.20029799058294162
leaf_weight=2597 14407 6256 8368 7104 7719 167691 3592 79290 50622 47528 30048 24072 25066 10148 3926 94182 383336 7665 3900 4853 5792 7238 134569 1147 40966 3533 4462 12883 2147 781 83271
leaf_count=2597 14407 6256 8368 7104 7719 167691 3592 79290 50622 47528 30048 24072 25066 10148 3926 94182 383336 7665 3900 4853 5792 7238 134569 1147 40966 3533 4462 12883 2147 781 83271
internal_value=0 0.0157594 -0.0516726 0.0556642 0.0855749 -0.000240974 -0.204463 -0.00757203 -0.134775 -0.0996729 -0.0740118 -0.0233826 0.0391329 -0.0405805 -0.150782 0.0922349 0.094723 0.0845078 -0.280303 -0.125359 -0.184731 -0.0604936 0.0245706 -0.0708302 0.120749 -0.147101 -0.0607663 -0.170463 0.03179 -0.0512905 -0.190621
internal_weight=0 1.18148e+06 439241 742240 503897 271321 11311 238343 167920 98623 86355 227758 49138 178620 38827 492586 485183 391001 12268 34901 69297 90061 148282 7403 43563 10771 11566 63505 136716 168472 97678
internal_count=1279159 1181481 439241 742240 503897 271321 11311 238343 167920 98623 86355 227758 49138 178620 38827 492586 485183 391001 12268 34901 69297 90061 148282 7403 43563 10771 11566 63505 136716 168472 97678
is_linear=0
shrinkage=0.1


Tree=8
num_leaves=32
num_cat=0
split_feature=4 3 5 9 2 5 1 9 1 3 3 8 3 4 4 8 4 4 3 1 4 3 3 2 5 5 5 5 1 1 9
split_gain=311258 257515 152065 113716 78841.6 61533.5 36792.7 33812.1 24185.9 26478.7 38148 23946.4 19834.5 36640.5 27551.5 18313.2 16187.9 17025.2 35640 12681.7 9979.1 8693.86 7154.04 7049.45 6971.97 6911.3 6847.02 5834.75 5618.46 4929.57 4795.15
threshold=15683.500000000002 2487.5000000000005 28993.500000000004 3.0000000000000004 25.500000000000004 3031.5000000000005 1507.5000000000002 26.500000000000004 779.50000000000011 890.00000000000011 894.50000000000011 11.500000000000002 541.00000000000011 8262.0000000000018 3635.0000000000005 11.500000000000002 3635.0000000000005 5225.5000000000009 2506.5000000000005 885.00000000000011 9399.0000000000018 2824.0000000000005 7645.5000000000009 14.500000000000002 49766.500000000007 28993.500000000004 1.0000000180025095e-35 49514.500000000007 80.500000000000014 47.500000000000007 3.0000000000000004
decision_type=2 2 2 2 2 2 2 2 2 2 2 2 2 2 2 2 2 2 2 2 2 2 2 2 2 2 2 2 2 2 2
left_child=1 2 5 4 16 26 -6 21 9 11 -11 29 14 -14 -7 -12 25 -18 -19 23 27 24 -23 -9 -5 28 -1 -10 -3 -4 -28
right_child=-2 3 8 7 6 12 -8 19 20 10 15 -13 13 -15 -16 -17 17 18 -20 -21 -22 22 -24 -25 -26 -27 30 -29 -30 -31 -32
leaf_value=-0.048784904056298629 -0.17155887847494544 0.1956861084806705 -0.34535294660428673 -0.032123563691158312 -0.30704865455627445 -0.046161484715740053 0.08037183284759522 -0.053269847001956375 -0.11610698529396977 -0.010426520594804881 -0.11692890254947477 -0.34701901143256819 0.12333633347469218 -0.049402817550873918 0.12350020432946812 -0.3316731360036424 0.12341855764389038 0.080326240444645092 -0.13745075824948128 -0.2215334748826949 -0.30704865455627445 0.028603342461006827 -0.19577301498074151 0.26378184609157218 -0.25566988918824118 -0.2827719202583307 0.12069521091966205 -0.1964508725546896 -0.062940292858641472 -0.11878677811139787 -0.45539072879429521
leaf_weight=2597 97678 1002 1013 10289 7719 168472 3592 73952 14477 47549 45275 6929 24072 25066 10148 4353 94182 383336 7665 4589 5792 145756 1435 708 1614 1206 40821 24063 5195 18469 145
leaf_count=2597 97678 1002 1013 10289 7719 168472 3592 73952 14477 47549 45275 6929 24072 25066 10148 4353 94182 383336 7665 4589 5792 145756 1435 708 1614 1206 40821 24063 5195 18469 145
internal_value=0 0.0141835 -0.0465054 0.0500978 0.0770174 -0.000216877 -0.184017 -0.00681483 -0.121297 -0.0985671 -0.0744363 -0.187354 -0.0210443 0.0352196 -0.0365224 -0.135765 0.0830114 0.0852507 0.076057 -0.0601808 -0.184664 0.0197682 0.0264158 -0.0502632 -0.0624356 -0.0637472 0.108674 -0.166271 -0.0211227 -0.130567 0.118656
internal_weight=0 1.18148e+06 439241 742240 503897 271321 11311 238343 167920 123588 97177 26411 227758 49138 178620 49628 492586 485183 391001 79249 44332 159094 147191 74660 11903 7403 43563 38540 6197 19482 40966
internal_count=1279159 1181481 439241 742240 503897 271321 11311 238343 167920 123588 97177 26411 227758 49138 178620 49628 492586 485183 391001 79249 44332 159094 147191 74660 11903 7403 43563 38540 6197 19482 40966
is_linear=0
shrinkage=0.1


Tree=9
num_leaves=32
num_cat=0
split_feature=4 3 5 9 2 5 1 9 3 3 3 8 9 3 4 4 4 4 3 5 3 3 5 5 5 0 3 3 1 4 1
split_gain=252119 208587 123173 92110.1 63861.7 49842.2 29802.1 27387.8 19693.8 28014.3 28974.7 18193.1 16154.6 16066 29678.8 22316.7 13112.2 13790.4 28868.4 10433 7073.27 6213.16 5613.83 5546.09 5472.94 5009.19 4874.64 4764.29 4475.43 4282.38 4104.79
threshold=15683.500000000002 2487.5000000000005 28993.500000000004 3.0000000000000004 25.500000000000004 3031.5000000000005 1507.5000000000002 26.500000000000004 1271.5000000000002 890.00000000000011 894.50000000000011 11.500000000000002 3.0000000000000004 541.00000000000011 8262.0000000000018 3635.0000000000005 3635.0000000000005 5225.5000000000009 2506.5000000000005 49028.500000000007 2976.5000000000005 7374.5000000000009 33983.500000000007 1.0000000180025095e-35 46325.500000000007 1580045628.0000002 1202.5000000000002 272.50000000000006 80.500000000000014 25550.000000000004 151.50000000000003
decision_type=2 2 2 2 2 2 2 2 2 2 2 2 2 2 2 2 2 2 2 2 2 2 2 2 2 2 2 2 2 2 2
left_child=1 2 5 4 16 23 -6 20 9 11 -11 -4 -10 15 -15 27 22 -18 -19 -9 24 -22 30 -1 -5 -14 -12 -7 -26 -2 -3
right_child=29 3 8 7 6 13 -8 19 12 10 26 -13 25 14 -16 -17 17 18 -20 -21 21 -23 -24 -25 28 -27 -28 -29 -30 -31 -32
leaf_value=-0.043906415881310057 -0.10406402349472046 0.15935735296004216 -0.13363688708987656 -0.015438342463582742 -0.27634379863739017 0.21336921780076748 0.072334653139114385 -0.04408392800431471 -0.27806835253858814 -0.0093838685463774954 -0.12495280859141178 -0.3111662721768903 -0.17729565283817567 0.11100270153156702 -0.044462534449747855 0.11115019298652332 0.11107670068740845 0.072293620485954155 -0.1237056771049061 -0.18478091730480606 0.029837595136084406 -0.048066803700623155 -0.26074498447004152 0.10679052602767986 -0.33584073187158947 -0.071621422773156557 -0.011587287479790098 -0.042654702359691724 -0.084554455431033876 -0.16311230971326438 -0.056650601674931446
leaf_weight=2597 14407 1059 29911 9292 7719 730 3592 73572 11209 47549 50049 7153 9073 24072 25066 10148 94182 383336 7665 5677 135507 11074 1147 40966 1053 8872 4104 167742 2168 83271 5197
leaf_count=2597 14407 1059 29911 9292 7719 730 3592 73572 11209 47549 50049 7153 9073 24072 25066 10148 94182 383336 7665 5677 135507 11074 1147 40966 1053 8872 4104 167742 2168 83271 5197
internal_value=0 0.0127651 -0.0418548 0.045088 0.0693157 -0.000195188 -0.165615 -0.00613335 -0.109167 -0.0934703 -0.0663459 -0.167898 -0.183882 -0.0189399 0.0316977 -0.0328702 0.0747103 0.0767256 0.0684513 -0.0541628 0.0177914 0.023952 -0.0573724 0.0978068 -0.054376 -0.12505 -0.116361 -0.0415453 -0.166704 -0.154403 -0.0200853
internal_weight=0 1.18148e+06 439241 742240 503897 271321 11311 238343 167920 138766 101702 37064 29154 227758 49138 178620 492586 485183 391001 79249 159094 146581 7403 43563 12513 17945 54153 168472 3221 97678 6256
internal_count=1279159 1181481 439241 742240 503897 271321 11311 238343 167920 138766 101702 37064 29154 227758 49138 178620 492586 485183 391001 79249 159094 146581 7403 43563 12513 17945 54153 168472 3221 97678 6256
is_linear=0
shrinkage=0.1


Tree=10
num_leaves=32
num_cat=0
split_feature=4 3 5 9 2 5 1 1 1 3 3 8 3 4 4 8 4 4 3 5 2 4 5 5 5 1 5 1 3 9 9
split_gain=204217 168956 99769.9 74609.2 51728 40372.2 24139.7 22480 16660 17033.4 24820.6 16022.4 13013.4 24039.8 18076.6 12831.3 10620.9 11170.2 23383.4 7391.59 6844.27 6517.19 4928.37 4605.14 4192.38 3992.95 3795.52 3745.71 3737.65 3602.34 5988.51
threshold=15683.500000000002 2487.5000000000005 28993.500000000004 3.0000000000000004 25.500000000000004 3031.5000000000005 1507.5000000000002 467.50000000000006 779.50000000000011 890.00000000000011 957.50000000000011 11.500000000000002 541.00000000000011 8262.0000000000018 3635.0000000000005 11.500000000000002 3635.0000000000005 5225.5000000000009 2506.5000000000005 49234.500000000007 8.5000000000000018 718.00000000000011 1218.5000000000002 28993.500000000004 4398.5000000000009 47.500000000000007 60949.500000000007 151.50000000000003 272.50000000000006 5.0000000000000009 26.500000000000004
decision_type=2 2 2 2 2 2 2 2 2 2 2 2 2 2 2 2 2 2 2 2 2 2 2 2 2 2 2 2 2 2 2
left_child=1 2 5 4 16 22 -6 21 9 11 -11 25 14 -14 24 -12 23 -18 -19 -10 -9 -5 -1 27 28 -4 -22 -3 -7 -21 -31
right_child=-2 3 8 7 6 12 -8 20 19 10 15 -13 13 -15 -16 -17 17 18 -20 29 26 -23 -24 -25 -26 -27 -28 -29 -30 30 -32
leaf_value=0.01438345009143214 -0.13896269632409991 0.16007842639032177 -0.29745395324484386 0.022449122681765431 -0.24870941638946534 0.227427824262876 0.065101188421249387 -0.21093176614115983 -0.090638507102596938 -0.0086881128212377874 -0.093968599553508697 -0.28120046489285877 0.099902421676040923 -0.040016281219902416 0.10003517270851757 -0.27421823350213975 0.099969029426574707 0.065064256566716772 -0.1113351140372499 -0.22722398729385784 -0.038157457658410734 -0.088497457152151904 0.10338838438012204 -0.23042172475858511 0.19376026709467442 -0.093544412552637721 -0.23052605807436685 -0.051006065315359318 -0.039305618585567317 -0.097316350323969236 -0.20622178651350143
leaf_weight=7519 97678 1003 1013 143111 7719 527 3592 2420 13968 47821 45027 6929 24072 25066 10148 4329 94182 383336 7665 10128 86276 5498 36044 1206 781 18469 1038 5194 167164 9672 10564
leaf_count=7519 97678 1003 1013 143111 7719 527 3592 2420 13968 47821 45027 6929 24072 25066 10148 4329 94182 383336 7665 10128 86276 5498 36044 1206 781 18469 1038 5194 167164 9672 10564
internal_value=0 0.0114886 -0.0376693 0.0405792 0.0623841 -0.000175671 -0.149054 -0.00552001 -0.0982507 -0.0793857 -0.0600316 -0.150598 -0.0170459 0.0285279 -0.0295832 -0.109778 0.0672393 0.0690531 0.0616062 -0.150842 -0.0450422 0.0183445 0.0880261 -0.0516352 -0.0373908 -0.104147 -0.0404444 -0.0168415 -0.0384674 -0.178537 -0.154169
internal_weight=0 1.18148e+06 439241 742240 503897 271321 11311 238343 167920 123588 97177 26411 227758 49138 178620 49356 492586 485183 391001 44332 89734 148609 43563 7403 168472 19482 87314 6197 167691 30364 20236
internal_count=1279159 1181481 439241 742240 503897 271321 11311 238343 167920 123588 97177 26411 227758 49138 178620 49356 492586 485183 391001 44332 89734 148609 43563 7403 168472 19482 87314 6197 167691 30364 20236
is_linear=0
shrinkage=0.1


Tree=11
num_leaves=32
num_cat=0
split_feature=4 3 5 9 2 5 1 9 1 3 3 8 9 3 4 4 4 4 3 1 2 5 3 3 3 1 2 5 5 4 5
split_gain=165415 136854 80813.6 60433.4 41899.6 32701.4 19553.1 18568.6 13501.8 14433.5 19168.3 12862.5 10697.4 10540.9 19472.3 14642 8602.93 9047.87 18940.6 7834.95 5908.48 5860.15 5293.49 5252.68 5094.2 4979.54 9178.64 4121 3730.17 3468.73 3395.83
threshold=15683.500000000002 2487.5000000000005 28993.500000000004 3.0000000000000004 25.500000000000004 3031.5000000000005 1507.5000000000002 26.500000000000004 578.00000000000011 890.00000000000011 957.50000000000011 11.500000000000002 3.0000000000000004 541.00000000000011 8262.0000000000018 3635.0000000000005 3635.0000000000005 5225.5000000000009 2506.5000000000005 885.00000000000011 14.500000000000002 49234.500000000007 2824.0000000000005 2548.5000000000005 7645.5000000000009 135.50000000000003 2.5000000000000004 1317.5000000000002 28993.500000000004 25550.000000000004 4398.5000000000009
decision_type=2 2 2 2 2 2 2 2 2 2 2 2 2 2 2 2 2 2 2 2 2 2 2 2 2 2 2 2 2 2 2
left_child=1 2 5 4 16 27 -6 22 9 11 -11 -4 -12 15 -15 30 28 -18 -19 20 -9 -10 23 -5 -24 -14 -27 -1 -3 -2 -7
right_child=29 3 8 7 6 13 -8 19 21 10 12 -13 25 14 -16 -17 17 18 -20 -21 -22 -23 24 -25 -26 26 -28 -29 -30 -31 -32
leaf_value=0.022615330088281455 -0.079761350154876717 -0.015157360663736408 -0.094275111088090252 0.0048348153763050428 -0.22383847236633303 -0.034620622507683774 0.058591067790985107 -0.039472692760295136 -0.08375143629157028 -0.0078047293861853552 -0.23452053245292284 -0.25386733141812412 -0.10291727836872505 0.089912182543316566 -0.036014654798223487 0.090031653650290019 0.089972126483917239 0.058557831428813371 -0.10020159892426816 -0.17134089874699113 0.25078936383380729 -0.15770605619728653 0.021764749325524076 -0.1307604283541097 -0.16757405485010313 0.088723575718342856 -0.096139711608517156 0.095934599851795685 -0.20737955014022133 -0.13290480686902437 0.17438424833300173
leaf_weight=9929 14407 6197 19196 7141 7719 167691 3592 73952 16062 47805 5122 6853 29359 24072 25066 10148 94182 383336 7665 4589 708 32184 145756 4762 1435 4370 6969 33634 1206 83271 781
leaf_count=9929 14407 6197 19196 7141 7719 167691 3592 73952 16062 47805 5122 6853 29359 24072 25066 10148 94182 383336 7665 4589 708 32184 145756 4762 1435 4370 6969 33634 1206 83271 781
internal_value=0 0.0103398 -0.0339024 0.0365213 0.0561457 -0.000158104 -0.134148 -0.00496801 -0.0884256 -0.0704213 -0.052103 -0.136261 -0.0983203 -0.0153413 0.0256751 -0.0266249 0.0605153 0.0621478 0.0554456 -0.0445155 -0.0367201 -0.133085 0.0147317 -0.0494124 0.0199188 -0.081179 -0.0248942 0.0792235 -0.0464717 -0.125066 -0.0336517
internal_weight=0 1.18148e+06 439241 742240 503897 271321 11311 238343 167920 119674 93625 26049 45820 227758 49138 178620 492586 485183 391001 79249 74660 48246 159094 11903 147191 40698 11339 43563 7403 97678 168472
internal_count=1279159 1181481 439241 742240 503897 271321 11311 238343 167920 119674 93625 26049 45820 227758 49138 178620 492586 485183 391001 79249 74660 48246 159094 11903 147191 40698 11339 43563 7403 97678 168472
is_linear=0
shrinkage=0.1


Tree=12
num_leaves=32
num_cat=0
split_feature=4 3 5 9 2 5 1 9 3 3 3 8 9 3 4 4 4 4 3 5 4 5 9 5 4 0 2 3 9 4 3
split_gain=133986 110852 65459 48951.1 33938.7 26488.2 15838 15040.6 11087 15114.9 15073.7 9705.18 9639.61 8538.1 15772.5 11860 6968.37 7328.78 15341.9 6519.64 4635.91 4303.34 3702.05 3729.76 3372.7 3273.66 3240.52 9323.4 6584.47 3657.23 3269.47
threshold=15683.500000000002 2487.5000000000005 28993.500000000004 3.0000000000000004 25.500000000000004 3031.5000000000005 1507.5000000000002 26.500000000000004 1271.5000000000002 890.00000000000011 894.50000000000011 11.500000000000002 3.0000000000000004 541.00000000000011 8262.0000000000018 3635.0000000000005 3635.0000000000005 5225.5000000000009 2506.5000000000005 49028.500000000007 718.00000000000011 61569.500000000007 3.0000000000000004 1.0000000180025095e-35 442.00000000000006 1580045628.0000002 1.5000000000000002 2982.5000000000005 22.500000000000004 442.00000000000006 6631.0000000000009
decision_type=2 2 2 2 2 2 2 2 2 2 2 2 2 2 2 2 2 2 2 2 2 2 2 2 2 2 2 2 2 2 2
left_child=1 2 5 4 16 22 -6 20 9 11 -11 -4 -10 15 -15 -7 -3 -18 -19 -9 21 26 23 -1 -21 -14 27 -5 29 30 -28
right_child=-2 3 8 7 6 13 -8 19 12 10 -12 -13 25 14 -16 -17 17 18 -20 24 -22 -23 -24 -25 -26 -27 28 -29 -30 -31 -32
leaf_value=-0.043215651676477632 -0.11255978324788021 -0.041824517957035894 -0.097451486454574549 -0.25455987980902145 -0.20145461559295655 -0.030286549776827904 0.052731961011886597 -0.032096524351854047 -0.20839851904611942 -0.0067961974918319601 -0.083956299867729192 -0.22711519912712294 -0.13243257867394695 0.080920964931086803 -0.032413187188817964 0.081028485541321138 0.080974912643432623 0.052702044627371519 -0.090181438262487507 0.11687089664186452 -0.076260813900387359 -0.31146920378644366 -0.4331428937665347 0.080378423377454281 -0.16615242666426944 -0.047004208402156855 0.029966496980012355 0.032017185588095472 0.0078303009955472107 -0.23606992928553613 -0.23820233676009456
leaf_weight=2597 97678 7403 29911 1149 7719 168472 3592 73572 11209 47549 54153 7153 9073 24072 25066 10148 94182 383336 7665 458 5582 399 145 40821 5219 8872 1675 94862 53097 1706 624
leaf_count=2597 97678 7403 29911 1149 7719 168472 3592 73572 11209 47549 54153 7153 9073 24072 25066 10148 94182 383336 7665 458 5582 399 145 40821 5219 8872 1675 94862 53097 1706 624
internal_value=0 0.00930579 -0.0305122 0.0328692 0.0505311 -0.000142293 -0.120733 -0.00447121 -0.079583 -0.0678053 -0.0478814 -0.122475 -0.135642 -0.0138072 0.0231076 -0.0239624 0.0544638 0.055933 0.049901 -0.040064 0.0132585 0.0165136 0.0713011 0.0729858 -0.143319 -0.0901968 0.0173683 0.0285876 -0.00149582 -0.125138 -0.0428205
internal_weight=0 1.18148e+06 439241 742240 503897 271321 11311 238343 167920 138766 101702 37064 29154 227758 49138 178620 492586 485183 391001 79249 159094 153512 43563 43418 5677 17945 153113 96011 57102 4005 2299
internal_count=1279159 1181481 439241 742240 503897 271321 11311 238343 167920 138766 101702 37064 29154 227758 49138 178620 492586 485183 391001 79249 159094 153512 43563 43418 5677 17945 153113 96011 57102 4005 2299
is_linear=0
shrinkage=0.1


Tree=13
num_leaves=32
num_cat=0
split_feature=4 3 5 9 2 5 1 1 1 3 3 1 8 3 4 4 4 4 3 5 5 3 2 9 1 1 3 3 4 1 1
split_gain=108529 89790 53021.8 39650.4 27490.4 21455.4 12828.8 12445.2 9435.81 8855.11 13002.2 9327.18 7380.94 6915.87 12775.7 9606.62 5644.38 5936.31 12426.9 4502 4454.79 4391.7 4540.53 4168.88 12377.7 8899.74 3915.07 4118.62 3177 3127.43 3084.22
threshold=15683.500000000002 2487.5000000000005 28993.500000000004 3.0000000000000004 25.500000000000004 3031.5000000000005 1507.5000000000002 414.50000000000006 779.50000000000011 890.00000000000011 957.50000000000011 80.500000000000014 11.500000000000002 541.00000000000011 8262.0000000000018 3635.0000000000005 3635.0000000000005 5225.5000000000009 2506.5000000000005 49028.500000000007 49234.500000000007 6809.5000000000009 10.500000000000002 22.500000000000004 40.500000000000007 84.500000000000014 6631.0000000000009 3078.5000000000005 442.00000000000006 241.00000000000003 47.500000000000007
decision_type=2 2 2 2 2 2 2 2 2 2 2 2 2 2 2 2 2 2 2 2 2 2 2 2 2 2 2 2 2 2 2
left_child=1 2 5 4 16 29 -6 23 9 11 -11 -4 30 15 -15 -7 -3 -18 -19 -10 -9 -22 -23 24 28 -25 27 -26 -5 -1 -12
right_child=-2 3 8 7 6 13 -8 20 19 10 12 -13 -14 14 -16 -17 17 18 -20 -21 21 22 -24 25 26 -27 -28 -29 -30 -31 -32
leaf_value=0.065525238927493887 -0.10130380371003839 -0.037642066480420046 -0.19603455754595295 0.032749800241535551 -0.18130916357040405 -0.027257894724642847 0.047458764910697941 -0.025147759743107196 -0.063505223076241887 -0.0063116977086918949 -0.32481538008599503 -0.06830176851123064 -0.2041957744212852 0.072828871438613413 -0.029171868823221977 0.072925639160162453 0.072877424955368045 0.047431843658245619 -0.081163297300041695 -0.13249426719387017 -0.18131062079394761 -0.15211254308439531 0.014338416248774938 -0.26317104344200432 -0.24768582225367905 0.024533520215255036 -0.22615020762450719 0.029613371216388219 -0.056314876464575281 -0.46595395329567763 -0.064825406846839448
leaf_weight=43452 97678 7403 8368 17462 7719 168472 3592 79290 13681 47821 461 18043 4329 24072 25066 10148 94182 383336 7665 30651 3736 2599 4436 1085 785 118876 3191 1686 5197 111 44566
leaf_count=43452 97678 7403 8368 17462 7719 168472 3592 79290 13681 47821 461 18043 4329 24072 25066 10148 94182 383336 7665 30651 3736 2599 4436 1085 785 118876 3191 1686 5197 111 44566
internal_value=0 0.00837521 -0.0274609 0.0295822 0.045478 -0.000128064 -0.10866 -0.00402409 -0.0716247 -0.0574273 -0.0434727 -0.108772 -0.0794779 -0.0124265 0.0207968 -0.0215661 0.0490174 0.0503397 0.0449109 -0.111204 -0.0333449 -0.0936878 -0.047155 0.0137843 -0.0207246 0.0219313 -0.152976 -0.0584805 0.0123222 0.064171 -0.0674873
internal_weight=0 1.18148e+06 439241 742240 503897 271321 11311 238343 167920 123588 97177 26411 49356 227758 49138 178620 492586 485183 391001 44332 90061 10771 7035 148282 28321 119961 5662 2471 22659 43563 45027
internal_count=1279159 1181481 439241 742240 503897 271321 11311 238343 167920 123588 97177 26411 49356 227758 49138 178620 492586 485183 391001 44332 90061 10771 7035 148282 28321 119961 5662 2471 22659 43563 45027
is_linear=0
shrinkage=0.1


Tree=14
num_leaves=32
num_cat=0
split_feature=4 3 5 9 2 5 1 9 5 3 3 3 8 9 3 4 4 3 4 4 3 5 3 3 3 1 5 5 1 5 3
split_gain=87908.5 72729.9 42947.7 32116.8 22267.2 17378.9 10391.3 10245.3 7777.35 5838.36 8886.93 8852.62 7484.35 6620.36 5601.85 10348.4 7781.37 4943.28 4571.95 4808.41 10065.8 4436.61 3337.27 3388.42 3805.75 3133.13 3399.16 3021.43 3034.35 2969.72 3330.45
threshold=15683.500000000002 2487.5000000000005 28993.500000000004 3.0000000000000004 25.500000000000004 3031.5000000000005 1507.5000000000002 26.500000000000004 60949.500000000007 1223.0000000000002 890.00000000000011 894.50000000000011 11.500000000000002 3.0000000000000004 541.00000000000011 8262.0000000000018 3635.0000000000005 1202.5000000000002 3635.0000000000005 5225.5000000000009 2506.5000000000005 49028.500000000007 7374.5000000000009 2824.0000000000005 2589.5000000000005 86.500000000000014 49398.500000000007 28993.500000000004 80.500000000000014 1317.5000000000002 292.50000000000006
decision_type=2 2 2 2 2 2 2 2 2 2 2 2 2 2 2 2 2 2 2 2 2 2 2 2 2 2 2 2 2 2 2
left_child=1 2 5 4 18 29 -6 22 9 10 12 -12 -4 -11 16 -16 -7 -13 27 -20 -21 -9 23 24 25 26 -5 28 -3 30 -1
right_child=-2 3 8 7 6 14 -8 21 -10 13 11 17 -14 -15 15 -17 -18 -19 19 20 -22 -23 -24 -25 -26 -27 -28 -29 -30 -31 -32
leaf_value=-0.21948569345994284 -0.091173427205443316 0.15363630721431054 -0.071858867647073915 -0.037403404777464663 -0.16317824125289918 -0.024532105735778173 0.042712888121604925 -0.026425038699625966 -0.17066026975694315 -0.16962840228862275 -0.0050407104226681734 -0.07220956579106691 -0.18788856761981201 -0.066196876029098697 0.065545982560690705 -0.026254683249438839 0.065633076437002655 0.065342720415767122 0.065589678287506101 0.042688658019626104 -0.073046968345228391 -0.11817519210836108 -0.041940109543428326 0.019446897626866844 -0.20052981131606634 0.027641269585381451 -0.25754479219347742 -0.17869493484645341 -0.036426425994417776 0.071939983383940198 0.024334908847983575
leaf_weight=596 97678 1002 28007 3381 7719 168472 3592 73572 6624 9509 47429 48934 6936 17721 24072 25066 10148 2760 94182 383336 7665 5677 11074 136117 1260 6377 885 1206 5195 33634 9333
leaf_count=596 97678 1002 28007 3381 7719 168472 3592 73572 6624 9509 47429 48934 6936 17721 24072 25066 10148 2760 94182 383336 7665 5677 11074 136117 1260 6377 885 1206 5195 33634 9333
internal_value=0 0.00753769 -0.0247149 0.026624 0.0409302 -0.000115258 -0.097794 -0.00362168 -0.0644623 -0.060101 -0.0515267 -0.0362402 -0.0948901 -0.102316 -0.0111838 0.0187171 -0.0194095 -0.0648655 0.0441157 0.0453057 0.0404198 -0.0329976 0.0110112 0.0149727 -0.0361915 -0.0167359 -0.0830727 -0.0338779 -0.00569497 0.0577539 0.00969929
internal_weight=0 1.18148e+06 439241 742240 503897 271321 11311 238343 167920 161296 134066 99123 34943 27230 227758 49138 178620 51694 492586 485183 391001 79249 159094 148020 11903 10643 4266 7403 6197 43563 9929
internal_count=1279159 1181481 439241 742240 503897 271321 11311 238343 167920 161296 134066 99123 34943 27230 227758 49138 178620 51694 492586 485183 391001 79249 159094 148020 11903 10643 4266 7403 6197 43563 9929
is_linear=0
shrinkage=0.1


Tree=15
num_leaves=32
num_cat=0
split_feature=4 3 5 9 2 5 1 1 1 3 3 1 8 3 4 4 2 4 4 3 1 2 4 9 1 1 3 3 0 0 3
split_gain=71205.9 58911.2 34787.6 26014.6 18036.4 14076.9 8416.99 8346.34 6440.31 6036.11 8015.25 6343.72 5119.38 4537.5 8382.17 6302.91 4051.41 3703.28 3894.81 8153.29 3559.4 6858.62 3324.61 3308.11 9873.61 6062.91 3179.46 3152.85 3006.75 2900.65 2879.06
threshold=15683.500000000002 2487.5000000000005 28993.500000000004 3.0000000000000004 25.500000000000004 3031.5000000000005 1507.5000000000002 467.50000000000006 578.00000000000011 890.00000000000011 957.50000000000011 80.500000000000014 11.500000000000002 541.00000000000011 8262.0000000000018 3635.0000000000005 8.5000000000000018 3635.0000000000005 5225.5000000000009 2506.5000000000005 135.50000000000003 2.5000000000000004 9399.0000000000018 22.500000000000004 40.500000000000007 84.500000000000014 6631.0000000000009 3078.5000000000005 1580045628.0000002 1580027274.0000002 272.50000000000006
decision_type=2 2 2 2 2 2 2 2 2 2 2 2 2 2 2 2 2 2 2 2 2 2 2 2 2 2 2 2 2 2 2
left_child=1 2 5 4 17 -1 -6 23 9 11 -11 -4 20 15 -15 30 -9 -3 -19 -20 -12 -22 28 24 -5 -25 27 -26 29 -10 -7
right_child=-2 3 8 7 6 13 -8 16 22 10 12 -13 -14 14 -16 -17 -18 18 19 -21 21 -23 -24 25 26 -27 -28 -29 -30 -31 -32
leaf_value=0.051978518504267074 -0.08205608108448903 -0.030490072331009213 -0.15989180446867735 0.010056888516130019 -0.14686042070388794 0.17608340180083498 0.038441598415374756 -0.15497319905287471 -0.079258365813080614 -0.005089914679048812 -0.071201184798584102 -0.054209292001383226 -0.16878858320663137 0.058991384940038062 -0.023629214925481784 0.059069764857269627 -0.023803964044058157 0.059030711650848389 0.038419791245346946 -0.065742269826728539 0.092946469785146923 -0.065652564127029522 -0.15992982278665457 -0.21679786014941432 -0.217806061530609 0.02066373797251465 -0.20346364289792851 0.024707342823912098 -0.043791781499637153 -0.15287931176099465 -0.022941281563794703
leaf_weight=43563 97678 7403 8368 22659 7719 730 3592 2420 19771 47805 29995 17681 4204 24072 25066 10148 87314 94182 383336 7665 4370 7251 5792 1085 786 119200 3193 1686 15345 7338 167742
leaf_count=43563 97678 7403 8368 22659 7719 730 3592 2420 19771 47805 29995 17681 4204 24072 25066 10148 87314 94182 383336 7665 4370 7251 5792 1085 786 119200 3193 1686 15345 7338 167742
internal_value=0 0.00678392 -0.0222434 0.0239616 0.0368372 -0.000103732 -0.0880146 -0.00325951 -0.058016 -0.0455814 -0.0337352 -0.0881588 -0.0636215 -0.0100654 0.0168454 -0.0174686 -0.0273414 0.0397041 0.0407751 0.0363778 -0.0529977 -0.00601245 -0.0888601 0.0112818 -0.0194647 0.0185218 -0.137546 -0.0524025 -0.079164 -0.0991865 -0.0220789
internal_weight=0 1.18148e+06 439241 742240 503897 271321 11311 238343 167920 119674 93625 26049 45820 227758 49138 178620 89734 492586 485183 391001 41616 11621 48246 148609 28324 120285 5665 2472 42454 27109 168472
internal_count=1279159 1181481 439241 742240 503897 271321 11311 238343 167920 119674 93625 26049 45820 227758 49138 178620 89734 492586 485183 391001 41616 11621 48246 148609 28324 120285 5665 2472 42454 27109 168472
is_linear=0
shrinkage=0.1


Tree=16
num_leaves=32
num_cat=0
split_feature=4 3 5 9 2 5 9 8 5 1 2 3 4 4 1 2 4 4 3 4 5 5 9 5 4 3 4 3 1 8 3
split_gain=58301.4 49348.9 27946.2 20999 13545.6 11397.5 8200.98 6511.32 5647.66 4375.01 4209.04 3675.37 6789.56 5105.35 3467.45 4647.21 2984.72 3215.17 7024.23 2872.09 2866.81 2748.98 2654.84 2603.19 2592.19 2590.7 6507.62 5270.63 6825.14 3306.45 2546.31
threshold=25550.000000000004 2487.5000000000005 28993.500000000004 26.500000000000004 25.500000000000004 3031.5000000000005 3.0000000000000004 11.500000000000002 60949.500000000007 47.500000000000007 2.5000000000000004 541.00000000000011 8262.0000000000018 3635.0000000000005 933.00000000000011 14.500000000000002 3635.0000000000005 7001.5000000000009 2506.5000000000005 718.00000000000011 61569.500000000007 1.0000000180025095e-35 3.0000000000000004 4398.5000000000009 9399.0000000000018 890.00000000000011 442.00000000000006 894.50000000000011 135.50000000000003 11.500000000000002 272.50000000000006
decision_type=2 2 2 2 2 2 2 2 2 2 2 2 2 2 2 2 2 2 2 2 2 2 2 2 2 2 2 2 2 2 2
left_child=1 2 5 4 6 21 16 -6 9 -4 25 13 -13 23 15 -5 -3 -18 -19 20 -8 -1 -23 30 -12 26 -11 -27 29 -29 -7
right_child=-2 3 8 14 7 11 19 -9 -10 10 24 12 -14 -15 -16 -17 17 18 -20 -21 -22 22 -24 -25 -26 27 -28 28 -30 -31 -32
leaf_value=-0.053007171495538241 -0.080905023352092084 -0.027441066902472524 -0.2388619158794231 -0.024447829222998433 -0.1262975056227392 0.19874642619145666 0.012695912624165466 0.034597438573837284 -0.14135315037424107 -0.14705045366974329 -0.061200493644193825 0.053092247674575321 -0.021266293042148186 0.053162789587952002 -0.11190575060978047 0.23297536034705277 0.053127507101511845 0.034577812927246598 -0.055859752378819273 -0.061073083715053961 -0.25739610555208275 0.054604579096779994 -0.37404756007523376 0.16227449176406128 -0.14253733446475322 -0.0038365137195775223 -0.03023239134331427 -0.059862605360143678 0.044188361964626083 -0.15921887192312265 -0.021411211937100785
leaf_weight=2597 83271 7403 1185 73989 8391 527 152453 3592 6637 6697 59194 24072 25066 10148 4552 708 94184 383336 8785 5575 394 40830 145 781 4196 47414 16562 29466 6066 3779 167164
leaf_count=2597 83271 7403 1185 73989 8391 527 152453 3592 6637 6697 59194 24072 25066 10148 4552 708 94184 383336 8785 5575 394 40830 145 781 4196 47414 16562 29466 6066 3779 167164
internal_value=0 0.00563351 -0.0204023 0.021483 0.027289 -9.44531e-05 0.0292249 -0.078068 -0.0508122 -0.0473697 -0.0460608 -0.0090589 0.0151609 -0.0157217 -0.0271716 -0.0220079 0.0355773 0.0365366 0.0325517 0.00942819 0.0119997 0.0467642 0.0530877 -0.019871 -0.0665845 -0.0342319 -0.063868 -0.0262837 -0.0533579 -0.0711566 -0.0207193
internal_weight=0 1.19589e+06 452526 743362 664113 271330 652130 11983 181196 174559 173374 227758 49138 178620 79249 74697 493708 486305 392121 158422 152847 43572 40975 168472 63390 109984 23259 86725 39311 33245 167691
internal_count=1279159 1195888 452526 743362 664113 271330 652130 11983 181196 174559 173374 227758 49138 178620 79249 74697 493708 486305 392121 158422 152847 43572 40975 168472 63390 109984 23259 86725 39311 33245 167691
is_linear=0
shrinkage=0.1


Tree=17
num_leaves=32
num_cat=0
split_feature=4 3 5 9 2 5 9 8 1 1 3 4 4 5 3 5 4 4 3 5 3 3 3 3 1 1 1 5 1 4 9
split_gain=47224.1 39972.6 22636.4 17009.2 10972 9232 6642.79 5274.17 4654.15 4220.95 2977.05 5499.54 4135.34 2918.64 2463.48 2448.52 2417.62 2604.29 5689.63 2458.45 2464.55 2390.73 6517.12 6532.77 2695.27 2313.76 2278.19 2267.14 2227.4 2225.09 2189.08
threshold=25550.000000000004 2487.5000000000005 28993.500000000004 26.500000000000004 25.500000000000004 3031.5000000000005 3.0000000000000004 11.500000000000002 578.00000000000011 47.500000000000007 541.00000000000011 8262.0000000000018 3635.0000000000005 49028.500000000007 7374.5000000000009 49514.500000000007 3635.0000000000005 7001.5000000000009 2506.5000000000005 33983.500000000007 7532.5000000000009 3078.5000000000005 2994.5000000000005 3014.5000000000005 84.500000000000014 536.50000000000011 1005.5000000000001 1.0000000180025095e-35 151.50000000000003 442.00000000000006 20.500000000000004
decision_type=2 2 2 2 2 2 2 2 2 2 2 2 2 2 2 2 2 2 2 2 2 2 2 2 2 2 2 2 2 2 2
left_child=1 2 5 4 6 25 16 -6 9 -4 12 -12 -7 -5 21 -10 19 -18 -19 28 -21 22 24 -24 30 27 -20 -1 -3 -15 -8
right_child=-2 3 8 13 7 10 14 -9 15 -11 11 -13 -14 29 -16 -17 17 18 26 20 -22 -23 23 -25 -26 -27 -28 -29 -30 -31 -32
leaf_value=-0.047543701690224177 -0.072814521329826756 0.13216240589240455 -0.2042336236554271 -0.019123552042533389 -0.1136677578167983 -0.017883905409866899 -0.033007890933470008 0.03113769590854645 -0.041456456686093546 -0.034179441505064204 0.047783020463480874 -0.01913966341622618 0.047846511131755282 0.11779636687489317 -0.037378981052455906 -0.088739993530371833 0.047814757358050235 0.031120031263149744 -0.043746442068896198 0.04103559488803149 -0.26654573801251619 0.01853965558571739 -0.44909731783941259 -0.080511319924892036 0.016916546049063126 -0.49520971968770033 -0.44756770133972168 0.048828437743258138 -0.026957120041744467 -0.11208655448321024 -0.20832507096104705
leaf_weight=2596 83271 1059 1476 73572 8391 168472 3648 3592 16782 131414 24072 25066 10148 458 10905 31524 94184 383336 8643 400 747 115790 577 2886 23731 80 142 40896 5197 5219 885
leaf_count=2596 83271 1059 1476 73572 8391 168472 3648 3592 16782 131414 24072 25066 10148 458 10905 31524 94184 383336 8643 400 747 115790 577 2886 23731 80 142 40896 5197 5219 885
internal_value=0 0.00507015 -0.0183621 0.0193347 0.0245601 -8.50083e-05 0.0263024 -0.0702612 -0.045731 -0.0360682 -0.00815301 0.0136448 -0.0141495 -0.0244544 0.00848538 -0.0723132 0.0320196 0.032883 0.0292965 -0.024697 -0.159281 0.0118758 -0.0124443 -0.141925 0.00342011 0.0420878 -0.0502738 0.0430761 -2.17655e-05 -0.0935404 -0.0672359
internal_weight=0 1.19589e+06 452526 743362 664113 271330 652130 11983 181196 132890 227758 49138 178620 79249 158422 48306 493708 486305 392121 7403 1147 147517 31727 3463 28264 43572 8785 43492 6256 5677 4533
internal_count=1279159 1195888 452526 743362 664113 271330 652130 11983 181196 132890 227758 49138 178620 79249 158422 48306 493708 486305 392121 7403 1147 147517 31727 3463 28264 43572 8785 43492 6256 5677 4533
is_linear=0
shrinkage=0.1


Tree=18
num_leaves=32
num_cat=0
split_feature=4 3 5 9 2 5 9 4 5 3 9 3 1 3 3 4 4 5 9 1 1 3 1 3 4 3 5 3 4 4 3
split_gain=38251.5 32377.8 18335.5 13777.5 8887.29 7477.92 5380.66 4381.57 4116.61 3075.31 3639.66 3213.19 4635.74 4519.37 2411.41 4454.63 3349.62 2364.1 2238.76 7791.51 4075.71 2700.72 2363.76 5860.47 2128.48 2115.41 2108.58 2062.51 1958.28 2109.47 4608.6
threshold=25550.000000000004 2487.5000000000005 28993.500000000004 26.500000000000004 25.500000000000004 3031.5000000000005 3.0000000000000004 9399.0000000000018 60949.500000000007 1466.5000000000002 3.0000000000000004 890.00000000000011 80.500000000000014 894.50000000000011 541.00000000000011 8262.0000000000018 3635.0000000000005 49028.500000000007 22.500000000000004 40.500000000000007 84.500000000000014 6631.0000000000009 3267.5000000000005 6774.5000000000009 442.00000000000006 3078.5000000000005 4398.5000000000009 272.50000000000006 3635.0000000000005 7001.5000000000009 2506.5000000000005
decision_type=2 2 2 2 2 2 2 2 2 2 2 2 2 2 2 2 2 2 2 2 2 2 2 2 2 2 2 2 2 2 2
left_child=1 2 5 4 6 -1 28 -6 9 11 -11 12 -4 -13 16 -16 26 -5 19 -8 -20 25 -22 -24 -25 -21 27 -7 -3 -30 -31
right_child=-2 3 8 17 7 14 18 -9 -10 10 -12 13 -14 -15 15 -17 -18 -19 20 21 22 -23 23 24 -26 -27 -28 -29 29 30 -32
leaf_value=0.037878978788581839 -0.065533068908301517 -0.022227263507385055 -0.12350465417741814 -0.017211196620896509 0.018123644624625318 0.18066017159474645 0.0084155464250357803 -0.10817785263061525 -0.11845811480632132 -0.12028883362034551 -0.041398115608565281 -0.00022423860156062827 -0.040155757648158229 -0.042354557736980984 0.043004718863635258 -0.017225697202398287 0.043061861403471478 -0.084186383527213901 -0.17981970588869764 -0.17884992678328338 0.0169248226322594 -0.1833175039771546 -0.30305324318348476 -0.31548870763053066 0.039310044205943098 0.019113053457451321 0.14783543268559685 -0.017481699670010203 0.043033281694865116 0.028008028050889616 -0.045246397857986259
leaf_weight=43572 83271 7403 8049 73572 4264 527 22659 7719 6637 9290 15784 47429 39033 54974 24072 25066 10148 5677 1085 794 125922 3198 808 184 2086 1686 781 167164 94184 383336 8785
leaf_count=43572 83271 7403 8049 73572 4264 527 22659 7719 6637 9290 15784 47429 39033 54974 24072 25066 10148 5677 1085 794 125922 3198 808 184 2086 1686 781 167164 94184 383336 8785
internal_value=0 0.00456314 -0.0165259 0.0174012 0.0221041 -7.65067e-05 0.0236722 -0.0632351 -0.0411579 -0.0382188 -0.0706274 -0.0327827 -0.0544048 -0.0228415 -0.00733771 0.0122803 -0.0127346 -0.022009 0.00763684 -0.0178334 0.0131851 -0.122584 0.0148085 -0.0717726 0.010551 -0.044267 -0.0160955 -0.016859 0.0288176 0.0295947 0.0263669
internal_weight=0 1.19589e+06 452526 743362 664113 271330 652130 11983 181196 174559 25074 149485 47082 102403 227758 49138 178620 79249 158422 28337 130085 5678 129000 3078 2270 2480 168472 167691 493708 486305 392121
internal_count=1279159 1195888 452526 743362 664113 271330 652130 11983 181196 174559 25074 149485 47082 102403 227758 49138 178620 79249 158422 28337 130085 5678 129000 3078 2270 2480 168472 167691 493708 486305 392121
is_linear=0
shrinkage=0.1


Tree=19
num_leaves=32
num_cat=0
split_feature=4 3 5 9 2 5 3 4 2 1 9 5 2 4 5 2 5 3 4 3 3 3 1 0 0 3 3 3 4 8 3
split_gain=30983.7 26226 14863.8 11159.7 7198.71 6148.46 4729.02 3549.07 3306.2 3273.72 3122.51 2763.64 2150.87 2110.23 2832.43 1976.11 1943.71 2810.47 1819.83 1806.53 5041.8 4660.86 1907.11 1783.65 2370.28 1690.44 3328.59 1660.91 3505.9 2731.01 1632.12
threshold=25550.000000000004 2487.5000000000005 33608.500000000007 26.500000000000004 25.500000000000004 3031.5000000000005 7374.5000000000009 9399.0000000000018 2.5000000000000004 47.500000000000007 3.0000000000000004 45015.500000000007 8.5000000000000018 442.00000000000006 48148.500000000007 12.500000000000002 1317.5000000000002 292.50000000000006 9399.0000000000018 3078.5000000000005 2994.5000000000005 3014.5000000000005 80.500000000000014 1580066787.5000002 1580027274.0000002 6873.5000000000009 2506.5000000000005 541.00000000000011 442.00000000000006 11.500000000000002 890.00000000000011
decision_type=2 2 2 2 2 2 2 2 2 2 2 2 2 2 2 2 2 2 2 2 2 2 2 2 2 2 2 2 2 2 2
left_child=1 2 5 4 6 16 10 -6 9 -4 25 -8 -13 15 -15 -5 17 -1 23 20 22 -22 -12 24 -10 26 -3 29 -29 -7 -11
right_child=-2 3 8 13 7 27 11 -9 18 30 19 12 -14 14 -16 -17 -18 -19 -20 -21 21 -23 -24 -25 -26 -27 -28 28 -30 -31 -32
leaf_value=-0.21400118434112861 -0.058979758757157212 0.025207226653851084 -0.17481439813627336 -0.13427406203438033 0.016311279447368342 0.037299052443859011 -0.015407718719412695 -0.097360062599182132 -0.049704687206911069 -0.048589458788936966 -0.057038371599697185 -0.19580115573144105 0.0081524878740310679 -0.016509979544752678 -0.092461582869829154 0.20589923775679356 0.045571875154003821 0.00875146316345452 -0.10814362664699045 0.015650554027511959 -0.38462670300820878 -0.073294947323746265 0.013971274064514115 -0.02607093336661713 -0.10910388813903234 0.038485919770467843 -0.028312497224797992 0.034921696528569891 -0.016650311983414396 -0.014540669321925638 -0.018286213484443672
leaf_weight=603 83271 383336 1472 222 4264 10813 12593 7719 32745 22509 4498 1660 751 73023 5264 740 33634 9335 5850 115790 577 2886 23766 20981 8452 94289 11984 25986 26752 168912 84482
leaf_count=603 83271 383336 1472 222 4264 10813 12593 7719 32745 22509 4498 1660 751 73023 5264 740 33634 9335 5850 115790 577 2886 23766 20981 8452 94289 11984 25986 26752 168912 84482
internal_value=0 0.00410683 -0.0148733 0.0156611 0.0198937 -0.000381532 0.021305 -0.0569115 -0.0375387 -0.0266993 0.0226118 -0.0341867 -0.132272 -0.0198081 -0.0216169 0.127398 0.0340911 -0.00476432 -0.054821 0.00985786 -0.011283 -0.125169 0.00267063 -0.0498041 -0.0618911 0.0264545 0.0235848 -0.00684295 0.00876116 -0.0114218 -0.0246615
internal_weight=0 1.19589e+06 452526 743362 664113 276035 652130 11983 176491 108463 637126 15004 2411 79249 78287 962 43572 9938 68028 147517 31727 3463 28264 62178 41197 489609 395320 232463 52738 179725 106991
internal_count=1279159 1195888 452526 743362 664113 276035 652130 11983 176491 108463 637126 15004 2411 79249 78287 962 43572 9938 68028 147517 31727 3463 28264 62178 41197 489609 395320 232463 52738 179725 106991
is_linear=0
shrinkage=0.1


Tree=20
num_leaves=32
num_cat=0
split_feature=4 3 5 9 2 5 3 8 5 9 3 9 5 3 1 3 1 5 1 2 5 4 5 3 4 4 5 3 2 9 3
split_gain=25096.8 21243.1 12125.8 9039.39 5830.95 4889.36 3830.5 2947.38 2899.95 2529.24 2274.76 2771.55 2238.55 2137.44 3665.84 3405.01 1859.08 1803.35 1800.9 1742.2 1723.89 1709.28 2297.51 1618.31 2954.34 2210.57 1707.95 1670.63 1602.08 1582.46 5573.17
threshold=25550.000000000004 2487.5000000000005 28993.500000000004 26.500000000000004 25.500000000000004 3031.5000000000005 7374.5000000000009 11.500000000000002 60949.500000000007 3.0000000000000004 1466.5000000000002 3.0000000000000004 45015.500000000007 890.00000000000011 80.500000000000014 894.50000000000011 536.50000000000011 60638.500000000007 105.00000000000001 8.5000000000000018 1.0000000180025095e-35 442.00000000000006 41528.500000000007 541.00000000000011 8262.0000000000018 3635.0000000000005 4398.5000000000009 272.50000000000006 14.500000000000002 22.500000000000004 6631.0000000000009
decision_type=2 2 2 2 2 2 2 2 2 2 2 2 2 2 2 2 2 2 2 2 2 2 2 2 2 2 2 2 2 2 2
left_child=1 2 5 4 6 16 9 -6 10 -3 13 -12 -8 14 -4 -15 20 -13 -16 -14 -1 28 -23 25 -25 26 27 -7 -5 30 -11
right_child=-2 3 8 21 7 23 12 -9 -10 29 11 17 19 15 18 -17 -18 -19 -20 -21 -22 22 -24 24 -26 -27 -28 -29 -30 -31 -32
leaf_value=-0.047452375462683404 -0.053081783789200671 0.023809008468595266 -0.10535767059907426 -0.11958048335343069 -0.083669035209331971 0.16404822596562657 -0.01386694578619707 0.024580433964729309 -0.098296562045603816 0.0076707054245624615 -0.10215957691830826 -0.040522054059272179 -0.17622103867289352 0.0014647477151751682 0.17471522645581339 -0.035104400853192469 -0.45093868136405946 0.12525601122017854 -0.033479282609561525 0.0073372371861842606 0.036583929572980241 -0.014697978531859815 -0.081144501934697022 0.035212079025668815 -0.013838097018911351 0.03502576959752219 0.1345059609787107 -0.01427946259360981 0.1857546922314135 0.0138051616194333 -0.11232610610427388
leaf_weight=2596 83271 489609 8049 224 8391 527 12593 3592 6637 22607 9290 15098 1660 47429 420 54974 80 686 38613 751 40896 72682 5605 24072 25066 10148 781 167164 738 120240 4670
leaf_count=2596 83271 489609 8049 224 8391 527 12593 3592 6637 22607 9290 15098 1660 47429 420 54974 80 686 38613 751 40896 72682 5605 24072 25066 10148 781 167164 738 120240 4670
internal_value=0 0.00369614 -0.013386 0.014095 0.0179043 -8.96936e-06 0.0191745 -0.0512204 -0.0334172 0.0203506 -0.0309504 -0.0588234 -0.030768 -0.0262751 -0.0439102 -0.018167 0.030682 -0.0333171 -0.0312391 -0.119045 0.0315679 -0.0178273 -0.0194553 -0.0058804 0.0101909 -0.0103016 -0.0130319 -0.013719 0.114658 0.00887207 -0.0128735
internal_weight=0 1.19589e+06 452526 743362 664113 271330 652130 11983 181196 637126 174559 25074 15004 149485 47082 102403 43572 15784 39033 2411 43492 79249 78287 227758 49138 178620 168472 167691 962 147517 27277
internal_count=1279159 1195888 452526 743362 664113 271330 652130 11983 181196 637126 174559 25074 15004 149485 47082 102403 43572 15784 39033 2411 43492 79249 78287 227758 49138 178620 168472 167691 962 147517 27277
is_linear=0
shrinkage=0.1


Tree=21
num_leaves=32
num_cat=0
split_feature=4 3 5 9 2 5 3 4 5 5 1 3 9 9 9 3 3 1 1 3 1 1 3 1 5 1 3 2 4 1 9
split_gain=20328.4 17206.9 9821.91 7363.33 4613.59 3960.38 2583.96 2577.55 2458.98 2370.41 2067.93 1856.45 2446.03 1752.73 1659.02 1567.69 2671.71 2416.99 3166.6 1518.31 1478.97 1461.14 1456.84 1424.95 1424.32 1411.74 4560.95 2368.33 1708.67 1407.65 1370.21
threshold=25550.000000000004 2487.5000000000005 28993.500000000004 24.500000000000004 25.500000000000004 3031.5000000000005 7374.5000000000009 9399.0000000000018 45904.500000000007 61569.500000000007 47.500000000000007 1466.5000000000002 3.0000000000000004 3.0000000000000004 3.0000000000000004 890.00000000000011 894.50000000000011 80.500000000000014 71.500000000000014 1096.5000000000002 151.50000000000003 105.00000000000001 7731.0000000000009 139.50000000000003 1117.5000000000002 3194.0000000000005 6774.5000000000009 14.500000000000002 442.00000000000006 126.50000000000001 22.500000000000004
decision_type=2 2 2 2 2 2 2 2 2 2 2 2 2 2 2 2 2 2 2 2 2 2 2 2 2 2 2 2 2 2 2
left_child=1 2 5 4 6 14 13 -6 22 10 -4 15 -13 -3 24 17 20 18 -12 -18 -17 -19 -8 29 -1 27 -27 -25 -28 -5 -15
right_child=-2 3 9 23 7 -7 8 -9 -10 -11 11 12 -14 30 -16 16 19 21 -20 -21 -22 -23 -24 25 -26 26 28 -29 -30 -31 -32
leaf_value=-0.021510275899886324 -0.047773605722780693 0.021428108630070351 -0.15968839188794046 0.031301532584008668 0.023043602141419071 -0.0052923623418672482 -0.019233461294909743 -0.079257154464721688 -0.15576840454604118 -0.094122858864255254 0.1494345103525648 -0.09209837940912935 -0.027944055332927133 -0.011586177724938321 -0.31007569966645077 0.0018695004257236925 -0.037361092609459752 0.1572436998145921 -0.10891963826054159 0.012314594230189742 -0.64841921670096259 -0.030279067492598136 0.14064462920510909 -0.01103591112979415 0.035268055407529815 -0.19516999954146941 -0.26926602688702672 0.081578498281894285 0.017915530664382603 -0.18335309506611344 0.013666014824886878
leaf_weight=4992 83271 489609 1185 454 3617 227758 11750 7719 1306 5600 510 9556 15719 27277 145 47484 47929 420 6800 7059 35 38899 599 90510 38435 1723 220 2848 3555 934 101241
leaf_count=4992 83271 489609 1185 454 3617 227758 11750 7719 1306 5600 510 9556 15719 27277 145 47484 47929 420 6800 7059 35 38899 599 90510 38435 1723 220 2848 3555 934 101241
internal_value=0 0.00332653 -0.0120474 0.0126855 0.0166148 -8.07292e-06 0.0177494 -0.0466158 -0.0252787 -0.0300755 -0.028033 -0.0271384 -0.0521996 0.0186999 0.0276138 -0.0228912 -0.0159762 -0.0380927 -0.0908949 -0.0309841 0.00139053 -0.028276 -0.0114784 -0.0125234 0.0287413 -0.0111106 -0.0603541 -0.0082106 0.00117912 -0.113142 0.00830642
internal_weight=0 1.19589e+06 452526 743362 643118 271330 631782 11336 13655 181196 175596 174411 25275 618127 43572 149136 102507 46629 7310 54988 47519 39319 12349 100244 43427 98856 5498 93358 3775 1388 128518
internal_count=1279159 1195888 452526 743362 643118 271330 631782 11336 13655 181196 175596 174411 25275 618127 43572 149136 102507 46629 7310 54988 47519 39319 12349 100244 43427 98856 5498 93358 3775 1388 128518
is_linear=0
shrinkage=0.1


Tree=22
num_leaves=32
num_cat=0
split_feature=4 3 5 9 2 5 3 1 4 1 5 1 3 4 5 6 5 3 3 1 1 1 2 3 5 9 2 4 5 2 3
split_gain=16466 13937.6 7980.92 6075.95 3827.84 3315.68 2573.71 2007.12 1934.76 1922.61 1892.77 1568.83 3828.31 1554.32 1541.51 1433.48 1590.46 1351.31 2677.95 1298.47 2758.4 1314.99 1441.62 2475.84 1298.36 1302.47 1281.36 1242.42 1720.89 1206.21 1203.52
threshold=25550.000000000004 2487.5000000000005 34681.500000000007 26.500000000000004 25.500000000000004 3031.5000000000005 7374.5000000000009 578.00000000000011 9399.0000000000018 47.500000000000007 61569.500000000007 3306.5000000000005 6774.5000000000009 442.00000000000006 45904.500000000007 1.0000000180025095e-35 17236.500000000004 292.50000000000006 272.50000000000006 209.00000000000003 167.00000000000003 158.50000000000003 1.5000000000000002 2553.5000000000005 1.0000000180025095e-35 3.0000000000000004 9.5000000000000018 442.00000000000006 48148.500000000007 12.500000000000002 2553.5000000000005
decision_type=2 2 2 2 2 2 2 2 2 2 2 2 2 2 2 2 2 2 2 2 2 2 2 2 2 2 2 2 2 2 2
left_child=1 2 5 4 6 17 10 9 -6 -4 11 15 -13 -14 -8 16 -3 18 -1 20 21 22 23 -18 -19 -26 -16 29 -29 -5 -24
right_child=-2 3 7 27 8 -7 14 -9 -10 -11 -12 12 13 -15 26 -17 19 24 -20 -21 -22 -23 30 -25 25 -27 -28 28 -30 -31 -32
leaf_value=0.039048131464276825 -0.042996245760603631 0.029164282888257155 -0.13508868788120773 -0.10624147462952245 0.012596528100245807 -0.0051488015049970569 -0.011646059495822911 -0.045664863917889598 -0.071331441402435303 -0.019926390929496059 -0.19773615355630525 -0.24520230878229815 -0.26165941178472968 0.044359865965062729 -0.1484912521298177 -0.035756848115356593 -0.1461910929558051 -0.040556109109993896 -0.25368832140229641 0.017981697243012473 -0.050674325432628398 0.10284161972837946 0.017382033188988465 0.015290760966389967 0.033497350966111894 -0.27879903719051563 0.014027603894904039 -0.012161966260376855 -0.071363592053350286 0.1595292961114162 -0.038174250006764499
leaf_weight=802 83271 97549 1467 222 4264 238356 12680 46384 7719 122747 412 786 183 1784 1634 5109 959 2596 512 408604 7960 1512 6121 95404 39528 134 690 73023 5264 740 10743
leaf_count=802 83271 97549 1467 222 4264 238356 12680 46384 7719 122747 412 786 183 1784 1634 5109 959 2596 512 408604 7960 1512 6121 95404 39528 134 690 73023 5264 740 10743
internal_value=0 0.00299388 -0.0108426 0.0114169 0.01454 -0.000512113 0.0155691 -0.0279147 -0.0414667 -0.0212865 0.0165332 0.0166719 -0.0586541 0.0158893 -0.0253684 0.016999 0.0174276 0.0248524 -0.0750166 0.0152727 0.00625124 0.0102004 0.00896334 0.0136837 0.0279578 0.0324422 -0.100239 -0.0147547 -0.0161427 0.0981976 -0.0180094
internal_weight=0 1.19589e+06 452526 743362 664113 281928 652130 170598 11983 124214 637126 636714 2753 1967 15004 633961 628852 43572 1314 531303 122699 114739 113227 96363 42258 39662 2324 79249 78287 962 16864
internal_count=1279159 1195888 452526 743362 664113 281928 652130 170598 11983 124214 637126 636714 2753 1967 15004 633961 628852 43572 1314 531303 122699 114739 113227 96363 42258 39662 2324 79249 78287 962 16864
is_linear=0
shrinkage=0.1


Tree=23
num_leaves=32
num_cat=0
split_feature=4 3 5 9 5 2 9 3 8 5 1 3 1 3 4 5 1 3 3 6 5 5 3 3 3 3 5 1 1 4 1
split_gain=13337.5 11289.4 6545.57 4921.52 3336.76 3100.55 2098.95 2084.71 1601.68 1533.15 1511.5 1411.35 1270.76 3100.93 1259 1254.02 1241.1 1238.12 1739.61 1161.12 1288.27 1161 1141.85 1066.4 1065.96 2220.84 1073.76 1051.76 2234.31 1181.17 1065.14
threshold=25550.000000000004 2487.5000000000005 48386.500000000007 26.500000000000004 3031.5000000000005 25.500000000000004 26.500000000000004 7374.5000000000009 11.500000000000002 61569.500000000007 47.500000000000007 2397.5000000000005 3306.5000000000005 6774.5000000000009 442.00000000000006 45015.500000000007 821.00000000000011 7588.0000000000009 7645.5000000000009 1.0000000180025095e-35 17236.500000000004 61569.500000000007 2354.5000000000005 7731.0000000000009 292.50000000000006 272.50000000000006 1.0000000180025095e-35 209.00000000000003 167.00000000000003 7001.5000000000009 158.50000000000003
decision_type=2 2 2 2 2 2 2 2 2 2 2 2 2 2 2 2 2 2 2 2 2 2 2 2 2 2 2 2 2 2 2
left_child=1 2 4 5 16 7 10 9 -7 12 -4 21 19 -14 -15 23 24 -17 -19 20 -3 22 -12 -9 25 -1 -26 28 30 -30 -22
right_child=-2 3 6 -5 -6 8 -8 15 -10 -11 11 -13 13 14 -16 17 -18 18 -20 -21 27 -23 -24 -25 26 -27 -28 -29 29 -31 -32
leaf_value=0.038787209158129901 -0.038696620002024083 0.026247854509540088 -0.12966377967236084 -0.013279229435987888 -0.0071629760386209967 -0.061240366309039465 -0.072693688283611682 -0.016981618999798449 0.018558377027511598 -0.17796253733160608 -0.0221241013772886 -0.079085761165904434 -0.22068207164700251 -0.23549346936856463 0.039923880108937021 -0.17265909606621943 -0.39538702100095618 0.12974203406360471 -0.10702231784738803 -0.032181161702157561 0.0080670046160993981 -0.099309285847021131 0.075455299738589818 0.11435324817987308 -0.036500498822363579 -0.22831948791863399 0.029887424533004525 0.016183527970254932 -0.1673881613371575 -0.033422032130430122 0.092557458199619774
leaf_weight=794 83271 97549 1424 79249 314123 8391 11741 11941 3592 412 73852 4676 786 183 1784 1019 71 467 925 5109 113227 1919 1219 652 2596 512 39599 408604 724 7236 1512
leaf_count=794 83271 97549 1424 79249 314123 8391 11741 11941 3592 412 73852 4676 786 183 1784 1019 71 467 925 5109 113227 1919 1219 652 2596 512 39599 408604 724 7236 1512
internal_value=0 0.00269449 -0.00975838 0.0102752 -0.00356581 0.013086 -0.0331162 0.0140122 -0.0373201 0.0148799 -0.0275238 -0.0257428 0.0150047 -0.0527887 0.0143004 -0.0228316 0.0223672 -0.0889032 -0.0275906 0.0152991 0.0156848 -0.022503 -0.0205396 -0.0101818 0.023049 -0.0659284 0.025803 0.0137454 0.00562612 -0.0456069 0.0091804
internal_weight=0 1.19589e+06 452526 743362 357695 664113 94831 652130 11983 637126 83090 81666 636714 2753 1967 15004 43572 2411 1392 633961 628852 76990 75071 12593 43501 1306 42195 531303 122699 7960 114739
internal_count=1279159 1195888 452526 743362 357695 664113 94831 652130 11983 637126 83090 81666 636714 2753 1967 15004 43572 2411 1392 633961 628852 76990 75071 12593 43501 1306 42195 531303 122699 7960 114739
is_linear=0
shrinkage=0.1


Tree=24
num_leaves=32
num_cat=0
split_feature=4 3 5 9 3 4 4 5 2 3 3 3 3 9 5 4 3 9 0 5 4 5 3 1 3 5 4 4 5 1 3
split_gain=10803.4 9144.45 5550.52 3986.43 2774.91 3943.89 3489.09 3589.64 2511.45 2015.11 1688.61 1642 1775.14 1692.12 1373.59 1363.5 4062.43 1826.23 1302.84 1677.25 1300.63 1241.85 1068.25 1029.31 2511.75 1021.23 1019.79 1006.36 1393.92 1139.81 980.501
threshold=25550.000000000004 2487.5000000000005 28993.500000000004 26.500000000000004 541.00000000000011 442.00000000000006 3635.0000000000005 1317.5000000000002 25.500000000000004 524.50000000000011 7374.5000000000009 1223.0000000000002 1202.5000000000002 3.0000000000000004 4398.5000000000009 442.00000000000006 829.50000000000011 3.0000000000000004 1580205168.0000002 56256.500000000007 9399.0000000000018 61569.500000000007 2061.5000000000005 3306.5000000000005 6774.5000000000009 45904.500000000007 442.00000000000006 442.00000000000006 48148.500000000007 9532.5000000000018 272.50000000000006
decision_type=2 2 2 2 2 2 2 2 2 2 2 2 2 2 2 2 2 2 2 2 2 2 2 2 2 2 2 2 2 2 2
left_child=1 2 4 8 6 -6 7 9 10 -1 21 12 15 -13 30 16 17 -4 -15 -20 -10 23 -21 -3 -25 -12 -26 -5 -29 -30 -9
right_child=-2 3 11 27 5 -7 -8 14 20 -11 25 13 -14 18 -16 -17 -18 -19 19 22 -22 -23 -24 24 26 -27 -28 28 29 -31 -32
leaf_value=-0.087735026212868342 -0.034826958315581566 0.013769158893070938 -0.096820678100052113 0.089705744106903407 0.032621481376172809 -0.014209683542597148 0.033185173354283559 0.080694231577690734 0.010738652916432938 -0.34558375525687424 -0.0093793426204270072 -0.073944618440747831 0.060394202671918779 -0.047814783266773131 0.12281577468643422 -0.02722790172196405 0.0030596194961763062 0.027176689909086196 -0.024860080553115768 0.17331850943965701 -0.058074259757995607 -0.16016628347626591 0.030256444905424104 -0.19861387391373253 -0.21194412138292701 -0.081488112383842681 0.035931494115379894 -0.0096178470138702874 -0.069728817632504991 0.25414977782481424 -0.010740292697682669
leaf_weight=937 83271 633961 6467 962 50929 27798 20143 1181 4264 448 12680 11422 2830 10903 781 90313 49703 1455 5649 753 7719 412 1701 786 183 2324 1784 73023 5153 111 169113
leaf_count=937 83271 633961 6467 962 50929 27798 20143 1181 4264 448 12680 11422 2830 10903 781 90313 49703 1455 5649 753 7719 412 1701 786 183 2324 1784 73023 5153 111 169113
internal_value=0 0.00242504 -0.00878254 0.00924772 0.000267918 0.0160857 -0.00619764 -0.0107975 0.0117774 -0.17114 0.012611 -0.0223351 -0.0180585 -0.043525 -0.00949937 -0.0195593 -0.00754056 -0.0740466 -0.0252438 0.00512655 -0.033588 0.0133919 0.0741545 0.0135042 -0.0475098 -0.0205484 0.0128704 -0.0119513 -0.0132005 -0.0628993 -0.0101062
internal_weight=0 1.19589e+06 452526 743362 271330 78727 192603 172460 664113 1385 652130 181196 150768 30428 171075 147938 57625 7922 19006 8103 11983 637126 2454 636714 2753 15004 1967 79249 78287 5264 170294
internal_count=1279159 1195888 452526 743362 271330 78727 192603 172460 664113 1385 652130 181196 150768 30428 171075 147938 57625 7922 19006 8103 11983 637126 2454 636714 2753 15004 1967 79249 78287 5264 170294
is_linear=0
shrinkage=0.1


Tree=25
num_leaves=32
num_cat=0
split_feature=4 3 5 9 2 5 9 2 3 9 9 1 1 3 1 5 3 3 3 3 1 6 3 3 3 9 5 1 5 3 2
split_gain=8750.72 7407 4529.14 3410.51 2207.68 2134.14 1658.11 1603.41 1514.5 1512.78 1382.65 1786.76 1279.83 1131.05 1130 1062.04 1048.6 1286.93 1341.68 1262.55 986.285 948.689 863.486 18306.5 2341.18 2557.96 2068.4 841.169 828.317 3285.91 1636.81
threshold=25550.000000000004 2487.5000000000005 48801.500000000007 3.0000000000000004 25.500000000000004 3031.5000000000005 26.500000000000004 1.5000000000000002 2553.5000000000005 22.500000000000004 25.500000000000004 779.50000000000011 47.500000000000007 2548.5000000000005 1507.5000000000002 60949.500000000007 3078.5000000000005 6631.0000000000009 7937.5000000000009 2994.5000000000005 829.50000000000011 1.0000000180025095e-35 292.50000000000006 301.50000000000006 524.50000000000011 3.0000000000000004 4398.5000000000009 117.00000000000001 17236.500000000004 2994.5000000000005 3.5000000000000004
decision_type=2 2 2 2 2 2 2 2 2 2 2 2 2 2 2 2 2 2 2 2 2 2 2 2 2 2 2 2 2 2 2
left_child=1 2 5 4 28 20 10 8 13 16 11 12 -4 -5 -6 27 19 -18 -19 -9 -1 -8 -7 26 25 -25 -24 -11 -3 30 -30
right_child=-2 3 6 7 14 22 21 9 -10 15 -12 -13 -14 -15 -16 -17 17 18 -20 -21 -22 -23 23 24 -26 -27 -28 -29 29 -31 -32
leaf_value=0.018522009700447668 -0.031344264879958915 0.022065759859457485 -0.11389571247057301 -0.021290942600795202 -0.05226683020591736 -0.013325118283610807 -0.06795499068524842 -0.049922130128834397 0.010021151452783424 0.1966645510749119 0.014535101449721984 -0.062961287962275 -0.017952997151381465 -0.16007178946899847 0.015628673136234283 -0.086185160559623386 0.015590971378311289 -0.13321966610768324 0.1489941006154071 -0.3558700749437318 -0.35714347630739218 0.096060282470924518 0.38308964481921781 0.02675114925215118 -0.0072874953880453092 0.21784593499203525 0.15095628658496185 -0.0060589461856405879 -0.030621574091621574 -0.14945536019052535 0.013391901698592602
leaf_weight=43502 83271 100761 1424 1820 7719 100847 11319 278 98617 205 8945 11674 58868 867 3592 1662 1655 1699 187 262 70 364 1276 10609 202329 750 549 131091 8640 1258 383049
leaf_count=43502 83271 100761 1424 1820 7719 100847 11319 278 98617 205 8945 11674 58868 867 3592 1662 1655 1699 187 262 70 364 1276 10609 202329 750 549 131091 8640 1258 383049
internal_value=0 0.00218254 -0.00790429 0.00832295 0.0129762 -0.00283009 -0.0276287 -0.00153671 0.00800288 -0.00858871 -0.0225438 -0.0271525 -0.020219 -0.0660706 -0.0307055 -0.00674797 -0.0685596 -0.0487645 -0.105238 -0.198364 0.0179185 -0.0628449 -0.00568778 -0.00211396 -0.0048074 0.0393686 0.313259 -0.00574242 0.013977 0.0119028 0.012421
internal_weight=0 1.19589e+06 452526 743362 505019 359932 92594 238343 101304 137039 80911 71966 60292 2687 11311 132958 4081 3541 1886 540 43572 11683 316360 215513 213688 11359 1825 131296 493708 392947 391689
internal_count=1279159 1195888 452526 743362 505019 359932 92594 238343 101304 137039 80911 71966 60292 2687 11311 132958 4081 3541 1886 540 43572 11683 316360 215513 213688 11359 1825 131296 493708 392947 391689
is_linear=0
shrinkage=0.1


Tree=26
num_leaves=32
num_cat=0
split_feature=4 3 5 9 3 4 4 5 2 3 2 3 9 3 3 9 4 3 4 0 5 3 3 5 3 1 5 1 3 1 2
split_gain=7088.09 5999.67 3834 2762.51 2128.53 3018.13 2428.22 3000.54 1788.22 1636.19 1298.76 1226.74 1225.35 1137.77 1427.97 1277.37 1038.95 3335.6 1438.07 968.616 1367.07 921.538 1019.72 919.398 916.151 915.3 895.928 895.521 3071.56 2143.11 2090.38
threshold=25550.000000000004 2487.5000000000005 28993.500000000004 3.0000000000000004 541.00000000000011 442.00000000000006 3635.0000000000005 1317.5000000000002 25.500000000000004 524.50000000000011 1.5000000000000002 2553.5000000000005 22.500000000000004 1223.0000000000002 1202.5000000000002 3.0000000000000004 442.00000000000006 829.50000000000011 101.50000000000001 1580205168.0000002 56256.500000000007 292.50000000000006 272.50000000000006 4398.5000000000009 2548.5000000000005 1507.5000000000002 61569.500000000007 2127.5000000000005 6774.5000000000009 2179.5000000000005 10.500000000000002
decision_type=2 2 2 2 2 2 2 2 2 2 2 2 2 2 2 2 2 2 2 2 2 2 2 2 2 2 2 2 2 2 2
left_child=1 2 4 8 6 -6 7 9 -3 21 11 24 -12 14 16 -15 17 18 -4 -17 -21 22 -1 -9 -5 -10 -19 30 -29 -30 -14
right_child=-2 3 13 10 5 -7 -8 23 25 -11 12 -13 27 15 -16 19 -18 26 -20 20 -22 -23 -24 -25 -26 -27 -28 28 29 -31 -32
leaf_value=0.081393621068635444 -0.028209838407749793 0.012579264426831525 0.023812337673806788 -0.019161849809544426 0.028727039718075994 -0.012240646160756138 0.02759987262519133 -0.0084015660357406059 -0.047040149569511414 -0.3128775822796992 -0.061703605275109132 0.0090190363952634429 -0.0063327715045123625 -0.062446343242558516 0.055546583917136752 -0.039594507244168978 -0.022857689659482379 0.0043369765473143572 -0.086162423593354437 -0.021018346007349514 0.068372862929206565 0.050274311589915854 -0.22799785657410038 0.10034606483706517 -0.14406461026154313 0.014065806567668915 -0.44206593010160661 -0.12556913208817638 -0.23920913793062423 0.013528739404969735 0.06298964786750666
leaf_weight=139 83271 493708 1457 1820 50929 27798 20143 170294 7719 448 4081 98617 118952 11422 2830 10903 90313 49658 6465 5649 2454 342 456 781 867 3592 45 2714 354 6423 4515
leaf_count=139 83271 493708 1457 1820 50929 27798 20143 170294 7719 448 4081 98617 118952 11422 2830 10903 90313 49658 6465 5649 2454 342 456 781 867 3592 45 2714 354 6423 4515
internal_value=0 0.00196428 -0.00711386 0.00749065 0.000408077 0.0142616 -0.00525459 -0.00909193 0.0116786 -0.155689 -0.00138304 0.0072026 -0.00772984 -0.0183775 -0.0148176 -0.0360164 -0.0161637 -0.00567241 -0.0659361 -0.0201328 0.00605385 -0.0805331 -0.15572 -0.00790511 -0.0594636 -0.0276349 0.00393281 -0.00607317 -0.0356738 0.000326849 -0.00379776
internal_weight=0 1.19589e+06 452526 743362 271330 78727 192603 172460 505019 1385 238343 101304 137039 181196 150768 30428 147938 57625 7922 19006 8103 937 595 171075 2687 11311 49703 132958 9491 6777 123467
internal_count=1279159 1195888 452526 743362 271330 78727 192603 172460 505019 1385 238343 101304 137039 181196 150768 30428 147938 57625 7922 19006 8103 937 595 171075 2687 11311 49703 132958 9491 6777 123467
is_linear=0
shrinkage=0.1


Tree=27
num_leaves=32
num_cat=0
split_feature=4 3 5 9 5 2 9 9 1 3 1 9 1 6 5 5 0 3 3 5 3 3 3 4 1 1 2 5 1 1 9
split_gain=5741.35 4859.73 3130 2311.77 1350.09 1343.89 1297.61 1109.04 1244.59 1103.5 1017.57 868.47 868.539 825.512 844.853 806.708 803.264 789.235 785.192 755.629 992.156 1407.09 843.929 741.767 993.779 1224.81 887.127 733.584 727.615 1331.54 1133.33
threshold=25550.000000000004 2487.5000000000005 48606.500000000007 26.500000000000004 3031.5000000000005 25.500000000000004 26.500000000000004 25.500000000000004 779.50000000000011 7415.0000000000009 47.500000000000007 3.0000000000000004 1239.5000000000002 1.0000000180025095e-35 17236.500000000004 61569.500000000007 1580087933.5000002 2170.0000000000005 2397.5000000000005 45904.500000000007 7588.0000000000009 7645.5000000000009 7731.0000000000009 442.00000000000006 685.50000000000011 8123.5000000000009 10.500000000000002 1.0000000180025095e-35 132.50000000000003 139.50000000000003 28.500000000000004
decision_type=2 2 2 2 2 2 2 2 2 2 2 2 2 2 2 2 2 2 2 2 2 2 2 2 2 2 2 2 2 2 2
left_child=1 2 4 5 11 9 7 8 10 13 -4 12 -1 14 27 -16 -8 -6 -12 22 -21 -22 -11 26 28 -26 -5 -3 -25 -30 -31
right_child=-2 3 6 23 17 -7 16 -9 -10 19 18 -13 -14 -15 15 -17 -18 -19 -20 20 21 -23 -24 24 25 -27 -28 -29 29 30 -32
leaf_value=0.015478839892462754 -0.02538885189713825 -0.033701893687248234 -0.10015812967223732 -0.098484293188561098 -0.0048280590621897698 -0.024517317723100774 -0.061685762565121795 0.014782040369700931 -0.052190041707973124 -0.014429586210051235 -0.01305187440184063 -0.2299812397341533 -0.61300386190414435 -0.030123191472413349 0.008774462576822524 -0.13120904895431787 0.033561120449632907 0.059200883262478701 -0.09829014727302729 -0.1561875182449608 0.1223963632186254 -0.092618749000208209 0.10066926516094321 0.18390589934406859 -0.064318468744459831 0.17596984182794889 0.13016355187905768 0.020218737899878006 -0.13734052089009871 0.2050565838932045 -0.0073832940762465372
leaf_weight=43405 83271 2592 1424 220 313398 11983 10739 9049 11719 11921 58622 145 22 5111 534259 412 965 1937 1101 853 465 881 673 198 4772 222 742 94963 788 252 72055
leaf_count=43405 83271 2592 1424 220 313398 11983 10739 9049 11719 11921 58622 145 22 5111 534259 412 965 1937 1101 853 465 881 673 198 4772 222 742 94963 788 252 72055
internal_value=0 0.00176785 -0.00640247 0.00674159 -0.00215489 0.00866799 -0.0226864 -0.0182362 -0.0223367 0.00927778 -0.0166152 0.0143447 0.0151605 0.00990448 0.0102281 0.0086666 -0.0538326 -0.00443475 -0.0146233 -0.0177229 -0.0718103 -0.0183379 -0.00827892 -0.00940185 -0.0104743 -0.0536368 0.077874 0.0187861 -0.00753332 -0.0080519 -0.00664291
internal_weight=0 1.19589e+06 452526 743362 358907 664113 93619 81915 72866 652130 61147 43572 43427 637337 632226 534671 11704 315335 59723 14793 2199 1346 12594 79249 78287 4994 962 97555 73293 73095 72307
internal_count=1279159 1195888 452526 743362 358907 664113 93619 81915 72866 652130 61147 43572 43427 637337 632226 534671 11704 315335 59723 14793 2199 1346 12594 79249 78287 4994 962 97555 73293 73095 72307
is_linear=0
shrinkage=0.1


Tree=28
num_leaves=32
num_cat=0
split_feature=4 3 5 9 3 3 5 5 3 3 5 4 2 5 2 9 3 6 2 1 3 3 3 8 3 3 3 3 3 3 3
split_gain=4650.49 3936.38 2694.22 1898.12 1378.07 8748.22 6117.3 2183.77 1216.41 2267.25 3820.29 2260.13 1181.72 1036.52 894.189 1005.38 920.571 851.88 980.092 1701.65 2368.2 2036.06 2872.97 1081.75 873.273 846.787 1014.09 1008.85 1070.1 812.777 811.655
threshold=25550.000000000004 2487.5000000000005 34681.500000000007 3.0000000000000004 292.50000000000006 514.50000000000011 3031.5000000000005 4398.5000000000009 524.50000000000011 541.00000000000011 1532.5000000000002 442.00000000000006 25.500000000000004 1317.5000000000002 1.5000000000000002 22.500000000000004 2553.5000000000005 1.0000000180025095e-35 2.5000000000000004 132.50000000000003 1202.5000000000002 957.50000000000011 890.00000000000011 11.500000000000002 2043.5000000000002 3078.5000000000005 2994.5000000000005 6631.0000000000009 7937.5000000000009 7645.5000000000009 272.50000000000006
decision_type=2 2 2 2 2 2 2 2 2 2 2 2 2 2 2 2 2 2 2 2 2 2 2 2 2 2 2 2 2 2 2
left_child=1 2 4 12 13 6 -6 -8 -7 10 -10 -11 -3 30 16 25 -5 18 19 21 -21 22 -4 -23 -25 26 -16 -27 -29 -17 -1
right_child=-2 3 17 14 5 8 7 -9 9 11 -12 -13 -14 -15 15 29 -18 -19 -20 20 -22 23 -24 24 -26 27 -28 28 -30 -31 -32
leaf_value=0.063465171910467605 -0.02284996820820941 0.01027104476328556 -0.052331636706077794 -0.051914869103571008 0.029417038935919151 0.024960626370713224 0.34724701964147564 0.13567988204088099 -0.29090726166781489 0.022548253137081583 -0.011144598175093418 -0.010888980430736042 -0.022419693189183298 -0.0093091051356345208 -0.039053630487149139 -0.0041086251772296549 0.0074093901536502887 0.069501123041885798 -0.025893392382865695 -0.0024122485396876731 0.081597639488895091 -0.030150143804073683 0.0062872260005557628 -0.094778949947339486 0.32611086702346803 0.019324372460969987 -0.3132507315573802 -0.11264641865377499 0.13939149637910772 -0.069730952344737543 -0.20674594996268289
leaf_weight=147 83271 493708 10300 2687 2186 20171 1314 776 491 55103 82905 31928 11311 86451 278 131043 98617 1166 65122 14700 4348 26997 44413 3502 50 1655 262 1699 187 1915 456
leaf_count=147 83271 493708 10300 2687 2186 20171 1314 776 491 55103 82905 31928 11311 86451 278 131043 98617 1166 65122 14700 4348 26997 44413 3502 50 1655 262 1699 187 1915 456
internal_value=0 0.00159107 -0.00576223 0.00606743 0.000240001 0.00491287 0.146369 0.268694 0.00173934 -0.00100903 -0.0127917 0.0102815 0.00953886 -0.0102204 -0.00128811 -0.0065544 0.00583587 -0.0156814 -0.0162676 -0.0102582 0.0167643 -0.0162951 -0.00474807 -0.0369758 -0.0888543 -0.055444 -0.17209 -0.0376555 -0.0876564 -0.00505379 -0.140874
internal_weight=0 1.19589e+06 452526 743362 281928 194874 4276 2090 190598 170427 83396 87031 505019 87054 238343 137039 101304 170598 169432 104310 19048 85262 54713 30549 3552 4081 540 3541 1886 132958 603
internal_count=1279159 1195888 452526 743362 281928 194874 4276 2090 190598 170427 83396 87031 505019 87054 238343 137039 101304 170598 169432 104310 19048 85262 54713 30549 3552 4081 540 3541 1886 132958 603
is_linear=0
shrinkage=0.1


Tree=29
num_leaves=32
num_cat=0
split_feature=4 3 5 9 3 4 4 5 3 5 3 0 5 1 1 3 4 3 3 3 5 4 1 1 2 5 1 1 9 3 5
split_gain=3766.9 3188.47 2221.09 1595.43 1340.52 1900.97 1494.19 1996.87 1091.76 913.231 771.464 727.773 749.516 758.845 672.365 2666.32 917.909 666.126 681.566 645.449 811.394 608.398 752.994 981.817 705.987 602.005 593.178 1072.49 918.476 591.105 683.578
threshold=25550.000000000004 2487.5000000000005 28993.500000000004 26.500000000000004 541.00000000000011 442.00000000000006 3635.0000000000005 1317.5000000000002 301.50000000000006 61569.500000000007 7374.5000000000009 1579090596.5000002 61569.500000000007 47.500000000000007 3306.5000000000005 6774.5000000000009 442.00000000000006 292.50000000000006 272.50000000000006 272.50000000000006 4398.5000000000009 442.00000000000006 685.50000000000011 8123.5000000000009 8.5000000000000018 49028.500000000007 132.50000000000003 139.50000000000003 28.500000000000004 7937.5000000000009 33611.500000000007
decision_type=2 2 2 2 2 2 2 2 2 2 2 2 2 2 2 2 2 2 2 2 2 2 2 2 2 2 2 2 2 2 2
left_child=1 2 4 9 6 -6 7 8 17 10 14 -4 13 -13 -3 -16 -17 18 -1 -9 -21 24 26 25 -5 -24 -23 -28 -29 30 -12
right_child=-2 3 11 21 5 -7 -8 19 -10 -11 29 12 -14 -15 15 16 -18 -19 -20 20 -22 22 23 -25 -26 -27 27 28 -30 -31 -32
leaf_value=0.066871542102998976 -0.020564970511002419 0.0080285585927109201 -0.05140383209526677 -0.094556051837693292 0.023013396628060422 -0.0094998444951505182 0.021817636673330809 0.062017450074401459 -0.2522526573721085 -0.057114630591174866 3.513458816121377e-05 -0.096653018413714556 -0.049439317815502856 -0.011012646976252042 -0.17837664387492758 -0.18808387099760365 0.041137083993635942 0.050339513989929731 -0.18607135843812375 -0.0069556490982638237 0.1117285775684568 0.16648959698099081 0.12080291861517203 0.15907931209684492 0.11539442983697684 -0.063189587856277249 -0.1228624999551528 0.18501387146848536 -0.0062318255562842182 0.077855763888399834 -0.043416610275880306
leaf_weight=139 83271 643353 4994 203 50929 27798 20143 1384 461 2210 8255 1041 5381 169780 950 191 2047 329 456 169113 578 198 185 222 759 4587 788 252 72055 658 6449
leaf_count=139 83271 643353 4994 203 50929 27798 20143 1384 461 2210 8255 1041 5381 169780 950 191 2047 329 456 169113 578 198 185 222 759 4587 788 252 72055 658 6449
internal_value=0 0.00143196 -0.005186 0.00546069 0.000539143 0.0115332 -0.0039547 -0.00696486 -0.126556 0.00706103 0.00727531 -0.0137591 -0.0126921 -0.0115345 0.00780155 -0.0380095 0.0215744 -0.0638438 -0.12698 -0.00599666 -0.00655139 -0.00795036 -0.00892163 -0.0464931 0.0710909 -0.0560566 -0.00636161 -0.00682983 -0.00556531 -0.0148727 -0.0190223
internal_weight=0 1.19589e+06 452526 743362 271330 78727 192603 172460 1385 664113 661903 181196 176202 170821 646541 3188 2238 924 595 171075 169691 79249 78287 4994 962 4772 73293 73095 72307 15362 14704
internal_count=1279159 1195888 452526 743362 271330 78727 192603 172460 1385 664113 661903 181196 176202 170821 646541 3188 2238 924 595 171075 169691 79249 78287 4994 962 4772 73293 73095 72307 15362 14704
is_linear=0
shrinkage=0.1


end of trees

feature_importances:
Column_3=258
Column_5=180
Column_4=171
Column_1=123
Column_9=92
Column_2=61
Column_8=29
Column_0=11
Column_6=5

parameters:
[boosting: gbdt]
[objective: regression]
[metric: l1,l2]
[tree_learner: serial]
[device_type: cpu]
[linear_tree: 0]
[data: ]
[valid: ]
[num_iterations: 30]
[learning_rate: 0.1]
[num_leaves: 32]
[num_threads: 0]
[deterministic: 0]
[force_col_wise: 0]
[force_row_wise: 0]
[histogram_pool_size: -1]
[max_depth: -1]
[min_data_in_leaf: 20]
[min_sum_hessian_in_leaf: 0.001]
[bagging_fraction: 1]
[pos_bagging_fraction: 1]
[neg_bagging_fraction: 1]
[bagging_freq: 0]
[bagging_seed: 3]
[feature_fraction: 1]
[feature_fraction_bynode: 1]
[feature_fraction_seed: 2]
[extra_trees: 0]
[extra_seed: 6]
[early_stopping_round: 0]
[first_metric_only: 0]
[max_delta_step: 0]
[lambda_l1: 0]
[lambda_l2: 0]
[linear_lambda: 0]
[min_gain_to_split: 0]
[drop_rate: 0.1]
[max_drop: 50]
[skip_drop: 0.5]
[xgboost_dart_mode: 0]
[uniform_drop: 0]
[drop_seed: 4]
[top_rate: 0.2]
[other_rate: 0.1]
[min_data_per_group: 100]
[max_cat_threshold: 32]
[cat_l2: 10]
[cat_smooth: 10]
[max_cat_to_onehot: 4]
[top_k: 20]
[monotone_constraints: ]
[monotone_constraints_method: basic]
[monotone_penalty: 0]
[feature_contri: ]
[forcedsplits_filename: ]
[refit_decay_rate: 0.9]
[cegb_tradeoff: 1]
[cegb_penalty_split: 0]
[cegb_penalty_feature_lazy: ]
[cegb_penalty_feature_coupled: ]
[path_smooth: 0]
[interaction_constraints: ]
[verbosity: 0]
[saved_feature_importance_type: 0]
[max_bin: 255]
[max_bin_by_feature: ]
[min_data_in_bin: 3]
[bin_construct_sample_cnt: 200000]
[data_random_seed: 1]
[is_enable_sparse: 1]
[enable_bundle: 1]
[use_missing: 1]
[zero_as_missing: 0]
[feature_pre_filter: 1]
[pre_partition: 0]
[two_round: 0]
[header: 0]
[label_column: ]
[weight_column: ]
[group_column: ]
[ignore_column: ]
[categorical_feature: ]
[forcedbins_filename: ]
[objective_seed: 5]
[num_class: 1]
[is_unbalance: 0]
[scale_pos_weight: 1]
[sigmoid: 1]
[boost_from_average: 1]
[reg_sqrt: 0]
[alpha: 0.9]
[fair_c: 1]
[poisson_max_delta_step: 0.7]
[tweedie_variance_power: 1.5]
[lambdarank_truncation_level: 30]
[lambdarank_norm: 1]
[label_gain: ]
[eval_at: ]
[multi_error_top_k: 1]
[auc_mu_weights: ]
[num_machines: 1]
[local_listen_port: 12400]
[time_out: 120]
[machine_list_filename: ]
[machines: ]
[gpu_platform_id: -1]
[gpu_device_id: -1]
[gpu_use_dp: 0]
[num_gpu: 1]

end of parameters

pandas_categorical:null
