tree
version=v3
num_class=1
num_tree_per_iteration=1
label_index=0
max_feature_idx=8
objective=regression
feature_names=Column_0 Column_1 Column_2 Column_3 Column_4 Column_5 Column_6 Column_7 Column_8
feature_infos=[1579047004:1581638391] [32:1677838] [1:22985] [80:60443] [0:65533] [0:164] [1579042809:1581634154] [1:17] [0:31]
tree_sizes=2979 3110 3107 3116 3120 3119 3122 3127 3113 3122 3134 3131 3135 3131 3143 3127 3100 3137 3129 3109 3139 3114 3134 3104 3137 3107 3105 3073 3100 3111

Tree=0
num_leaves=32
num_cat=0
split_feature=3 3 2 3 1 2 4 3 3 1 3 8 7 8 1 4 4 1 8 4 3 4 8 3 2 1 1 3 2 4 0
split_gain=1.67974e+06 1.03558e+06 827335 592377 383663 261118 241475 161626 574394 111219 141813 128137 92695.3 49834.8 47966.6 58544.9 98060 36413.2 24984.4 23274.9 21387.5 15840.7 13189.1 12281.8 9800.5 8164.17 7111.43 6969.87 6546.82 6086.4 6025.78
threshold=15683.500000000002 3635.0000000000005 6.5000000000000009 9399.0000000000018 467.50000000000006 19.500000000000004 3102.5000000000005 5222.5000000000009 8621.5000000000018 84.500000000000014 282.00000000000006 22.500000000000004 11.500000000000002 26.500000000000004 47.500000000000007 28993.500000000004 4398.5000000000009 86.500000000000014 24.500000000000004 49028.500000000007 8262.0000000000018 3294.5000000000005 26.500000000000004 25550.000000000004 9.5000000000000018 120.50000000000001 2442.5000000000005 101.50000000000001 17.500000000000004 61569.500000000007 1580448209.0000002
decision_type=2 2 2 2 2 2 2 2 2 2 2 2 2 2 2 2 2 2 2 2 2 2 2 2 2 2 2 2 2 2 2
left_child=1 4 7 5 6 -4 12 -3 20 10 14 27 -1 18 -8 16 21 -13 -6 -15 -9 -16 25 -2 -20 -19 -26 -11 -28 -27 -23
right_child=23 2 3 -5 13 -7 9 8 -10 11 -12 17 -14 19 15 -17 -18 22 24 -21 -22 30 -24 -25 26 29 28 -29 -30 -31 -32
leaf_value=8.0191436024833838 7.8196246151627369 8.419008663320561 8.0190224695495314 7.4196245913208791 7.7441160948398275 8.3193858768585027 8.218415723184048 7.8164670384530952 8.3195971116162273 8.0072068514460479 7.8090521539788345 8.2196246151627363 8.400675323221483 8.0009854196890071 8.0311011626302946 7.9621387125356682 8.4192954178945882 7.766851224549205 7.8376767088565229 7.6459038376915505 8.0196246151627371 8.1097807869868959 7.9065070675903675 7.7196257922234457 8.0256671849212058 8.1310515706492072 7.8646440473191053 7.8206057849579427 8.0107998183362561 7.6165942882905764 8.0556732697882456
leaf_weight=7900 14407 114457 95824 13677 9636 41468 17454 23119 345410 2432 24980 75673 32835 2087 95107 61509 7898 631 8830 15986 6679 55964 2935 83271 9913 51326 9005 11313 4646 231 32556
leaf_count=7900 14407 114457 95824 13677 9636 41468 17454 23119 345410 2432 24980 75673 32835 2087 95107 61509 7898 631 8830 15986 6679 55964 2935 83271 9913 51326 9005 11313 4646 231 32556
internal_value=8.13292 8.16587 8.25189 8.04722 8.06397 8.10974 8.09375 8.31499 8.28326 8.07219 8.03702 8.14407 8.32668 7.82577 8.05808 8.04702 8.07428 8.17459 7.88548 7.68691 7.862 8.05944 8.11277 7.73438 7.92753 8.12437 7.9612 7.85362 7.91439 8.12875 8.08988
internal_weight=0 1.18148e+06 640634 150969 540847 137292 480744 489665 375208 440009 295468 144541 40735 60103 270488 253034 191525 130796 42030 18073 29798 183627 55123 97678 32394 52188 23564 13745 13651 51557 88520
internal_count=1279159 1181481 640634 150969 540847 137292 480744 489665 375208 440009 295468 144541 40735 60103 270488 253034 191525 130796 42030 18073 29798 183627 55123 97678 32394 52188 23564 13745 13651 51557 88520
is_linear=0
shrinkage=1


Tree=1
num_leaves=32
num_cat=0
split_feature=3 3 2 3 1 2 4 3 3 1 3 8 3 4 1 4 4 1 8 3 8 4 8 3 1 8 1 1 2 1 3
split_gain=1.36059e+06 838822 670142 479825 310767 211505 195595 130917 465260 90087.4 114869 103791 75085.6 40811.8 38853 47421.4 79428.6 29494.7 26388.9 17323.9 16996.3 12831 10683.2 9948.21 6965.57 19157.8 9867.4 7191.39 6827.15 5681.4 5645.6
threshold=15683.500000000002 3635.0000000000005 6.5000000000000009 9399.0000000000018 467.50000000000006 19.500000000000004 3102.5000000000005 5222.5000000000009 8621.5000000000018 84.500000000000014 282.00000000000006 22.500000000000004 442.00000000000006 49234.500000000007 47.500000000000007 28993.500000000004 4398.5000000000009 86.500000000000014 26.500000000000004 8262.0000000000018 24.500000000000004 3294.5000000000005 26.500000000000004 25550.000000000004 209.00000000000003 24.500000000000004 179.50000000000003 120.50000000000001 9.5000000000000018 2102.5000000000005 101.50000000000001
decision_type=2 2 2 2 2 2 2 2 2 2 2 2 2 2 2 2 2 2 2 2 2 2 2 2 2 2 2 2 2 2 2
left_child=1 4 7 5 6 -4 12 -3 19 10 14 30 -1 28 -8 16 21 -13 20 -9 -15 -16 24 -2 25 26 27 -19 -6 -30 -11
right_child=23 2 3 -5 13 -7 9 8 -10 11 -12 17 -14 18 15 -17 -18 22 -20 -21 -22 -23 -24 -25 -26 -27 -28 -29 29 -31 -32
leaf_value=0.24073317295031382 -0.28196246623992921 0.25748317497361939 -0.10250439207548688 -0.64196248054504401 -0.24813837197172597 0.16782267308228271 0.076949534340250106 -0.28480428000357366 0.16801278394880523 -0.11313845224580484 -0.29147767616109288 0.078037536144256597 -0.10344749022914752 -0.40218770057418801 -0.091633563634389181 -0.15369976654145609 0.25774127162387322 -0.36467763213458254 -0.43885598910966972 -0.10196245908737184 -0.20810152229085399 -0.038731665665404161 -0.20376824837298574 -0.37196137025069947 0.037601643269911944 -0.26188898582813275 -0.38736581498181977 0.0062460193967792746 -0.050508739339126078 -0.17818890011701327 -0.28107940338233905
leaf_weight=32883 14407 114457 95824 13677 7824 41468 17454 23119 345410 2432 24980 75673 7852 6538 95107 61509 7898 533 15897 6679 14560 88520 2935 83271 20571 3387 677 27020 5376 9908 11313
leaf_count=32883 14407 114457 95824 13677 7824 41468 17454 23119 345410 2432 24980 75673 7852 6538 95107 61509 7898 533 15897 6679 14560 88520 2935 83271 20571 3387 677 27020 5376 9908 11313
internal_value=0 0.0296542 0.107074 -0.0771233 -0.0620501 -0.0208542 -0.0352478 0.163864 0.135306 -0.0546555 -0.0863032 0.010038 0.17439 -0.276432 -0.067355 -0.077309 -0.0527758 0.0375081 -0.341558 -0.243822 -0.268246 -0.0661315 -0.0181308 -0.358687 -0.00769079 -0.0371595 -0.0101967 -0.000929327 -0.172168 -0.133279 -0.251364
internal_weight=0 1.18148e+06 640634 150969 540847 137292 480744 489665 375208 440009 295468 144541 40735 60103 270488 253034 191525 130796 36995 29798 21098 183627 55123 97678 52188 31617 28230 27553 23108 15284 13745
internal_count=1279159 1181481 640634 150969 540847 137292 480744 489665 375208 440009 295468 144541 40735 60103 270488 253034 191525 130796 36995 29798 21098 183627 55123 97678 52188 31617 28230 27553 23108 15284 13745
is_linear=0
shrinkage=0.1


Tree=2
num_leaves=32
num_cat=0
split_feature=3 3 2 3 1 2 4 3 3 1 3 8 7 4 1 4 4 1 8 8 3 4 1 8 1 3 2 1 1 3 2
split_gain=1.10207e+06 679446 542815 388658 251869 171319 158171 106043 376860 73993.2 93043.6 83381.1 60881.6 33572.8 31470.9 38411.3 64337.2 23225.4 21665.5 14068.5 14032.3 10393.1 8719.66 33126.2 8645.67 8058.05 6077.81 5476.14 5254.05 5114.94 4979.41
threshold=15683.500000000002 3635.0000000000005 6.5000000000000009 9399.0000000000018 414.50000000000006 19.500000000000004 3102.5000000000005 5222.5000000000009 8621.5000000000018 84.500000000000014 282.00000000000006 22.500000000000004 11.500000000000002 49234.500000000007 47.500000000000007 28993.500000000004 4398.5000000000009 88.500000000000014 26.500000000000004 24.500000000000004 8262.0000000000018 3294.5000000000005 396.50000000000006 24.500000000000004 120.50000000000001 25550.000000000004 14.500000000000002 1990.5000000000002 47.500000000000007 442.00000000000006 14.500000000000002
decision_type=2 2 2 2 2 2 2 2 2 2 2 2 2 2 2 2 2 2 2 2 2 2 2 2 2 2 2 2 2 2 2
left_child=1 4 7 5 6 -4 12 -3 20 10 14 -11 -1 26 -8 16 21 -13 19 -15 -9 -16 23 24 -19 -2 -6 -28 -12 30 -20
right_child=25 2 3 -5 13 -7 9 8 -10 11 28 17 -14 18 15 -17 -18 22 29 -21 -22 -23 -24 -25 -26 -27 27 -29 -30 -31 -32
leaf_value=-0.092340342378380846 -0.25376622676849364 0.23173487442125121 -0.092253954803123567 -0.57776622772216801 -0.18373971416698257 0.15104040121450321 0.069254580646210331 -0.25632384696568405 0.15121151012536505 -0.22527861182224285 -0.46848069216885269 0.070215587425213069 0.21691091192028231 -0.36158891509057239 -0.082470213596359379 -0.13832978787502262 0.23196712651790682 -0.45592807570003213 -0.33522412934353657 -0.18647372668887147 -0.091766214370727545 -0.034858497547072438 0.07725856958607355 -0.21964369975637396 0.010873520460078721 -0.33476523472546971 0.09910698340943197 -0.121911720778552 -0.25212716788401596 -0.40855609295382306 0.16463722565275063
leaf_weight=7897 14407 114457 95824 13677 17440 41468 17454 23119 345410 13658 1178 75805 32835 6654 95107 61509 7898 401 568 14774 6679 88520 8554 7856 37574 83271 1490 4527 23802 15039 307
leaf_count=7897 14407 114457 95824 13677 17440 41468 17454 23119 345410 13658 1178 75805 32835 6654 95107 61509 7898 401 568 14774 6679 88520 8554 7856 37574 83271 1490 4527 23802 15039 307
internal_value=0 0.0266887 0.0963668 -0.069411 -0.0558451 -0.0187688 -0.0315591 0.147478 0.121775 -0.0490374 -0.0776729 0.00978061 0.156954 -0.247599 -0.0606195 -0.0695781 -0.0474982 0.0344402 -0.306494 -0.240852 -0.219439 -0.0595183 -0.0154255 -0.0327243 0.00594429 -0.322818 -0.153841 -0.0671805 -0.26233 -0.394881 -0.159844
internal_weight=0 1.18148e+06 640634 150969 540847 137292 480048 489665 375208 439316 295468 143848 40732 60799 270488 253034 191525 130190 37342 21428 29798 183627 54385 45831 37975 97678 23457 6017 24980 15914 875
internal_count=1279159 1181481 640634 150969 540847 137292 480048 489665 375208 439316 295468 143848 40732 60799 270488 253034 191525 130190 37342 21428 29798 183627 54385 45831 37975 97678 23457 6017 24980 15914 875
is_linear=0
shrinkage=0.1


Tree=3
num_leaves=32
num_cat=0
split_feature=3 3 2 3 1 2 4 3 3 1 3 8 7 4 1 4 4 1 0 3 4 8 8 8 3 1 7 2 0 6 4
split_gain=892680 550351 439680 314813 204096 138769 128317 85894.5 305257 59159.6 75365.3 68138.1 49301 26759.5 25491.4 31113.2 52113.1 19363 17960.1 11366.2 8418.41 7799.15 6830.51 6670.88 6527.02 5854.97 5239.06 5039.79 4880.89 8148.77 13118.6
threshold=15683.500000000002 3635.0000000000005 6.5000000000000009 9399.0000000000018 467.50000000000006 19.500000000000004 3102.5000000000005 5222.5000000000009 8621.5000000000018 84.500000000000014 282.00000000000006 22.500000000000004 11.500000000000002 49028.500000000007 47.500000000000007 28993.500000000004 4398.5000000000009 88.500000000000014 1580055000.5000002 8262.0000000000018 3294.5000000000005 26.500000000000004 24.500000000000004 26.500000000000004 25550.000000000004 120.50000000000001 11.500000000000002 14.500000000000002 1580448209.0000002 1581377510.5000002 3770.5000000000005
decision_type=2 2 2 2 2 2 2 2 2 2 2 2 2 2 2 2 2 2 2 2 2 2 2 2 2 2 2 2 2 2 2
left_child=1 4 7 5 6 -4 12 -3 19 10 14 26 -1 27 -8 16 20 -13 21 -9 -16 22 -15 25 -2 -19 -11 -6 -22 -30 -31
right_child=24 2 3 -5 13 -7 9 8 -10 11 -12 17 -14 18 15 -17 -18 23 -20 -21 28 -23 -24 -25 -26 -27 -28 -29 29 30 -32
leaf_value=-0.083026600233361697 -0.22838959693908692 0.20856137531389038 -0.083028556507576554 -0.51998958587646482 -0.16634196194769174 0.13593636965169803 0.062329122972226141 -0.23069146552647504 0.13609036010858039 -0.18839773329440074 -0.23609691754902143 0.06319402914045355 0.19521980476648057 -0.35746512757500321 -0.074223189946601945 -0.12449681464273255 0.20877042926893219 -0.34737588422809673 -0.16797477436306171 -0.082589596509933472 -0.013462888389447994 -0.36863281739392284 -0.19974603555171641 -0.16143318589948108 -0.30128871514473066 -0.0031815323146781906 -0.45381250017345026 -0.059031461927335008 -0.098208308219909668 0.30134225357421557 -0.032821728708607743
leaf_weight=7900 14407 114457 95824 13677 16786 41468 17454 23119 345410 12956 24980 75805 32835 4414 95107 61509 7898 499 10905 6679 55964 14812 7266 2935 83271 51557 789 5920 21430 1335 9791
leaf_count=7900 14407 114457 95824 13677 16786 41468 17454 23119 345410 12956 24980 75805 32835 4414 95107 61509 7898 499 10905 6679 55964 14812 7266 2935 83271 51557 789 5920 21430 1335 9791
internal_value=0 0.0240199 0.0867302 -0.0624699 -0.0502606 -0.0168919 -0.02854 0.13273 0.109598 -0.0442595 -0.0699056 0.0081659 0.141258 -0.223996 -0.0545576 -0.0626203 -0.0427484 0.0304233 -0.275989 -0.197496 -0.0535665 -0.320451 -0.25935 -0.0147511 -0.290536 -0.00648092 -0.203633 -0.138364 -0.0313726 -0.0621597 0.00727435
internal_weight=0 1.18148e+06 640634 150969 540847 137292 480744 489665 375208 440009 295468 144541 40735 60103 270488 253034 191525 130796 37397 29798 183627 26492 11680 54991 97678 52056 13745 22706 88520 32556 11126
internal_count=1279159 1181481 640634 150969 540847 137292 480744 489665 375208 440009 295468 144541 40735 60103 270488 253034 191525 130796 37397 29798 183627 26492 11680 54991 97678 52056 13745 22706 88520 32556 11126
is_linear=0
shrinkage=0.1


Tree=4
num_leaves=32
num_cat=0
split_feature=3 3 2 3 1 2 4 8 4 3 1 3 8 3 4 1 4 4 1 1 0 4 8 0 1 1 8 3 3 1 2
split_gain=723071 445784 356141 254999 165418 112403 103760 69665.6 59748.3 193832 48593 61045.9 54729.7 39979.5 22051.8 20648.1 25201.7 42211.6 15599.2 14783.3 14606.2 6818.91 6433.66 6087.53 5932.57 5475.66 12793.1 5286.89 4412.81 4255.78 4163.47
threshold=15683.500000000002 3635.0000000000005 6.5000000000000009 9399.0000000000018 414.50000000000006 19.500000000000004 3102.5000000000005 3.0000000000000004 28993.500000000004 8621.5000000000018 84.500000000000014 282.00000000000006 22.500000000000004 442.00000000000006 49028.500000000007 47.500000000000007 28993.500000000004 4398.5000000000009 126.50000000000001 135.50000000000003 1580055000.5000002 3294.5000000000005 26.500000000000004 1580027274.0000002 40.500000000000007 396.50000000000006 24.500000000000004 25550.000000000004 101.50000000000001 47.500000000000007 9.5000000000000018
decision_type=2 2 2 2 2 2 2 2 2 2 2 2 2 2 2 2 2 2 2 2 2 2 2 2 2 2 2 2 2 2 2
left_child=1 4 7 5 6 -4 13 8 -3 -10 11 15 28 -1 30 -8 17 21 -14 -20 22 -17 23 -16 -9 26 -21 -2 -12 -13 -6
right_child=27 2 3 -5 14 -7 10 24 9 -11 12 29 18 -15 20 16 -18 -19 19 25 -22 -23 -24 -25 -26 -27 -28 -29 -30 -31 -32
leaf_value=0.17553433131189686 -0.20555062294006349 0.18804454200192239 -0.074725701028876421 -0.46799063682556152 -0.18184200550457338 0.12234273170268076 0.056096211581879274 -0.074353226555003316 -0.20417321851822359 0.12248129123028606 -0.060054069048702766 -0.39802294619419376 0.055030650137304418 -0.075650560658423682 -0.19061421402796264 -0.066800873530014834 -0.11204712989339634 0.1878933779225527 -0.23158732182750397 0.002088168809032378 -0.15122199460736363 -0.028235384014936332 -0.33170257887415516 -0.3546170823510707 -0.22754748930394633 0.069865663012026735 -0.18094969409394288 -0.27115985466052422 -0.20887300362256808 -0.20330474641170634 -0.092571765446915616
leaf_weight=32883 14407 114705 95824 13677 8003 41468 17454 6669 19175 345045 2422 1178 80725 7849 8791 95107 61509 7898 2996 33607 11085 88520 14824 3048 4071 8554 4308 83271 11236 23802 15048
leaf_count=32883 14407 114705 95824 13677 8003 41468 17454 6669 19175 345045 2422 1178 80725 7849 8791 95107 61509 7898 2996 33607 11085 88520 14824 3048 4071 8554 4308 83271 11236 23802 15048
internal_value=0 0.0216179 0.0780571 -0.0562229 -0.0452345 -0.0152027 -0.0255529 0.119457 0.125106 0.105284 -0.0397093 -0.062915 0.00795591 0.127131 -0.200634 -0.0491018 -0.0563582 -0.0384735 0.0279345 -0.0162854 -0.247696 -0.0482098 -0.287804 -0.232837 -0.132422 -0.00240425 -0.0187091 -0.261483 -0.182483 -0.212487 -0.123565
internal_weight=0 1.18148e+06 640634 150969 540847 137292 480048 489665 478925 364220 439316 295468 143848 40732 60799 270488 253034 191525 130190 49465 37748 183627 26663 11839 10740 46469 37915 97678 13658 24980 23051
internal_count=1279159 1181481 640634 150969 540847 137292 480048 489665 478925 364220 439316 295468 143848 40732 60799 270488 253034 191525 130190 49465 37748 183627 26663 11839 10740 46469 37915 97678 13658 24980 23051
is_linear=0
shrinkage=0.1


Tree=5
num_leaves=32
num_cat=0
split_feature=3 3 2 3 1 2 4 8 4 3 1 3 8 3 4 1 4 4 1 1 0 4 0 0 8 8 1 4 3 7 2
split_gain=585687 361085 288474 206549 134069 91046.1 84178.5 56429.2 48396.1 157004 38857.2 49447.2 44747.5 32369.1 17519.9 16724.9 20413.3 34191.4 13012.9 11878 11613 5948.68 29960.7 9918.38 5008.27 5049.38 4805.38 4533.06 4282.38 4129.38 3811.86
threshold=15683.500000000002 3635.0000000000005 6.5000000000000009 9399.0000000000018 467.50000000000006 19.500000000000004 3102.5000000000005 3.0000000000000004 28993.500000000004 8621.5000000000018 84.500000000000014 282.00000000000006 22.500000000000004 442.00000000000006 49234.500000000007 47.500000000000007 28993.500000000004 4398.5000000000009 126.50000000000001 135.50000000000003 1580055000.5000002 3995.5000000000005 1579950881.5000002 1581402717.5000002 26.500000000000004 24.500000000000004 40.500000000000007 61569.500000000007 25550.000000000004 11.500000000000002 9.5000000000000018
decision_type=2 2 2 2 2 2 2 2 2 2 2 2 2 2 2 2 2 2 2 2 2 2 2 2 2 2 2 2 2 2 2
left_child=1 4 7 5 6 -4 13 8 -3 -10 11 15 29 -1 30 -8 17 21 -14 -20 24 -17 -23 -24 25 -16 -9 -21 -2 -12 -6
right_child=28 2 3 -5 14 -7 10 26 9 -11 12 -13 18 -15 20 16 -18 -19 19 27 -22 22 23 -25 -26 -27 -28 -29 -30 -31 -32
leaf_value=0.15798089509430591 -0.18499556779861451 0.1692400871984556 -0.067253132258776854 -0.42119154930114749 -0.16997467425931817 0.11010846113576785 0.050486591992419762 -0.066917904747141987 -0.18375589770288481 0.11023315661856181 -0.15146299146067477 -0.19123850092208319 0.04952758547247435 -0.068000928178558656 -0.29514113322766916 -0.050108424668647226 -0.10084241523835549 0.16910403885737829 -0.20842859357078181 -0.00084581238802519968 -0.13643106751761569 0.30034915785238231 -0.058471955582642503 0.23993787303139752 -0.29859292675614707 -0.1588755567074821 -0.20479274254646387 -0.43476341411101915 -0.24404386593479474 -0.38709862722492344 -0.084149078131151023
leaf_weight=32883 14407 114705 95824 13677 7824 41468 17454 6669 19175 345045 12956 24980 80725 7852 4385 161164 61509 7898 2996 46833 10712 2976 18301 1186 14739 7159 4071 242 83271 789 15284
leaf_count=32883 14407 114705 95824 13677 7824 41468 17454 6669 19175 345045 12956 24980 80725 7852 4385 161164 61509 7898 2996 46833 10712 2976 18301 1186 14739 7159 4071 242 83271 789 15284
internal_value=0 0.0194561 0.0702514 -0.0506006 -0.040711 -0.0136824 -0.0231068 0.107511 0.112595 0.0947556 -0.0358388 -0.0566235 0.00664906 0.114421 -0.181522 -0.0441916 -0.0507224 -0.0346262 0.0246861 -0.0153637 -0.224192 -0.0433888 0.00482171 -0.0403104 -0.259961 -0.210636 -0.119179 -0.00307647 -0.235335 -0.164989 -0.113208
internal_weight=0 1.18148e+06 640634 150969 540847 137292 480744 489665 478925 364220 440009 295468 144541 40735 60103 270488 253034 191525 130796 50071 36995 183627 22463 19487 26283 11544 10740 47075 97678 13745 23108
internal_count=1279159 1181481 640634 150969 540847 137292 480744 489665 478925 364220 440009 295468 144541 40735 60103 270488 253034 191525 130796 50071 36995 183627 22463 19487 26283 11544 10740 47075 97678 13745 23108
is_linear=0
shrinkage=0.1


Tree=6
num_leaves=32
num_cat=0
split_feature=3 3 2 3 1 2 4 8 4 3 1 3 8 7 4 1 4 4 1 0 1 8 1 0 4 4 0 4 4 0 8
split_gain=474407 292479 233664 167305 108635 73747.3 68328.7 45707.6 39200.8 127173 31523.2 40296 35924.5 27381.5 14510.9 13424.2 16821.5 27547.6 10246.4 9582.13 5479.7 18875.2 6197.99 4837.3 22218.6 8002.47 5723.39 8012.98 5170.44 4240.87 4662.01
threshold=15683.500000000002 3635.0000000000005 6.5000000000000009 9399.0000000000018 414.50000000000006 19.500000000000004 3031.5000000000005 3.0000000000000004 28993.500000000004 8621.5000000000018 84.500000000000014 282.00000000000006 22.500000000000004 11.500000000000002 49028.500000000007 47.500000000000007 28993.500000000004 4398.5000000000009 88.500000000000014 1580055000.5000002 396.50000000000006 24.500000000000004 120.50000000000001 1580448209.0000002 3245.5000000000005 3294.5000000000005 1581381688.5000002 4029.5000000000005 3237.5000000000005 1580027274.0000002 26.500000000000004
decision_type=2 2 2 2 2 2 2 2 2 2 2 2 2 2 2 2 2 2 2 2 2 2 2 2 2 2 2 2 2 2 2
left_child=1 4 7 5 6 -4 13 8 -3 -10 11 15 -12 -1 -6 -8 17 23 -14 29 21 22 -20 24 -17 -26 -25 28 -28 30 -16
right_child=-2 2 3 -5 14 -7 10 -9 9 -11 12 -13 18 -15 19 16 -18 -19 20 -21 -22 -23 -24 26 25 -27 27 -29 -30 -31 -32
leaf_value=-0.060734576654083987 -0.21180109635854949 0.15231607551188309 -0.060527820979479979 -0.37907240390777591 -0.10005611003409715 0.099097611654157799 0.045437932555565136 -0.10726146087716411 -0.16538031017547172 0.099209843811806905 -0.1478200222389697 -0.17211464848968869 0.046418799567203725 0.14759243094285857 -0.15234796216383198 0.27682105665870738 -0.090758173439060799 0.15219364085018439 -0.38605350264884586 -0.12261046306206183 0.06300933162046142 -0.1652737476303415 0.0091843946943717999 -0.072730740337082683 -0.061779814267564404 -0.0058831396596360462 0.28928907808725612 0.28322565650535841 -0.033126257799339968 -0.28503182738681926 -0.25803046647138678
leaf_weight=7897 97678 114705 95824 13677 23051 41468 17454 10740 19175 345045 13658 24980 75805 31376 8791 2392 61509 7898 401 11085 8554 7856 37574 59434 47226 55964 511 885 18674 9924 7948
leaf_count=7897 97678 114705 95824 13677 23051 41468 17454 10740 19175 345045 13658 24980 75805 31376 8791 2392 61509 7898 401 11085 8554 7856 37574 59434 47226 55964 511 885 18674 9924 7948
internal_value=0 0.0175105 0.0632263 -0.0455406 -0.0366399 -0.0123142 -0.0206902 0.0967603 0.101336 0.08528 -0.0319518 -0.0505655 0.00647023 0.105702 -0.162573 -0.0394005 -0.045219 -0.0307045 0.0226565 -0.20075 -0.0104647 -0.024178 0.00501085 -0.0385091 -0.0244805 -0.0314648 -0.0571392 -0.0109675 -0.0245386 -0.233236 -0.202528
internal_weight=0 1.18148e+06 640634 150969 540847 137292 480048 489665 478925 364220 440775 296927 143848 39273 60799 271947 254493 192984 130190 37748 54385 45831 37975 185086 105582 103190 79504 20070 19185 26663 16739
internal_count=1279159 1181481 640634 150969 540847 137292 480048 489665 478925 364220 440775 296927 143848 39273 60799 271947 254493 192984 130190 37748 54385 45831 37975 185086 105582 103190 79504 20070 19185 26663 16739
is_linear=0
shrinkage=0.1


Tree=7
num_leaves=32
num_cat=0
split_feature=3 3 2 3 1 2 4 3 3 1 3 8 7 4 1 4 4 1 1 0 1 0 4 4 0 4 4 2 4 3 3
split_gain=384270 236908 189268 135517 88028.6 59735.3 55436.9 37031.4 131295 25198.8 32639.7 29385.5 22165.5 11498 10873.6 13625.4 22313.5 8834.44 7996.62 7757.41 5499.6 3918.22 17997 6482 4635.94 6490.51 4188.06 3717.5 3619.93 3523.84 3468.73
threshold=15683.500000000002 3635.0000000000005 6.5000000000000009 9399.0000000000018 467.50000000000006 19.500000000000004 3031.5000000000005 5222.5000000000009 8621.5000000000018 84.500000000000014 282.00000000000006 22.500000000000004 11.500000000000002 49028.500000000007 47.500000000000007 28993.500000000004 4398.5000000000009 126.50000000000001 135.50000000000003 1580055000.5000002 40.500000000000007 1580448209.0000002 3245.5000000000005 3294.5000000000005 1581381688.5000002 4029.5000000000005 3237.5000000000005 9.5000000000000018 61569.500000000007 101.50000000000001 25550.000000000004
decision_type=2 2 2 2 2 2 2 2 2 2 2 2 2 2 2 2 2 2 2 2 2 2 2 2 2 2 2 2 2 2 2
left_child=1 4 7 5 6 -4 12 -3 20 10 14 29 -1 -6 -8 16 21 -13 -19 -15 -9 22 -16 -24 -23 26 -26 -21 -20 -11 -2
right_child=30 2 3 -5 13 -7 9 8 -10 11 -12 17 -14 19 15 -17 -18 18 28 27 -22 24 23 -25 25 -27 -28 -29 -30 -31 -32
leaf_value=-0.054575768373435057 -0.14531590938568115 0.13687518096536117 -0.054475034887117607 -0.34116516113281253 -0.090943297528542272 0.089187850696987439 0.040894139360265529 -0.04949996722997585 0.089270113066435453 -0.024481977586095272 -0.15490318693632218 0.040487827782551181 0.13283318803588204 -0.21037767743128621 0.24913896294372986 -0.081682362510951442 0.13697427430011619 -0.17139026531787996 -0.00090453803620092971 -0.18182776878069692 -0.15257420548489084 -0.065457668205399805 -0.055601834344403467 -0.0052948275844203543 0.26036017526619121 0.2549030790557969 -0.029813634711860833 -0.06259644710148185 -0.38866323804067188 -0.15716331755021445 -0.19845936609696566
leaf_weight=7900 14407 114457 95824 13677 22706 41468 17454 6669 345410 2432 24980 80725 31376 26492 2392 61509 7898 2996 46833 4351 23129 59434 47226 55964 511 885 18674 6554 242 11313 83271
leaf_count=7900 14407 114457 95824 13677 22706 41468 17454 6669 345410 2432 24980 80725 31376 26492 2392 61509 7898 2996 46833 4351 23129 59434 47226 55964 511 885 18674 6554 242 11313 83271
internal_value=0 0.0157594 0.0569037 -0.0409865 -0.0329759 -0.0110828 -0.0187111 0.0870842 0.0718956 -0.0288399 -0.045509 0.00540295 0.0951376 -0.147075 -0.0354604 -0.0406971 -0.027634 0.0200195 -0.0129796 -0.181157 -0.129505 -0.0346582 -0.0220325 -0.0283184 -0.0514253 -0.00987078 -0.0220847 -0.110169 -0.0028979 -0.133687 -0.190621
internal_weight=0 1.18148e+06 640634 150969 540847 137292 480744 489665 375208 441468 296927 144541 39276 60103 271947 254493 192984 130796 50071 37397 29798 185086 105582 103190 79504 20070 19185 10905 47075 13745 97678
internal_count=1279159 1181481 640634 150969 540847 137292 480744 489665 375208 441468 296927 144541 39276 60103 271947 254493 192984 130796 50071 37397 29798 185086 105582 103190 79504 20070 19185 10905 47075 13745 97678
is_linear=0
shrinkage=0.1


Tree=8
num_leaves=32
num_cat=0
split_feature=3 3 2 3 1 2 4 8 4 3 1 3 8 3 8 3 7 1 4 4 1 1 2 2 1 2 1 8 1 1 4
split_gain=311258 191896 153307 109769 71363.8 48385.6 44821.9 30278.6 25749.6 83313.6 20706.8 26438.2 23557.8 17977.7 9842.76 9774.95 9259.5 8807.62 11036.6 18074 6932.47 6535.03 5952.13 4801.38 4446.7 4586.67 3614.1 8255.07 4021.32 3447.18 3353.22
threshold=15683.500000000002 3635.0000000000005 6.5000000000000009 9399.0000000000018 414.50000000000006 19.500000000000004 3031.5000000000005 3.0000000000000004 28993.500000000004 8621.5000000000018 84.500000000000014 282.00000000000006 22.500000000000004 442.00000000000006 26.500000000000004 442.00000000000006 11.500000000000002 47.500000000000007 28993.500000000004 4398.5000000000009 126.50000000000001 135.50000000000003 14.500000000000002 9.5000000000000018 2442.5000000000005 17.500000000000004 396.50000000000006 24.500000000000004 143.00000000000003 47.500000000000007 37688.500000000007
decision_type=2 2 2 2 2 2 2 2 2 2 2 2 2 2 2 2 2 2 2 2 2 2 2 2 2 2 2 2 2 2 2
left_child=1 4 7 5 6 -4 13 8 -3 -10 11 17 -12 -1 16 22 23 -8 19 -19 -14 -22 -16 -6 -25 -26 27 -23 -29 -13 -9
right_child=-2 2 3 -5 14 -7 10 30 9 -11 12 29 20 -15 15 -17 -18 18 -20 -21 21 26 -24 24 25 -27 -28 28 -30 -31 -32
leaf_value=0.11943094005444051 -0.17155887971783268 0.12341790306620629 -0.049027533936448799 -0.30704865455627445 -0.13760978896929482 0.080269064659022255 0.036804724246574265 -0.047877626081150877 -0.13379618824725045 0.080361847815659901 -0.11967455781456196 -0.30639501483462661 0.0364390452283571 -0.049759422747067308 -0.15182430586475412 -0.21587833036011525 -0.21703380102095837 -0.031192386410735531 -0.073514120552097911 0.12327684082919117 -0.15425124209578112 0.0015858195977720088 0.24243480312126175 -0.010023645356240311 -0.13903791513193761 -0.019848655908108234 0.056839653036431063 0.19505340692781586 -0.17286082281036608 -0.13114864911494981 -0.16612357359209495
leaf_weight=31424 97678 114705 95824 13677 12080 41468 17454 7125 19175 345045 13658 1178 80725 7849 755 16572 6343 185086 61509 7898 2996 33607 777 10163 9107 5002 8554 321 3987 23802 3615
leaf_count=31424 97678 114705 95824 13677 12080 41468 17454 7125 19175 345045 13658 1178 80725 7849 755 16572 6343 185086 61509 7898 2996 33607 777 10163 9107 5002 8554 321 3987 23802 3615
internal_value=0 0.0141835 0.0512133 -0.0368878 -0.0296784 -0.00997448 -0.0167511 0.0783758 0.0820996 0.0690871 -0.025872 -0.0409581 0.00526811 0.085617 -0.131748 -0.193537 -0.105547 -0.0319144 -0.0366274 -0.0248706 0.0183756 -0.0111032 0.0481361 -0.0860942 -0.0604553 -0.0967823 -0.001874 -0.0151204 -0.145447 -0.139413 -0.0876783
internal_weight=0 1.18148e+06 640634 150969 540847 137292 480048 489665 478925 364220 440775 296927 143848 39273 60799 18104 42695 271947 254493 192984 130190 49465 1532 36352 24272 14109 46469 37915 4308 24980 10740
internal_count=1279159 1181481 640634 150969 540847 137292 480048 489665 478925 364220 440775 296927 143848 39273 60799 18104 42695 271947 254493 192984 130190 49465 1532 36352 24272 14109 46469 37915 4308 24980 10740
is_linear=0
shrinkage=0.1


Tree=9
num_leaves=32
num_cat=0
split_feature=3 3 2 3 1 2 4 8 4 3 1 3 8 7 0 1 4 4 1 0 2 1 1 8 3 7 2 1 0 4 4
split_gain=252119 155435 124179 88912.6 57853.6 39192.4 36366.3 24525.6 20857.2 67484 16558.6 21414.9 19298.9 14552.4 8158.39 7134.17 8949.96 13515.6 5769.89 5583.29 5447.43 5254.66 4141.49 3513.8 3679.59 3230.35 3345.22 5054.35 3173.76 14577.6 5250.42
threshold=15683.500000000002 3635.0000000000005 6.5000000000000009 9399.0000000000018 467.50000000000006 19.500000000000004 3031.5000000000005 3.0000000000000004 28993.500000000004 8621.5000000000018 84.500000000000014 282.00000000000006 22.500000000000004 11.500000000000002 1580045628.0000002 47.500000000000007 32973.500000000007 4398.5000000000009 126.50000000000001 1580027274.0000002 9.5000000000000018 135.50000000000003 2540.5000000000005 26.500000000000004 442.00000000000006 11.500000000000002 5.5000000000000009 270.50000000000006 1580448209.0000002 3245.5000000000005 3294.5000000000005
decision_type=2 2 2 2 2 2 2 2 2 2 2 2 2 2 2 2 2 2 2 2 2 2 2 2 2 2 2 2 2 2 2
left_child=1 4 7 5 6 -4 13 8 -3 -10 11 15 25 -1 19 -8 17 28 -14 23 -16 -20 -22 -6 -25 26 -12 -28 29 -17 -31
right_child=-2 2 3 -5 14 -7 10 -9 9 -11 12 -13 18 -15 20 16 -18 -19 21 -21 22 -23 -24 24 -26 -27 27 -29 -30 30 -32
leaf_value=-0.044243854322010959 -0.15440299401751617 0.11107610573583003 -0.044124780718431858 -0.27634379863739017 -0.099672095389701745 0.072242154841760192 0.033124250672664571 -0.078910456090986486 -0.12041656678953881 0.072325663504746812 -0.11648012525131712 -0.12547157908817405 0.032795139143399758 0.10760731343892325 -0.13329638326377002 0.22734429007302659 -0.066368492084182176 0.10147949021549885 -0.13882612026680774 -0.21269901539389832 0.022505096354029669 -0.0022423204861292483 -0.085610753391600153 0.072969718317873453 -0.1934964189877354 -0.30475913630125645 0.19858805176529043 -0.14058123017419819 -0.04316353717414765 -0.046922414660282151 -0.0016461077222849404
leaf_weight=7900 97678 114705 95824 13677 18084 41468 17454 10740 19175 345045 11198 24980 80725 31376 9109 2392 60988 8419 2996 9910 6752 47075 7455 553 8240 789 894 864 79504 47226 55964
leaf_count=7900 97678 114705 95824 13677 18084 41468 17454 10740 19175 345045 11198 24980 80725 31376 9109 2392 60988 8419 2996 9910 6752 47075 7455 553 8240 789 894 864 79504 47226 55964
internal_value=0 0.0127651 0.046092 -0.0331991 -0.0267105 -0.00897704 -0.0151462 0.0705382 0.0738897 0.0621784 -0.0233499 -0.0368623 0.00440832 0.0770639 -0.119209 -0.028723 -0.0329647 -0.0224366 0.0162536 -0.148541 -0.0729315 -0.0104148 -0.0342278 -0.124885 -0.176738 -0.10831 -0.0963468 0.0318973 -0.0280732 -0.01671 -0.0223673
internal_weight=0 1.18148e+06 640634 150969 540847 137292 480744 489665 478925 364220 441468 296927 144541 39276 60103 271947 254493 193505 130796 36787 23316 50071 14207 26877 8793 13745 12956 1758 185086 105582 103190
internal_count=1279159 1181481 640634 150969 540847 137292 480744 489665 478925 364220 441468 296927 144541 39276 60103 271947 254493 193505 130796 36787 23316 50071 14207 26877 8793 13745 12956 1758 185086 105582 103190
is_linear=0
shrinkage=0.1


Tree=10
num_leaves=32
num_cat=0
split_feature=3 3 2 3 1 2 4 8 4 3 1 3 8 4 4 1 4 4 1 8 7 1 1 1 1 8 1 1 4 3 1
split_gain=204217 125903 100585 72019.2 46862.2 31748.8 29403.2 19865.8 16894.3 54662.1 13597 17346.1 15468.7 11850.8 7100.12 5778.68 7300.14 12038.5 4588.02 4528.77 5686.5 3580.42 5876.83 4388.96 4801.74 2964.15 4876.43 2915.78 2834.19 2809.67 2784.13
threshold=15683.500000000002 3635.0000000000005 6.5000000000000009 9399.0000000000018 414.50000000000006 11.500000000000002 3031.5000000000005 3.0000000000000004 28993.500000000004 8621.5000000000018 84.500000000000014 282.00000000000006 22.500000000000004 1117.5000000000002 49234.500000000007 47.500000000000007 28993.500000000004 4398.5000000000009 88.500000000000014 26.500000000000004 11.500000000000002 209.00000000000003 179.50000000000003 158.50000000000003 143.00000000000003 16.500000000000004 79.000000000000014 120.50000000000001 49398.500000000007 25550.000000000004 47.500000000000007
decision_type=2 2 2 2 2 2 2 2 2 2 2 2 2 2 2 2 2 2 2 2 2 2 2 2 2 2 2 2 2 2 2
left_child=1 4 7 5 6 -4 13 8 -3 -10 11 15 -12 -1 -6 -8 17 -17 -14 20 -16 22 23 24 27 26 -18 -20 -13 -2 -30
right_child=29 2 3 -5 14 -7 10 -9 9 -11 12 28 18 -15 19 16 25 -19 21 -21 -22 -23 -24 -25 -26 -27 -28 -29 30 -31 -32
leaf_value=-0.026259880981910556 -0.098188126087188729 0.099968494079641063 -0.03973129435403655 -0.24870941638946534 -0.063634533505321736 0.064981022706089256 0.029811826888550816 -0.071019411755645967 -0.10837491444386592 0.065093098816689718 -0.096961542077854596 -0.079203072726683532 0.030804719138126574 0.10090965890552522 -0.07661873425351208 -0.02526583388903364 -0.059324337145548592 0.10080121674320915 -0.18826915349960327 -0.17424629808195097 -0.20136954717094147 0.025546086701343326 -0.25628756156028143 0.13453004311040503 -0.2221262040906461 -0.1922204428555469 0.19140741743204248 -0.014561446217884145 -0.29918903171415184 -0.14601724459094201 -0.13198100791513415
leaf_weight=9747 14407 114705 95792 13677 23457 41500 17454 10740 19175 345045 13658 12476 75805 29526 16755 185086 59081 7898 1000 15914 4673 20642 1085 1746 1229 1642 786 28683 1091 83271 11413
leaf_count=9747 14407 114705 95792 13677 23457 41500 17454 10740 19175 345045 13658 12476 75805 29526 16755 185086 59081 7898 1000 15914 4673 20642 1085 1746 1229 1642 786 28683 1091 83271 11413
internal_value=0 0.0114886 0.0414828 -0.0298792 -0.0240395 -0.00807933 -0.0135638 0.0634844 0.0665007 0.0559606 -0.0209513 -0.033176 0.00428273 0.069348 -0.106751 -0.0258507 -0.0296682 -0.0201065 0.0149041 -0.133836 -0.103824 -0.00725914 -0.0273275 -0.0197207 -0.0284332 -0.059668 -0.0560325 -0.0204135 -0.112924 -0.138963 -0.14657
internal_weight=0 1.18148e+06 640634 150969 540847 137292 480048 489665 478925 364220 440775 296927 143848 39273 60799 271947 254493 192984 130190 37342 21428 54385 33743 32658 30912 61509 59867 29683 24980 97678 12504
internal_count=1279159 1181481 640634 150969 540847 137292 480048 489665 478925 364220 440775 296927 143848 39273 60799 271947 254493 192984 130190 37342 21428 54385 33743 32658 30912 61509 59867 29683 24980 97678 12504
is_linear=0
shrinkage=0.1


Tree=11
num_leaves=32
num_cat=0
split_feature=3 3 2 3 1 2 4 8 4 3 1 3 8 3 0 1 4 4 2 1 1 0 1 4 4 0 0 4 7 2 1
split_gain=165415 101981 81473.6 58335.5 37983.3 25717 23859.2 16091.3 13684.4 44276.3 10870.6 14050.3 12669.5 9847.38 5828.64 4680.73 5913.12 9751.19 4290.91 3985.97 4177.81 3709.66 3359.52 2760.11 2729.23 24512.2 6014.66 2633.5 2596.5 2707.63 4096.71
threshold=15683.500000000002 3635.0000000000005 6.5000000000000009 9399.0000000000018 467.50000000000006 19.500000000000004 3031.5000000000005 3.0000000000000004 28993.500000000004 8621.5000000000018 84.500000000000014 282.00000000000006 22.500000000000004 442.00000000000006 1580055000.5000002 47.500000000000007 28993.500000000004 4398.5000000000009 9.5000000000000018 126.50000000000001 135.50000000000003 1580027274.0000002 4216.5000000000009 51827.500000000007 3995.5000000000005 1579950881.5000002 1581402717.5000002 61569.500000000007 11.500000000000002 5.5000000000000009 270.50000000000006
decision_type=2 2 2 2 2 2 2 2 2 2 2 2 2 2 2 2 2 2 2 2 2 2 2 2 2 2 2 2 2 2 2
left_child=1 4 7 5 6 -4 13 8 -3 -10 11 15 28 -1 21 -8 17 24 -16 -14 -21 -6 -20 -9 -17 -26 -27 -22 29 -12 -31
right_child=-2 2 3 -5 14 -7 10 23 9 -11 12 -13 19 -15 18 16 -18 -19 22 20 27 -23 -24 -25 25 26 -28 -29 -30 30 -32
leaf_value=0.087453427641081605 -0.12506642172529114 0.089971650721206747 -0.035742669929696616 -0.22383847236633303 -0.10145057225531623 0.058519842385601789 0.026830643948696456 -0.041276583480129678 -0.097537419245929277 0.058583788809922592 -0.095135955106793693 -0.10163198233555981 0.026926834226134538 -0.037746204552726974 -0.11091357231665905 -0.027252360939623844 -0.05370122998079277 0.090721087842598608 0.010428064827573214 -0.12348736542487176 -7.501558839754274e-08 -0.17197834877346008 -0.096001097584137191 -0.17742614946771343 0.27724246363586158 -0.045031663218920145 0.18734816465570794 -0.33073370781811806 -0.26387248313094575 0.18842540022644155 -0.1169271901161496
leaf_weight=31424 97678 114705 95824 13677 26877 41468 17454 8954 19175 345045 11198 24980 80725 7852 8956 162623 61509 7898 9670 2996 46833 10322 4278 1786 2976 18301 1186 242 789 894 864
leaf_count=31424 97678 114705 95824 13677 26877 41468 17454 8954 19175 345045 11198 24980 80725 7852 8956 162623 61509 7898 9670 2996 46833 10322 4278 1786 2976 18301 1186 242 789 894 864
internal_value=0 0.0103398 0.0373345 -0.0268912 -0.0216355 -0.0072714 -0.0122653 0.057136 0.0598506 0.0503645 -0.0189101 -0.0298584 0.00358071 0.0624237 -0.0965849 -0.0232656 -0.0267014 -0.0180958 -0.0568982 0.0131782 -0.00898742 -0.121021 -0.0222149 -0.0639175 -0.0227392 0.00993385 -0.0308888 -0.00170029 -0.0877483 -0.0770226 0.0383545
internal_weight=0 1.18148e+06 640634 150969 540847 137292 480744 489665 478925 364220 441468 296927 144541 39276 60103 271947 254493 192984 22904 130796 50071 37199 13948 10740 185086 22463 19487 47075 13745 12956 1758
internal_count=1279159 1181481 640634 150969 540847 137292 480744 489665 478925 364220 441468 296927 144541 39276 60103 271947 254493 192984 22904 130796 50071 37199 13948 10740 185086 22463 19487 47075 13745 12956 1758
is_linear=0
shrinkage=0.1


Tree=12
num_leaves=32
num_cat=0
split_feature=3 3 2 3 1 2 4 8 4 3 1 3 8 4 4 1 4 4 8 7 1 1 1 8 1 1 1 1 8 2 1
split_gain=133986 82604.8 65993.6 47251.8 30767.6 20832.9 19288.7 13033.9 11084.4 35863.8 8927.06 11380.8 10158.6 8316.6 5231.04 3791.39 4789.62 7898.46 3325.64 4324.14 3135.16 3409.78 2613.75 6140.73 3162.69 2680.41 5540.08 2867.88 2573.9 2564.55 3279.47
threshold=15683.500000000002 3635.0000000000005 6.5000000000000009 9399.0000000000018 414.50000000000006 11.500000000000002 3031.5000000000005 3.0000000000000004 28993.500000000004 8621.5000000000018 84.500000000000014 282.00000000000006 22.500000000000004 1218.5000000000002 49028.500000000007 47.500000000000007 28993.500000000004 4398.5000000000009 26.500000000000004 11.500000000000002 126.50000000000001 135.50000000000003 396.50000000000006 24.500000000000004 143.00000000000003 209.00000000000003 179.50000000000003 158.50000000000003 3.0000000000000004 14.500000000000002 1969.0000000000002
decision_type=2 2 2 2 2 2 2 2 2 2 2 2 2 2 2 2 2 2 2 2 2 2 2 2 2 2 2 2 2 2 2
left_child=1 4 7 5 6 -4 13 8 -3 -10 11 15 -12 -1 29 -8 17 -17 19 -16 -14 -22 23 25 -25 26 27 -23 -13 -6 -31
right_child=-2 2 3 -5 14 -7 10 -9 9 -11 12 28 20 -15 18 16 -18 -19 -20 -21 21 22 -24 24 -26 -27 -28 -29 -30 30 -32
leaf_value=-0.014199651085379903 -0.1125597808865287 0.080974484572674144 -0.032183897928061769 -0.20145461559295655 -0.068563677278932769 0.052638208744612086 0.024147579622006407 -0.057525722692517683 -0.087783679299046818 0.052725409205192836 -0.078567246281249906 -0.26932646899016077 0.024234152665777671 0.086263080389515523 -0.060489335901237729 -0.020465325433750015 -0.048331100588962422 0.081648980759161591 -0.14401284222295138 -0.16871114857417782 -0.11113862955497605 -0.016934000696922139 0.048860111650752776 0.17722844717287201 -0.14905181667067399 0.04584749507025402 -0.2981014493957404 0.12933750739875083 -0.085675468941086116 0.13840515673941042 -0.03462572954436708
leaf_weight=11764 97678 114705 95792 13677 17131 41500 17454 10740 19175 345045 13658 788 80725 27509 17031 185086 61509 7898 16003 4714 2996 21624 8554 321 3987 9877 677 1429 24192 1451 4469
leaf_count=11764 97678 114705 95792 13677 17131 41500 17454 10740 19175 345045 13658 788 80725 27509 17031 185086 61509 7898 16003 4714 2996 21624 8554 321 3987 9877 677 1429 24192 1451 4469
internal_value=0 0.00930579 0.033601 -0.0242021 -0.019472 -0.00654426 -0.0109838 0.0514224 0.0538656 0.0453281 -0.0169672 -0.0268726 0.00347932 0.0561701 -0.0864918 -0.020939 -0.0240312 -0.0162862 -0.109413 -0.0839503 0.0120867 -0.00773755 -0.00107096 -0.0123359 -0.12474 0.00207289 -0.0161472 -0.00786698 -0.0914688 -0.0489558 0.00778437
internal_weight=0 1.18148e+06 640634 150969 540847 137292 480048 489665 478925 364220 440775 296927 143848 39273 60799 271947 254493 192984 37748 21745 130190 49465 46469 37915 4308 33607 23730 23053 24980 23051 5920
internal_count=1279159 1181481 640634 150969 540847 137292 480048 489665 478925 364220 440775 296927 143848 39273 60799 271947 254493 192984 37748 21745 130190 49465 46469 37915 4308 33607 23730 23053 24980 23051 5920
is_linear=0
shrinkage=0.1


Tree=13
num_leaves=32
num_cat=0
split_feature=3 3 2 3 1 2 4 8 4 3 1 3 8 4 4 2 1 3 8 1 4 4 2 2 8 1 1 8 1 1 1
split_gain=108529 66909.9 53454.8 38273.9 24945.5 16874.8 15653.1 10557.5 8978.33 29049.7 7138.46 9218.42 8317.08 6869.62 4159.02 3661.18 5297.03 4222.48 3452.53 3071.03 3879.6 6419.64 2683.45 2824.65 2617.03 8794.03 2435.36 2400.96 3949.9 2394.78 2678.5
threshold=15683.500000000002 3635.0000000000005 6.5000000000000009 9399.0000000000018 467.50000000000006 19.500000000000004 3031.5000000000005 3.0000000000000004 28993.500000000004 8621.5000000000018 84.500000000000014 282.00000000000006 22.500000000000004 1317.5000000000002 60949.500000000007 9.5000000000000018 2488.5000000000005 442.00000000000006 26.500000000000004 47.500000000000007 28993.500000000004 4361.5000000000009 17.500000000000004 21.500000000000004 24.500000000000004 396.50000000000006 1180.5000000000002 16.500000000000004 79.000000000000014 40.500000000000007 47.500000000000007
decision_type=2 2 2 2 2 2 2 2 2 2 2 2 2 2 2 2 2 2 2 2 2 2 2 2 2 2 2 2 2 2 2
left_child=1 4 7 5 6 -4 13 8 -3 -10 11 19 -12 -1 15 -6 17 -17 26 -8 21 -21 -18 -24 -14 -26 -19 28 -22 -9 -31
right_child=-2 2 3 -5 14 -7 10 29 9 -11 12 -13 24 -15 -16 16 22 18 -20 20 27 -23 23 -25 25 -27 -28 -29 -30 30 -32
leaf_value=-0.0067891684765600301 -0.10130380134874789 0.072877038599624716 -0.028952843965960973 -0.18130916357040405 -0.10449206161322377 0.047404035077532457 0.021732822600831089 -0.014879588686038142 -0.079005309983369118 0.047452868755589024 -0.071084804091197371 -0.082321904457664144 0.016137024795989073 0.081060974824080811 -0.1626604286207104 0.20844581899781753 -0.11063880360178054 -0.19672251431939816 -0.11386768779169716 -0.018857537083602067 -0.043188676947744795 0.064546399321127254 0.033938147744673859 -0.089996370881147078 -0.1034301389967705 0.041202847093137145 0.019531714761652889 -0.16279516721396151 0.1824699154336944 -0.29984588931763601 -0.077145903581976025
leaf_weight=13634 97678 114705 95824 13677 19752 41468 17454 6669 19175 345045 13745 24980 113897 25642 5322 876 13071 549 2947 183266 59081 9718 3283 4181 7856 9043 10122 1642 786 641 3430
leaf_count=13634 97678 114705 95824 13677 19752 41468 17454 6669 19175 345045 13745 24980 113897 25642 5322 876 13071 549 2947 183266 59081 9718 3283 4181 7856 9043 10122 1642 786 641 3430
internal_value=0 0.00837521 0.0302409 -0.0217819 -0.0175248 -0.00588983 -0.00993112 0.0462801 0.048479 0.0407953 -0.0153133 -0.0241853 0.00291231 0.0505653 -0.0782638 -0.0700647 -0.0506519 -0.00436527 -0.0180547 -0.0188451 -0.0216281 -0.0146576 -0.0833219 -0.0354844 0.0106885 -0.0260341 0.0084059 -0.043498 -0.040226 -0.0517732 -0.112211
internal_weight=0 1.18148e+06 640634 150969 540847 137292 480744 489665 478925 364220 441468 296927 144541 39276 60103 54781 35029 14494 13618 271947 254493 192984 20535 7464 130796 16899 10671 61509 59867 10740 4071
internal_count=1279159 1181481 640634 150969 540847 137292 480744 489665 478925 364220 441468 296927 144541 39276 60103 54781 35029 14494 13618 271947 254493 192984 20535 7464 130796 16899 10671 61509 59867 10740 4071
is_linear=0
shrinkage=0.1


Tree=14
num_leaves=32
num_cat=0
split_feature=3 3 2 3 1 2 4 8 4 3 7 4 1 3 8 0 2 1 4 4 0 4 0 4 1 0 3 0 4 0 4
split_gain=87908.5 54197 43298.4 31001.9 20249.5 13670.1 12696 8551.56 7272.45 23530.2 5905.7 5767.59 6028.43 7103.56 6078.38 3761.43 2812.22 2523.71 3029.86 5665.03 12999.5 6177.14 4617.16 2918.79 2386.04 2324.95 2275.83 2273.92 12245.8 5024.25 32365.3
threshold=15683.500000000002 3635.0000000000005 6.5000000000000009 9399.0000000000018 578.00000000000011 11.500000000000002 3031.5000000000005 3.0000000000000004 28993.500000000004 8621.5000000000018 11.500000000000002 61569.500000000007 84.500000000000014 282.00000000000006 22.500000000000004 1580055000.5000002 9.5000000000000018 47.500000000000007 28993.500000000004 3995.5000000000005 1579950881.5000002 4398.5000000000009 1580437554.5000002 4361.5000000000009 4216.5000000000009 1580027274.0000002 25550.000000000004 1580437554.5000002 3245.5000000000005 1579984036.0000002 3294.5000000000005
decision_type=2 2 2 2 2 2 2 2 2 2 2 2 2 2 2 2 2 2 2 2 2 2 2 2 2 2 2 2 2 2 2
left_child=1 4 7 5 6 -4 10 8 -3 -10 -1 12 13 17 -14 25 -17 -8 19 27 21 -21 -22 -24 -18 -6 -2 28 -19 -30 -31
right_child=26 2 3 -5 15 -7 11 -9 9 -11 -12 -13 14 -15 -16 16 24 18 -20 20 22 -23 23 -25 -26 -27 -28 -29 29 30 -32
leaf_value=-0.031765692270693563 -0.054476314783096315 0.065589333656137824 -0.026070222700102137 -0.16317824125289918 -0.075017816657609898 0.042639868149125432 0.019971503883945384 -0.046595835736441105 -0.071104779927018733 0.042707582052151069 0.064955420051983945 -0.27687123029564437 -0.060482684257944813 -0.072745102616555618 0.009952209489984893 -0.084260678499380182 0.016487322665144952 0.21379398079246381 -0.038690338270340095 0.25267980385932232 -0.032439648976001177 0.067048083803721417 0.20085340610360458 0.02480411897884326 -0.073224786835774436 -0.13108525778464911 -0.097522518172548964 -0.032920922721983277 -0.028827072833247553 -0.031381121034713487 0.31896025767142727
leaf_weight=7903 14407 114705 95792 13677 26568 41500 17442 10740 19175 345045 31376 832 13512 24789 131404 8417 9657 2392 61436 2976 18622 4508 1407 2848 4278 10249 83271 77938 64252 14834 3207
leaf_count=7903 14407 114705 95792 13677 26568 41500 17442 10740 19175 345045 31376 832 13512 24789 131404 8417 9657 2392 61436 2976 18622 4508 1407 2848 4278 10249 83271 77938 64252 14834 3207
internal_value=0 0.00753769 0.0272168 -0.0196037 -0.0157723 -0.00530085 -0.0089906 0.0416521 0.0436311 0.0367157 0.045495 -0.0138282 -0.0133325 -0.0214991 0.00338484 -0.0709802 -0.0386211 -0.0168264 -0.0193491 -0.0131918 0.0264609 0.140864 -0.0109651 0.0830183 -0.011054 -0.0906257 -0.0911734 -0.0205948 -0.0092508 -0.015734 0.0308962
internal_weight=0 1.18148e+06 640634 150969 540847 137292 481678 489665 478925 364220 39279 442399 441567 296651 144916 59169 22352 271862 254420 192984 30361 7484 22877 4255 13935 36817 97678 162623 84685 82293 18041
internal_count=1279159 1181481 640634 150969 540847 137292 481678 489665 478925 364220 39279 442399 441567 296651 144916 59169 22352 271862 254420 192984 30361 7484 22877 4255 13935 36817 97678 162623 84685 82293 18041
is_linear=0
shrinkage=0.1


Tree=15
num_leaves=32
num_cat=0
split_feature=3 3 2 3 1 2 4 8 3 3 4 1 3 8 4 1 1 1 1 1 1 8 1 8 8 3 2 1 1 8 7
split_gain=71205.9 43899.6 35071.7 25111.5 16462.6 11072.8 10240.9 7349.22 6205.38 18319.9 4817.45 4778.67 6041.9 5380.22 3392.21 2304.86 2463.29 2897.8 2819.55 5745.46 2196.4 2219.72 2169.04 2040.78 2882.33 2087.33 2136.81 2013.01 2751.65 1909.66 1872.94
threshold=15683.500000000002 3635.0000000000005 6.5000000000000009 9399.0000000000018 414.50000000000006 11.500000000000002 3031.5000000000005 5.0000000000000009 5222.5000000000009 8621.5000000000018 1317.5000000000002 84.500000000000014 442.00000000000006 22.500000000000004 49234.500000000007 126.50000000000001 158.50000000000003 143.00000000000003 167.00000000000003 198.50000000000003 47.500000000000007 3.0000000000000004 47.500000000000007 26.500000000000004 24.500000000000004 442.00000000000006 14.500000000000002 47.500000000000007 71.500000000000014 26.500000000000004 11.500000000000002
decision_type=2 2 2 2 2 2 2 2 2 2 2 2 2 2 2 2 2 2 2 2 2 2 2 2 2 2 2 2 2 2 2
left_child=1 4 7 5 6 -4 10 8 -3 -10 -1 12 27 30 -6 -15 17 -17 -18 -20 -14 -22 -9 24 -16 26 -25 -8 -29 -21 -13
right_child=-2 2 3 -5 14 -7 11 22 9 -11 -12 13 20 15 23 16 18 -19 19 29 21 -23 -24 25 -26 -27 -28 28 -30 -31 -32
leaf_value=-0.0070913688827440773 -0.082056079333688789 0.058964295458174769 -0.023463200493643369 -0.14686042070388794 -0.033416006306533123 0.038375882992974251 0.017582798478317053 -0.26520171474183035 -0.049072326813059654 0.038394343124877349 0.066481210385178943 -0.04826447908666899 -0.19994890845597346 0.019293082092043862 -0.11644312514298433 -0.021888146536224749 0.14588660402331902 -0.17920533010783091 -0.22312502940037754 0.022994071261832952 -0.22520610521981799 -0.054415949432034788 -0.064782913843605169 -0.073809162956583782 -0.037179796898144234 -0.11780246556630324 0.25363947589933294 -0.13232062363728184 -0.016581232013903123 -0.15153134711190391 -0.21237268527957048
leaf_weight=13631 97678 114457 95792 13677 23457 41500 17454 641 25730 345410 25642 12923 1178 80725 6654 24763 1546 1229 1041 20239 787 23014 3427 568 14774 15039 307 2071 252423 647 735
leaf_count=13631 97678 114457 95792 13677 23457 41500 17454 641 25730 345410 25642 12923 1178 80725 6654 24763 1546 1229 1041 20239 787 23014 3427 568 14774 15039 307 2071 252423 647 735
internal_value=0 0.00678392 0.0244952 -0.0176433 -0.0141951 -0.00477076 -0.00798613 0.0374869 0.0386082 0.0323305 0.0409454 -0.0123459 -0.0195932 0.00261361 -0.0632187 0.00887763 -0.00812 -0.0293267 0.0153625 0.00615967 -0.0666602 -0.0600633 -0.0963632 -0.0819398 -0.0617933 -0.109067 0.0410785 -0.0152699 -0.0175231 0.0175877 -0.0570959
internal_weight=0 1.18148e+06 640634 150969 540847 137292 480048 489665 485597 371140 39273 440775 296927 143848 60799 130190 49465 25992 23473 21927 24979 23801 4068 37342 21428 15914 875 271948 254494 20886 13658
internal_count=1279159 1181481 640634 150969 540847 137292 480048 489665 485597 371140 39273 440775 296927 143848 60799 130190 49465 25992 23473 21927 24979 23801 4068 37342 21428 15914 875 271948 254494 20886 13658
is_linear=0
shrinkage=0.1


Tree=16
num_leaves=32
num_cat=0
split_feature=3 3 2 3 1 2 4 8 3 3 7 4 1 3 8 4 2 1 3 1 8 2 1 2 4 1 1 1 8 2 1
split_gain=57676.8 35558.6 28408.1 20340.3 13334.7 8970.04 8295.15 5952.87 5026.36 15300.6 4155.46 4042 4081.5 4652.43 3876.19 2762.75 2387.97 4024.87 2580.17 2569.38 2458.93 2215.13 2070.06 2031.45 1896.85 2128.32 2649.57 2188.96 1989.33 1878.16 3896.06
threshold=15683.500000000002 3635.0000000000005 6.5000000000000009 9399.0000000000018 414.50000000000006 19.500000000000004 3031.5000000000005 5.0000000000000009 5222.5000000000009 8262.0000000000018 11.500000000000002 61569.500000000007 84.500000000000014 442.00000000000006 22.500000000000004 60949.500000000007 9.5000000000000018 1781.5000000000002 442.00000000000006 1230.5000000000002 26.500000000000004 17.500000000000004 6883.5000000000009 21.500000000000004 49398.500000000007 77.000000000000014 47.500000000000007 80.500000000000014 5.0000000000000009 5.5000000000000009 270.50000000000006
decision_type=2 2 2 2 2 2 2 2 2 2 2 2 2 2 2 2 2 2 2 2 2 2 2 2 2 2 2 2 2 2 2
left_child=1 4 7 5 6 -4 10 8 -3 -10 -1 12 13 -8 29 16 -6 18 -18 -20 21 -19 23 -23 -15 26 -26 -27 -28 -14 -31
right_child=-2 2 3 -5 15 -7 11 -9 9 -11 -12 -13 14 24 -16 -17 17 20 19 -21 -22 22 -24 -25 25 27 28 -29 -30 30 -32
leaf_value=-0.027987222124220858 -0.073850474340653199 0.053067870210982387 -0.021108577227585999 -0.13217437267303467 -0.077455692610467419 0.034562056425901738 -0.013616764481760921 -0.08672684818843239 -0.058187803102658378 0.033820625985025943 0.053169903078594732 -0.23596681283231369 -0.063112741266181313 -0.031391442367050389 0.0084276597293794775 -0.12558677536256693 0.19940949372920513 -0.05454849829465367 -0.11527752514277473 0.046135241813198315 -0.10237320470245821 0.11477168785252301 -0.0553009737598694 -0.043367590317401811 -0.21648067238219473 -0.23717212432131707 -0.21353156392183431 -0.033744867453921815 -0.034792643594179225 0.1954227828106091 -0.095422901763727794
leaf_weight=7897 97678 114457 95824 13677 20427 41468 271863 4068 19052 352088 31376 798 11525 12476 129957 5341 837 15180 1253 4631 7000 2510 2419 1201 1049 1626 674 784 8179 894 950
leaf_count=7897 97678 114457 95824 13677 20427 41468 271863 4068 19052 352088 31376 798 11525 12476 129957 5341 837 15180 1253 4631 7000 2510 2419 1201 1049 1626 674 784 8179 894 950
internal_value=0 0.00610553 0.0220456 -0.015879 -0.0127756 -0.00429369 -0.00718751 0.0337382 0.0347474 0.0290975 0.0368509 -0.0111113 -0.0107035 -0.0173983 0.00315306 -0.0568968 -0.0502815 -0.0344359 0.035131 0.0117623 -0.0509516 -0.0340604 0.0166753 0.0635927 -0.0588718 -0.0867183 -0.0662066 -0.170995 -0.0484005 -0.0481201 0.0455836
internal_weight=0 1.18148e+06 640634 150969 540847 137292 480048 489665 485597 371140 39273 440775 439977 296651 143326 60799 55458 35031 6721 5884 28310 21310 6130 3711 24788 12312 9902 2410 8853 13369 1844
internal_count=1279159 1181481 640634 150969 540847 137292 480048 489665 485597 371140 39273 440775 439977 296651 143326 60799 55458 35031 6721 5884 28310 21310 6130 3711 24788 12312 9902 2410 8853 13369 1844
is_linear=0
shrinkage=0.1


Tree=17
num_leaves=32
num_cat=0
split_feature=3 3 2 3 1 2 4 0 4 0 8 3 3 1 1 3 7 8 0 4 4 4 1 4 1 8 2 1 3 0 4
split_gain=46718.2 28802.5 23010.5 16475.7 10843.5 7265.73 6968.9 5422.89 5471.34 5358.8 4821.82 4071.35 12393.5 3445.39 3764.78 3719.74 2557.72 2369.86 2355.32 2290.66 2782.2 3312.22 3266.61 2124.85 1954.25 4529.04 1850.46 1878.76 1843.42 1841.13 4598.84
threshold=15683.500000000002 3635.0000000000005 6.5000000000000009 9399.0000000000018 578.00000000000011 19.500000000000004 3221.5000000000005 1580416156.0000002 3102.5000000000005 1581315929.5000002 5.0000000000000009 5222.5000000000009 8262.0000000000018 84.500000000000014 88.500000000000014 442.00000000000006 11.500000000000002 3.0000000000000004 1580045628.0000002 3294.5000000000005 28993.500000000004 4398.5000000000009 47.500000000000007 3102.5000000000005 396.50000000000006 24.500000000000004 9.5000000000000018 2605.5000000000005 25550.000000000004 1581606426.0000002 3966.5000000000005
decision_type=2 2 2 2 2 2 2 2 2 2 2 2 2 2 2 2 2 2 2 2 2 2 2 2 2 2 2 2 2 2 2
left_child=1 4 10 5 6 -4 7 8 16 -9 11 -3 -13 15 -15 19 -1 -16 -6 -8 21 29 -22 -11 25 -19 -20 -28 -2 -21 -31
right_child=28 2 3 -5 18 -7 13 9 -10 23 -12 12 -14 14 17 -17 -18 24 26 20 22 -23 -24 -25 -26 -27 27 -29 -30 30 -32
leaf_value=-0.024649388145646985 -0.033438026905059814 0.047761080928118656 -0.018997720438762467 -0.11895693540573121 -0.067668568421012154 0.031105851293403593 -0.027144958469563066 -0.04956535029161898 0.25202682018280032 0.045235380511915863 -0.078054162827682128 -0.052369018905384902 0.030438563080475718 0.01722715209590894 -0.15628084359050512 -0.053971602189561867 0.057672322844028193 -0.0086066035091972443 -0.063381946549704846 -0.0033438199195348767 0.01720148216831844 0.06638543320157976 -0.031815087814153535 0.30199068805875157 0.028129575331100873 -0.090218590448616187 0.032704905071027253 -0.040077251754932111 -0.072179606695362206 0.31788547351908836 -0.012470851111504819
leaf_weight=4430 14407 114457 95824 13677 36416 41468 84006 13287 1340 6949 4068 19052 352088 75805 1167 24979 25495 50579 8559 86608 17454 7898 61510 338 10065 7856 6936 7258 83271 627 1285
leaf_count=4430 14407 114457 95824 13677 36416 41468 84006 13287 1340 6949 4068 19052 352088 75805 1167 24979 25495 50579 8559 86608 17454 7898 61510 338 10065 7856 6936 7258 83271 627 1285
internal_value=0 0.00549498 0.0198411 -0.0142911 -0.011498 -0.00386432 -0.00653531 0.0281007 0.0543379 -0.0117703 0.0303644 0.0312727 0.0261877 -0.0107125 0.00180501 -0.0171159 0.0454857 -0.0149759 -0.0518979 -0.0135667 -0.00706293 0.00433529 -0.0209806 0.0571447 -0.0125686 -0.0195785 -0.0266569 -0.00451173 -0.0664654 -0.001201 0.0958625
internal_weight=0 1.18148e+06 640634 150969 540847 137292 481678 51839 31265 20574 489665 485597 371140 429839 145472 284367 29925 69667 59169 259388 175382 96418 78964 7287 68500 58435 22753 14194 97678 88520 1912
internal_count=1279159 1181481 640634 150969 540847 137292 481678 51839 31265 20574 489665 485597 371140 429839 145472 284367 29925 69667 59169 259388 175382 96418 78964 7287 68500 58435 22753 14194 97678 88520 1912
is_linear=0
shrinkage=0.1


Tree=18
num_leaves=32
num_cat=0
split_feature=3 3 2 3 1 2 4 0 4 0 8 4 3 4 1 1 1 4 7 1 8 8 1 8 4 1 4 4 0 4 0
split_gain=37841.7 23330 18638.5 13345.3 8802.91 5885.91 5618.47 4398.24 4431.25 4335.65 3993.17 3124.67 10625 3062.39 3143.52 5490.53 2600.92 2266.34 2067.96 1984.49 3495.2 1955.18 2314.32 3181.32 1752.09 1743.51 3228.18 4178.36 9302.91 6094.73 3268.05
threshold=15683.500000000002 3635.0000000000005 6.5000000000000009 9399.0000000000018 414.50000000000006 11.500000000000002 3221.5000000000005 1580416156.0000002 3102.5000000000005 1581315929.5000002 3.0000000000000004 28993.500000000004 7142.0000000000009 61569.500000000007 79.000000000000014 77.000000000000014 88.500000000000014 49028.500000000007 11.500000000000002 396.50000000000006 24.500000000000004 16.500000000000004 120.50000000000001 20.500000000000004 3031.5000000000005 40.500000000000007 33218.500000000007 3995.5000000000005 1579928928.5000002 4398.5000000000009 1581392049.0000002
decision_type=2 2 2 2 2 2 2 2 2 2 2 2 2 2 2 2 2 2 2 2 2 2 2 2 2 2 2 2 2 2 2
left_child=1 4 10 5 6 -4 7 8 18 -9 11 -3 -13 14 15 25 -16 -6 -1 20 21 -18 23 -23 -11 -8 27 -27 29 -29 -30
right_child=-2 2 3 -5 17 -7 13 9 -10 24 -12 12 -14 -15 16 -17 19 -19 -20 -21 -22 22 -24 -25 -26 26 -28 28 30 -31 -32
leaf_value=-0.022123736508491754 -0.059818880820992459 0.043073527536993013 -0.017106250387493412 -0.10706124305725098 -0.02148984653828688 0.027979660893922832 0.015712016489508866 -0.044625065325613805 0.22682414054870606 0.037564611102033546 -0.032975300076925777 -0.049356847827055537 0.028116089258187295 -0.20528681418650732 0.014885007290099214 -0.27270216979311629 -0.054684452141921636 -0.061283926314302906 0.051905090674673207 0.033204655120756203 -0.080599931103034095 -0.043950676890846904 0.0056339883893236171 -0.34369709903217227 0.22556750879109463 -0.016301852384010062 -0.033435504560427425 0.23076601315049397 -0.020229930543572264 0.049305354190223361 0.10061414334975163
leaf_weight=4429 97678 114705 95792 13677 23051 41500 17707 13284 1340 6750 10740 18658 345562 798 79554 827 7863 37748 25495 8556 7819 2412 40456 415 535 150063 80100 2976 21272 4896 2501
leaf_count=4429 97678 114705 95792 13677 23051 41500 17707 13284 1340 6750 10740 18658 345562 798 79554 827 7863 37748 25495 8556 7819 2412 40456 415 535 150063 80100 2976 21272 4896 2501
internal_value=0 0.00494548 0.017857 -0.012862 -0.0103482 -0.00347789 -0.00580793 0.0252873 0.048915 -0.0106257 0.027328 0.0286803 0.0241474 -0.00957184 -0.00920643 -0.0154181 0.0026337 -0.0461966 0.0409482 -0.0118009 -0.0183314 -0.008812 -0.000478587 -0.0879531 0.0513713 -0.0146569 -0.0167108 -0.00933829 0.0236835 0.117906 -0.00751673
internal_weight=0 1.18148e+06 640634 150969 540847 137292 480048 51833 31264 20569 489665 478925 364220 428215 427417 280342 147075 60799 29924 67521 58965 51146 43283 2827 7285 279515 261808 181708 31645 7872 23773
internal_count=1279159 1181481 640634 150969 540847 137292 480048 51833 31264 20569 489665 478925 364220 428215 427417 280342 147075 60799 29924 67521 58965 51146 43283 2827 7285 279515 261808 181708 31645 7872 23773
is_linear=0
shrinkage=0.1


Tree=19
num_leaves=32
num_cat=0
split_feature=3 3 2 3 1 2 4 3 2 0 4 0 4 1 1 1 4 2 1 8 1 1 7 2 7 1 1 2 1 1 1
split_gain=30983.7 17783.4 14052.1 10809.7 7130.76 4767.59 4571.08 3558.23 13535.7 3557.38 3589.78 3516.46 2586.56 2488.18 4447.33 2173.14 1925.94 1982.26 3197.3 2898.22 2012.67 2178.91 1678.43 1674.62 1582.63 1530.55 1801.23 1532.69 1499.55 1647.4 2539.52
threshold=25550.000000000004 3635.0000000000005 6.5000000000000009 9399.0000000000018 578.00000000000011 11.500000000000002 3221.5000000000005 5225.5000000000009 3.5000000000000004 1580416156.0000002 3102.5000000000005 1581315929.5000002 61569.500000000007 79.000000000000014 77.000000000000014 88.500000000000014 60949.500000000007 9.5000000000000018 878.50000000000011 26.500000000000004 1858.5000000000002 1180.5000000000002 11.500000000000002 17.500000000000004 11.500000000000002 6883.5000000000009 280822.00000000006 21.500000000000004 209.00000000000003 170.00000000000003 158.50000000000003
decision_type=2 2 2 2 2 2 2 2 2 2 2 2 2 2 2 2 2 2 2 2 2 2 2 2 2 2 2 2 2 2 2
left_child=1 4 7 5 6 -4 9 -3 -9 10 22 -11 13 14 -8 -15 17 -6 -19 20 21 -20 -1 -22 28 27 -27 -25 29 30 -17
right_child=-2 2 3 -5 16 -7 12 8 -10 11 -12 -13 -14 15 -16 24 -18 18 19 -21 23 -23 -24 25 -26 26 -28 -29 -30 -31 -32
leaf_value=-0.019972090355496915 -0.058979758756870886 0.038693645642958581 -0.015395625368590092 -0.096355122327804577 -0.062554009198851665 0.025181693690081677 -0.013191176821466333 -0.033871112742257313 0.025263358226197453 -0.040146831058842203 0.20414173603057861 0.046295113336226899 -0.18482066048309209 0.013396506262236294 -0.2454319659138533 -0.02188276234736319 -0.099599014499048455 0.1624453849342995 -0.15147107945500957 -0.077547262262105496 -0.041912982803582188 0.070905436011164433 0.046714583518669223 0.10957449732727825 -0.16886956125592731 -0.066179723737074522 0.24859185649853466 -0.02978397609543695 0.0092285362036727044 -0.096561600711897733 0.093026632740652773
leaf_weight=4430 83271 114579 95792 13677 18858 41500 279515 43585 345908 13287 1340 7287 832 79554 827 37242 5299 912 491 8583 14774 4294 25495 2351 628 2221 198 1188 26503 2710 2028
leaf_count=4430 83271 114579 95792 13677 18858 41500 279515 43585 345908 13287 1340 7287 832 79554 827 37242 5299 912 491 8583 14774 4294 25495 2351 628 2221 198 1188 26503 2710 2028
internal_value=0 0.00410683 0.0151875 -0.0115758 -0.00931338 -0.0031301 -0.005289 0.023203 0.0186461 0.0227625 0.0440129 -0.0095304 -0.00867203 -0.00833041 -0.0138763 0.00212759 -0.0420748 -0.0364163 -0.0223381 -0.0272801 -0.0103721 0.0480869 0.0368425 -0.0238646 -0.0108441 0.0208899 -0.040415 0.0627935 -0.009395 -0.0211525 -0.0159486
internal_weight=0 1.19589e+06 655041 150969 540847 137292 481678 504072 389493 51839 31265 20574 429839 429007 280342 148665 59169 53870 35012 34100 25517 4785 29925 20732 69111 5958 2419 3539 68483 41980 39270
internal_count=1279159 1195888 655041 150969 540847 137292 481678 504072 389493 51839 31265 20574 429839 429007 280342 148665 59169 53870 35012 34100 25517 4785 29925 20732 69111 5958 2419 3539 68483 41980 39270
is_linear=0
shrinkage=0.1


Tree=20
num_leaves=32
num_cat=0
split_feature=3 3 2 3 1 2 4 8 0 4 0 3 3 3 4 1 1 1 8 3 1 4 2 1 4 2 1 1 4 4 6
split_gain=25096.8 14404.6 11382.2 8755.85 5794.01 3862.21 3684.35 2957.15 2886.17 2907.31 2844.29 2654.32 2153.22 6815.22 2009.25 2067.93 3602.34 1746.11 1715.18 2750.9 1733.14 1629.55 1486.34 3337.03 1460.64 1444.98 1412.24 3016.6 2165.35 3227.28 6796.35
threshold=25550.000000000004 3635.0000000000005 6.5000000000000009 9399.0000000000018 414.50000000000006 19.500000000000004 3221.5000000000005 5.0000000000000009 1580416156.0000002 3102.5000000000005 1581315929.5000002 15683.500000000002 5222.5000000000009 8262.0000000000018 61569.500000000007 79.000000000000014 77.000000000000014 47.500000000000007 22.500000000000004 101.50000000000001 241.00000000000003 60949.500000000007 14.500000000000002 976.00000000000011 3102.5000000000005 5.5000000000000009 40.500000000000007 47.500000000000007 33608.500000000007 4029.5000000000005 1580012384.0000002
decision_type=2 2 2 2 2 2 2 2 2 2 2 2 2 2 2 2 2 2 2 2 2 2 2 2 2 2 2 2 2 2 2
left_child=1 4 7 5 6 -4 8 11 9 -1 -10 12 -3 -14 15 16 26 -9 19 20 -17 22 -6 -24 -12 -20 -8 -28 29 -29 -31
right_child=-2 2 3 -5 21 -7 14 17 10 -11 24 -13 13 -15 -16 18 -18 -19 25 -21 -22 -23 23 -25 -26 -27 27 28 -30 30 -32
leaf_value=0.033168951943098442 -0.053081783789200671 0.034819561300497098 -0.013850620620252494 -0.086719608306884771 -0.041702484948639394 0.022679129902934966 0.015459931900969552 -0.21551880183718319 -0.03614787479856401 0.18372755050659181 0.031727819857287447 -0.020726454791870789 -0.039123424428047615 0.022282873120871873 -0.16627606411177415 0.085352653530168576 -0.22088875808046982 -0.035698102386344931 0.0063802608966453678 -0.051559884551048832 -0.10286553931396013 -0.090219642427686986 0.20572137478816527 -0.015368442404301953 0.24460533899668407 -0.19883990244463434 -0.19951230075411353 -0.013117974745629852 -0.027040816104510781 0.096052452190702783 -0.0076253088546404529
leaf_weight=29924 83271 114457 95824 13677 41889 41468 17707 641 13284 1340 6947 14407 19052 352088 798 2710 827 3427 131343 12081 597 5341 721 12848 338 344 871 152131 78082 8902 21822
leaf_count=29924 83271 114457 95824 13677 41889 41468 17707 641 13284 1340 6947 14407 19052 352088 798 2710 827 3427 131343 12081 597 5341 721 12848 338 344 871 152131 78082 8902 21822
internal_value=0 0.00369614 0.0136687 -0.0104182 -0.00838204 -0.00281709 -0.00469856 0.0208827 0.020482 0.039622 -0.00860998 0.0215736 0.0228286 0.0191307 -0.00774653 -0.00745055 -0.0124887 -0.0640327 0.00215265 -0.0294385 0.0513743 -0.0374655 -0.0323849 -0.00362065 0.0416046 0.00584417 -0.0118721 -0.0137206 -0.0131005 -0.00714769 0.0224144
internal_weight=0 1.19589e+06 655041 150969 540847 137292 480048 504072 51833 31264 20569 500004 485597 371140 428215 427417 280342 4068 147075 15388 3307 60799 55458 13569 7285 131687 279515 261808 260937 182855 30724
internal_count=1279159 1195888 655041 150969 540847 137292 480048 504072 51833 31264 20569 500004 485597 371140 428215 427417 280342 4068 147075 15388 3307 60799 55458 13569 7285 131687 279515 261808 260937 182855 30724
is_linear=0
shrinkage=0.1


Tree=21
num_leaves=32
num_cat=0
split_feature=3 3 2 3 4 0 4 8 2 4 0 8 4 4 0 4 0 3 6 8 3 3 3 0 1 1 4 7 3 4 6
split_gain=20328.4 11667.7 9219.6 7092.24 4977.57 3422.19 4481.98 3528.99 3128.39 2824.1 2700.53 2395.29 2385.6 2631.11 2308.37 2367.26 2293.66 2150 2132.07 1902.39 1930.4 1744.11 5570.19 1668.08 1448.42 1414.35 1252.17 3355.41 1231.35 1205.27 1002.52
threshold=25550.000000000004 3635.0000000000005 6.5000000000000009 9399.0000000000018 48801.500000000007 1581581400.0000002 52257.500000000007 26.500000000000004 19.500000000000004 61569.500000000007 1579090596.5000002 5.0000000000000009 3221.5000000000005 3294.5000000000005 1580416156.0000002 3102.5000000000005 1581315929.5000002 15683.500000000002 1579074453.0000002 22.500000000000004 282.00000000000006 5222.5000000000009 8621.5000000000018 1581597861.5000002 79.000000000000014 47.500000000000007 3102.5000000000005 11.500000000000002 8262.0000000000018 3031.5000000000005 1580464629.0000002
decision_type=2 2 2 2 2 2 2 2 2 2 2 2 2 2 2 2 2 2 2 2 2 2 2 2 2 2 2 2 2 2 2
left_child=1 4 11 8 12 7 23 9 28 10 18 17 14 -14 15 24 26 21 -6 20 -12 -3 -23 -7 -1 -13 27 -16 -4 -18 -29
right_child=-2 2 3 -5 5 6 -8 -9 -10 -11 19 25 13 -15 16 -17 29 -19 -20 -21 -22 22 -24 -25 -26 -27 -28 30 -30 -31 -32
leaf_value=0.038705883876149302 -0.047773605722208068 0.031337603980427113 -0.2241524895612341 -0.078047651052474978 -0.0021952545788394527 -0.29038152454702637 -0.027030679622016329 -0.063342228909529119 0.020411216373830889 -0.1406357935905321 -0.01315595028430927 -0.1939669258508965 -0.020169362387968535 0.00017747930447458424 -0.0090304805221510867 0.16535480022430421 0.025841717226491357 -0.018653809067740765 -0.1523273888314246 0.00010521484389840303 -0.058207929262469607 -0.02766871195137385 0.020561227611059569 -0.036380434591856983 -0.02299211419958868 -0.032128291631670226 -0.01278754621744156 0.013809670159157288 -0.011858523908099973 0.18175937576828716 -0.23387087288379671
leaf_weight=25510 83271 114457 274 13677 1546 1329 2409 17149 41468 1761 33548 641 84006 261050 2448 1340 6764 14407 2437 70087 13274 25730 345410 321 4472 3427 9423 188 95550 535 1250
leaf_count=25510 83271 114457 274 13677 1546 1329 2409 17149 41468 1761 33548 641 84006 261050 2448 1340 6764 14407 2437 70087 13274 25730 345410 321 4472 3427 9423 188 95550 535 1250
internal_value=0 0.00332653 0.0123019 -0.0093764 -0.00754384 -0.0234801 -0.113997 -0.0208521 -0.00253538 -0.0149112 -0.0130799 0.0187945 -0.00176879 -0.00477608 0.0182136 0.0353152 -0.00777909 0.0194162 -0.0940537 -0.0103211 -0.0259282 0.0205457 0.0172176 -0.240967 0.0295032 -0.0576294 -0.0324852 -0.0802494 -0.0124656 0.0372701 -0.20149
internal_weight=0 1.19589e+06 655041 150969 540847 143861 4059 139802 137292 122653 120892 504072 396986 345056 51930 31322 20608 500004 3983 116909 46822 485597 371140 1650 29982 4068 13309 3886 95824 7299 1438
internal_count=1279159 1195888 655041 150969 540847 143861 4059 139802 137292 122653 120892 504072 396986 345056 51930 31322 20608 500004 3983 116909 46822 485597 371140 1650 29982 4068 13309 3886 95824 7299 1438
is_linear=0
shrinkage=0.1


Tree=22
num_leaves=32
num_cat=0
split_feature=3 3 2 3 1 2 2 4 8 8 0 4 8 0 3 2 1 2 4 4 4 0 4 0 3 3 1 2 1 1 1
split_gain=16466 9450.83 7467.88 5744.71 4079.5 2626.97 2536.65 2516.56 1982.06 1940.19 1894.57 1907.12 1868.12 1867.44 1741.5 1629.11 1469.65 2395.44 1468.9 1436.34 1675.03 1815.35 2521.38 1735.85 1412.73 4624.51 1370.89 2540.72 1987.43 1338.45 1433.94
threshold=25550.000000000004 3635.0000000000005 6.5000000000000009 9399.0000000000018 878.50000000000011 14.500000000000002 11.500000000000002 3221.5000000000005 26.500000000000004 5.0000000000000009 1580416156.0000002 3102.5000000000005 24.500000000000004 1581315929.5000002 15683.500000000002 16.500000000000004 2488.5000000000005 8.5000000000000018 61569.500000000007 3294.5000000000005 48801.500000000007 1581581400.0000002 52257.500000000007 1579099769.0000002 5222.5000000000009 7142.0000000000009 2372.0000000000005 11.500000000000002 1803.5000000000002 6883.5000000000009 280822.00000000006
decision_type=2 2 2 2 2 2 2 2 2 2 2 2 2 2 2 2 2 2 2 2 2 2 2 2 2 2 2 2 2 2 2
left_child=1 4 9 6 5 7 -4 10 12 14 11 -1 -6 -12 24 16 17 -14 19 -9 -21 23 -23 -22 -3 -26 27 -19 -29 -17 -31
right_child=-2 2 3 -5 8 -7 -8 18 -10 -11 13 -13 15 -15 -16 29 -18 26 -20 20 21 22 -24 -25 25 -27 -28 28 -30 30 -32
leaf_value=0.026879014666188656 -0.042996245760030999 0.028203845059520578 -0.011228635976225119 -0.070242881774902344 -0.064614447236150993 0.18839722557363792 0.018369514283501958 -0.018152426048572968 -0.063254910358957625 -0.051866471451673307 -0.029275656420936526 0.14881931543350221 -0.066803370119402822 0.033706816024209572 -0.016788428065624909 0.066549004607378892 -0.054729000125579463 0.057245620122207158 -0.11894159349432715 0.001046692706203291 -0.078149563831364732 -0.1985137209242881 -0.014688433093233907 -0.0092132408631097062 -0.033192406336551697 0.018055029622307546 0.11190334807372747 0.045534554388915044 -0.10613789616330958 -0.059049831783624857 0.22482708094235002
leaf_weight=29929 83271 114457 95792 13677 7649 709 41500 84006 15568 4068 13290 1340 4060 7290 14407 4380 8434 4763 1163 241782 3788 1257 1836 102272 18534 352606 1514 1336 2445 1839 197
leaf_count=29929 83271 114457 95792 13677 7649 709 41500 84006 15568 4068 13290 1340 4060 7290 14407 4380 8434 4763 1163 241782 3788 1257 1836 102272 18534 352606 1514 1336 2445 1839 197
internal_value=0 0.00299388 0.0110717 -0.00843876 -0.00678945 -0.00395131 -0.00228184 -0.00423079 -0.0333659 0.016915 0.0165968 0.0321046 -0.0206584 -0.00696554 0.0174746 -0.00905184 -0.0217008 -0.00196998 -0.00670702 -0.00640691 -0.0035953 -0.0138776 -0.0893953 -0.0116753 0.0184912 0.0154958 0.0242006 0.00865963 -0.0525451 0.0354088 -0.0315824
internal_weight=0 1.19589e+06 655041 150969 540847 488662 137292 487953 52185 504072 51849 31269 36617 20580 500004 28968 22552 14118 436104 434941 350935 109153 3093 106060 485597 371140 10058 8544 3781 6416 2036
internal_count=1279159 1195888 655041 150969 540847 488662 137292 487953 52185 504072 51849 31269 36617 20580 500004 28968 22552 14118 436104 434941 350935 109153 3093 106060 485597 371140 10058 8544 3781 6416 2036
is_linear=0
shrinkage=0.1


Tree=23
num_leaves=32
num_cat=0
split_feature=3 3 2 3 1 2 4 8 0 4 0 3 1 1 1 4 0 4 0 4 1 2 1 3 3 2 1 8 8 2 4
split_gain=13337.5 7655.17 6048.98 4653.22 3369.82 2054.69 1944.39 1571.55 1532.07 1544.69 1515.53 1410.61 1336.94 2191.77 1578.64 1178.98 1234.87 1396.24 1207.73 1360.2 1175.21 1644.55 1145.62 1144.31 3777.08 1138.56 2718.76 1264.17 1119.65 1406.41 2916.95
threshold=25550.000000000004 3635.0000000000005 6.5000000000000009 9399.0000000000018 578.00000000000011 11.500000000000002 3221.5000000000005 5.0000000000000009 1580416156.0000002 3102.5000000000005 1581315929.5000002 15683.500000000002 79.000000000000014 77.000000000000014 88.500000000000014 49028.500000000007 1579099769.0000002 50676.500000000007 1581581400.0000002 52257.500000000007 158.50000000000003 2.5000000000000004 47.500000000000007 5222.5000000000009 8621.5000000000018 10.500000000000002 1813.5000000000002 25.500000000000004 16.500000000000004 1.5000000000000002 49028.500000000007
decision_type=2 2 2 2 2 2 2 2 2 2 2 2 2 2 2 2 2 2 2 2 2 2 2 2 2 2 2 2 2 2 2
left_child=1 4 7 5 6 -4 8 11 9 -1 -10 23 13 -8 28 20 17 -17 -18 -20 -16 -22 -9 -3 -25 -6 27 -27 -14 -30 -31
right_child=-2 2 3 -5 25 -7 12 22 10 -11 -12 -13 14 -15 15 16 18 -19 19 -21 21 -23 -24 24 -26 26 -28 -29 29 30 -32
leaf_value=0.024193383325958811 -0.038696620002024083 0.02538346057158682 -0.010105772390438975 -0.063218593597412109 -0.044738542958872383 0.016532563198905392 -0.0091379741752687753 -0.1693835861597344 -0.026340646573465815 0.13393739461898804 0.030407849780543447 -0.015109585759177533 0.1135528948329424 -0.17178324344786497 -0.012438591212328686 -0.29337887737412305 -0.01742195894831745 -0.042531884475747406 -0.29938044920621015 -0.04000270188533675 0.084240269123560099 0.0063065976106320117 -0.023728814888077016 -0.023015855855203146 0.016699602116273676 -0.17587098607347032 -0.029132464838737639 0.057876711437380018 0.011902564818920831 0.31566068766017757 -0.1679341227743503
leaf_weight=29925 83271 114457 95792 13677 25198 41500 279665 641 13287 1340 7287 14407 1065 831 26011 359 24091 581 325 535 3333 14432 3427 25730 345410 242 28461 5268 77535 144 932
leaf_count=29925 83271 114457 95792 13677 25198 41500 279665 641 13287 1340 7287 14407 1065 831 26011 359 24091 581 325 535 3333 14432 3427 25730 345410 242 28461 5268 77535 144 932
internal_value=0 0.00269449 0.0099645 -0.00759488 -0.00611051 -0.00205366 -0.00334398 0.0152235 0.0149512 0.0288969 -0.00624119 0.0157272 -0.00555041 -0.00961983 0.00209278 -0.00890231 -0.0258177 -0.138334 -0.0215788 -0.138023 0.00110219 0.0209282 -0.0466798 0.016642 0.0139463 -0.028632 -0.016685 0.0476105 0.0117067 0.0103269 -0.103215
internal_weight=0 1.19589e+06 655041 150969 540847 137292 481678 504072 51839 31265 20574 500004 429839 280496 149343 69667 25891 940 24951 860 43776 17765 4068 485597 371140 59169 33971 5510 79676 78611 1076
internal_count=1279159 1195888 655041 150969 540847 137292 481678 504072 51839 31265 20574 500004 429839 280496 149343 69667 25891 940 24951 860 43776 17765 4068 485597 371140 59169 33971 5510 79676 78611 1076
is_linear=0
shrinkage=0.1


Tree=24
num_leaves=32
num_cat=0
split_feature=3 3 2 3 4 0 4 8 4 2 0 6 8 3 0 8 4 4 0 1 0 3 4 4 4 7 4 1 3 3 6
split_gain=10803.4 6200.69 4899.67 3769.11 2869.97 2159.5 2843.59 2167.81 1891.43 1664.3 1590.37 1554.89 1403.25 1332.96 1319.82 1272.96 1233 1638.4 1223.99 1376.65 1218.37 1142.6 1068.85 1050.01 1030.97 2697.95 1006.42 927.952 926.893 3140.57 920.376
threshold=25550.000000000004 3635.0000000000005 6.5000000000000009 9399.0000000000018 48801.500000000007 1581581400.0000002 52257.500000000007 26.500000000000004 61569.500000000007 11.500000000000002 1579090596.5000002 1579074453.0000002 22.500000000000004 282.00000000000006 1581597861.5000002 5.0000000000000009 3221.5000000000005 3294.5000000000005 1580416156.0000002 79.000000000000014 1581305076.5000002 15683.500000000002 28993.500000000004 3102.5000000000005 3102.5000000000005 11.500000000000002 3102.5000000000005 47.500000000000007 5222.5000000000009 7142.0000000000009 1581377510.5000002
decision_type=2 2 2 2 2 2 2 2 2 2 2 2 2 2 2 2 2 2 2 2 2 2 2 2 2 2 2 2 2 2 2
left_child=1 4 15 9 16 7 14 8 10 22 11 -6 13 -12 -7 21 18 -18 19 23 24 28 -4 -1 25 -20 -22 -17 -3 -30 -19
right_child=-2 2 3 -5 5 6 -8 -9 -10 -11 12 -13 -14 -15 -16 27 17 30 20 -21 26 -23 -24 -25 -26 -27 -28 -29 29 -31 -32
leaf_value=0.029728056057697651 -0.034826958315581566 0.022845114815604566 -0.0085242886992332231 -0.056896734237670901 0.0069478884156200585 -0.23459353057612953 -0.02023381572081439 -0.048814966940440019 -0.11374689054478136 0.01487930619228317 -0.010031466721254488 -0.12126219197404547 0.0017140328618004117 -0.047468265180017295 -0.0086584337054232477 -0.15244522399723809 -0.015423386132161147 -0.0015940590854778437 -0.0026785050872357653 -0.025665456068590414 0.018884296387776601 -0.013598627385630932 -0.20453954366800181 0.12054364681243897 -0.0059471618384122852 -0.17577174206229346 0.19555741569699622 -0.021355933223168637 -0.027571581050562545 0.014660617729787002 0.016466370993131054
leaf_weight=25510 83271 114457 95513 13677 1546 1329 2409 17149 1761 41500 33548 2437 70087 13274 321 641 84006 228865 2409 4472 7000 14407 279 1340 9423 1438 338 3427 18534 352606 32185
leaf_count=25510 83271 114457 95513 13677 1546 1329 2409 17149 1761 41500 33548 2437 70087 13274 321 641 84006 228865 2409 4472 7000 14407 279 1340 9423 1438 338 3427 18534 352606 32185
internal_value=0 0.00242504 0.00896805 -0.00683539 -0.00549946 -0.0176004 -0.0895042 -0.0155127 -0.0108565 -0.00184829 -0.00935771 -0.0714975 -0.00724066 -0.0206448 -0.190639 0.0137012 -0.0011143 -0.00327631 0.0132515 0.0257045 -0.00567566 0.0141544 -0.00909519 0.0342604 -0.0237568 -0.0673804 0.0270221 -0.0420118 0.0149778 0.0125516 0.000632621
internal_weight=0 1.19589e+06 655041 150969 540847 143861 4059 139802 122653 137292 120892 3983 116909 46822 1650 504072 396986 345056 51930 31322 20608 500004 95792 26850 13270 3847 7338 4068 485597 371140 261050
internal_count=1279159 1195888 655041 150969 540847 143861 4059 139802 122653 137292 120892 3983 116909 46822 1650 504072 396986 345056 51930 31322 20608 500004 95792 26850 13270 3847 7338 4068 485597 371140 261050
is_linear=0
shrinkage=0.1


Tree=25
num_leaves=32
num_cat=0
split_feature=3 3 2 3 1 2 2 4 8 2 1 1 2 1 2 1 2 1 1 8 6 7 0 4 3 2 1 1 2 3 8
split_gain=8750.72 5022.56 3968.74 3052.98 2359.65 2014.34 1348.08 1331.3 1330.79 1188.23 1300.16 1197.56 1073.84 1055.39 1735.66 1055.43 1926.96 1087.08 1545.02 1031.09 1011.09 1074.36 1025 1590.34 2171.34 960.999 1060 1485.11 1098.71 1468.38 2626.92
threshold=25550.000000000004 3635.0000000000005 6.5000000000000009 9399.0000000000018 878.50000000000011 14.500000000000002 11.500000000000002 3221.5000000000005 26.500000000000004 16.500000000000004 6883.5000000000009 280822.00000000006 21.500000000000004 2488.5000000000005 8.5000000000000018 2339.0000000000005 11.500000000000002 1813.5000000000002 1605.5000000000002 5.0000000000000009 1580464629.0000002 11.500000000000002 1581007927.0000002 3102.5000000000005 1520.5000000000002 6.5000000000000009 79.000000000000014 77.000000000000014 1.5000000000000002 101.50000000000001 24.500000000000004
decision_type=2 2 2 2 2 2 2 2 2 2 2 2 2 2 2 2 2 2 2 2 2 2 2 2 2 2 2 2 2 2 2
left_child=1 4 19 6 5 7 -4 20 9 13 12 -12 -11 14 -6 16 -16 18 -18 -3 21 -1 23 24 -22 26 27 -9 -28 -30 -31
right_child=-2 2 3 -5 8 -7 -8 25 -10 10 11 -13 -14 -15 15 -17 17 -19 -20 -21 22 -23 -24 -25 -26 -27 28 -29 29 30 -32
leaf_value=-0.021307091906227822 -0.031344261900800356 0.012738998730008064 -0.0081856752504615316 -0.051207059621810914 -0.051687862847792011 0.16564210982013322 0.013391376055866839 -0.0075347483491362893 -0.049652915682755164 0.080034390876220121 -0.05263679155276936 0.20143785709142686 -0.027068936278754854 -0.04522210359226584 0.044600328806562922 0.085198027763034645 -0.10302559709434145 -0.093857781499494974 0.1020888326837498 -0.037810657716987175 -0.18617037948168502 0.030890030387094355 0.02163848732462224 -0.00535244569182396 0.00050202762282232903 -0.046077550905804239 0.010701662345628429 -0.14141703790992893 0.023003898954154736 -0.0049079403583543631 -0.066709752055230609
leaf_weight=4617 83271 500004 95792 13677 5621 709 41500 279665 15568 3553 2561 200 1271 12938 4789 1874 636 2305 869 4068 1278 27023 8292 9423 1216 5578 78038 831 13721 50304 7967
leaf_count=4617 83271 500004 95792 13677 5621 709 41500 279665 15568 3553 2561 200 1271 12938 4789 1874 636 2305 869 4068 1278 27023 8292 9423 1216 5578 78038 831 13721 50304 7967
internal_value=0 0.00218254 0.00807125 -0.00615185 -0.00494951 -0.002791 -0.00166346 -0.00303573 -0.0251619 -0.0147494 0.0204934 -0.0342323 0.0518154 -0.023957 -0.00686198 0.0171967 0.00237699 -0.0506959 0.0154092 0.012331 0.0121129 0.0232733 -0.00536024 -0.0241463 -0.0951545 -0.00483677 -0.00430245 -0.00793139 0.00248222 -0.00642751 -0.0133577
internal_weight=0 1.19589e+06 655041 150969 540847 488662 137292 487953 52185 36617 7585 2761 4824 29032 16094 10473 8599 3810 1505 504072 51849 31640 20209 11917 2494 436104 430526 280496 150030 71992 58271
internal_count=1279159 1195888 655041 150969 540847 488662 137292 487953 52185 36617 7585 2761 4824 29032 16094 10473 8599 3810 1505 504072 51849 31640 20209 11917 2494 436104 430526 280496 150030 71992 58271
is_linear=0
shrinkage=0.1


Tree=26
num_leaves=32
num_cat=0
split_feature=3 3 2 3 4 0 4 0 4 2 0 6 1 6 6 7 4 4 4 0 4 4 6 4 4 6 4 6 4 0 4
split_gain=7172.09 4354.86 3477.06 2472.91 2112.39 1701.65 2222.45 1623.48 1370.13 1091.95 1037.25 895.885 894.26 875.148 1779.04 1857.04 1400.13 2026.19 1190.86 1237.33 1106.83 1697.95 1158.86 7044.82 1812.19 1346.34 4257.61 2171.68 6340.06 1245.06 3860.11
threshold=15683.500000000002 3635.0000000000005 6.5000000000000009 9399.0000000000018 48801.500000000007 1581581400.0000002 52257.500000000007 1579099769.0000002 61569.500000000007 11.500000000000002 1581597861.5000002 1579074453.0000002 79.000000000000014 1580464629.0000002 1581366514.0000002 11.500000000000002 3245.5000000000005 3102.5000000000005 1317.5000000000002 1581315929.5000002 3294.5000000000005 28993.500000000004 1580411968.0000002 4322.5000000000009 4361.5000000000009 1580329433.5000002 4288.5000000000009 1580297002.5000002 4253.5000000000009 1580224664.0000002 4216.5000000000009
decision_type=2 2 2 2 2 2 2 2 2 2 2 2 2 2 2 2 2 2 2 2 2 2 2 2 2 2 2 2 2 2 2
left_child=1 4 -3 9 13 7 10 11 -9 -4 12 -6 -7 16 15 -15 17 -1 19 -17 -18 22 24 -24 25 26 27 29 -29 30 -22
right_child=-2 2 3 -5 5 6 -8 8 -10 -11 -12 -13 -14 14 -16 18 20 -19 -20 -21 21 -23 23 -25 -26 -27 -28 28 -30 -31 -32
leaf_value=0.016917360029676528 -0.026042078639294045 0.011822040986380445 -0.0073671082721571083 -0.046086356043815613 0.0080781883809814912 -0.1255640025652934 -0.017424929723021412 -0.0084019866160315888 -0.061014340282354543 0.012052237776819482 -0.0067454995604876045 -0.07705185906657587 -0.28962648079250797 0.0027561533682619772 0.010099256251542021 -0.19631298796293584 -0.013081467762156952 0.13207101488498668 -0.021331700620682653 0.05026926040435778 0.0034761292592480706 -0.0046376560599545444 0.30238263840476676 -0.020377180128768609 0.063186476047591297 -0.061367023776152309 0.24144361898510255 0.30620108476984836 -0.053552239606546807 -0.065831309556961065 0.2384810424186814
leaf_weight=30355 97678 489665 95792 13677 1574 669 2409 127318 5150 41500 321 5760 660 46559 47571 752 47890 1609 70757 279 44910 87839 960 2288 6588 2688 791 900 1075 2465 710
leaf_count=30355 97678 489665 95792 13677 1574 669 2409 127318 5150 41500 321 5760 660 46559 47571 752 47890 1609 70757 279 44910 87839 960 2288 6588 2688 791 900 1075 2465 710
internal_value=0 0.00215301 0.00773136 -0.00553667 -0.00445456 -0.0148362 -0.0786641 -0.012983 -0.0104474 -0.00149712 -0.168073 -0.0587815 -0.20704 -0.000692435 -0.00623328 -0.0127983 0.00328616 0.022714 -0.0228864 -0.129585 0.000167241 0.00436315 0.0168385 0.0750198 0.0136956 0.00760567 0.0112516 0.00761432 0.110386 0.00339316 0.00713359
internal_weight=0 1.18148e+06 640634 150969 540847 143861 4059 139802 132468 137292 1650 7334 1329 396986 165918 118347 231068 31964 71788 1031 199104 151214 63375 3248 60127 53539 50851 50060 1975 48085 45620
internal_count=1279159 1181481 640634 150969 540847 143861 4059 139802 132468 137292 1650 7334 1329 396986 165918 118347 231068 31964 71788 1031 199104 151214 63375 3248 60127 53539 50851 50060 1975 48085 45620
is_linear=0
shrinkage=0.1


Tree=27
num_leaves=32
num_cat=0
split_feature=3 3 2 3 1 1 2 4 2 1 3 2 0 4 0 0 1 8 7 1 1 3 2 5 2 1 2 0 4 3 1
split_gain=5839.81 3312.54 2616.36 2003.06 1721.58 1203.73 1367.3 1143.61 1009.09 1513.75 1391.14 1368.07 1324.68 1451.9 1393.08 1503.34 2138.69 1116.36 1098.38 1000.17 1100.38 978.44 3680.2 970.9 947.093 939.012 925.465 892.156 953.992 884.903 862.168
threshold=25550.000000000004 3635.0000000000005 6.5000000000000009 9399.0000000000018 2442.5000000000005 2372.0000000000005 12.500000000000002 48801.500000000007 1.5000000000000002 84.500000000000014 101.50000000000001 4.5000000000000009 1581581400.0000002 54349.500000000007 1580055000.5000002 1580027274.0000002 414.50000000000006 16.500000000000004 11.500000000000002 40.500000000000007 47.500000000000007 5225.5000000000009 3.5000000000000004 1.0000000180025095e-35 14.500000000000002 609.00000000000011 10.500000000000002 1579099769.0000002 49514.500000000007 8262.0000000000018 280822.00000000006
decision_type=2 2 2 2 2 2 2 2 2 2 2 2 2 2 2 2 2 2 2 2 2 2 2 2 2 2 2 2 2 2 2
left_child=1 4 21 29 5 7 26 -1 9 19 11 17 14 -14 15 27 -17 -10 -16 -9 -21 -3 -23 30 -13 -19 -7 28 -12 -4 -6
right_child=-2 2 3 -5 23 6 -8 8 10 -11 12 24 13 -15 18 16 -18 25 -20 20 -22 22 -24 -25 -26 -27 -28 -29 -30 -31 -32
leaf_value=-0.00026828247756693354 -0.025605628028147129 0.018146989535939635 -0.18055077336051251 -0.041477721929550175 -0.030848332320906544 -0.04912777109104291 -0.12649224610105764 0.016573794889932159 0.060178032746096413 0.011609548474584376 -0.2674363353285924 0.031986149018403458 -0.23791708625128047 -0.0081641490401000213 0.002700741983426382 -0.19419178075896293 -0.051860237469166841 -0.15617032924399804 -0.20607935923082821 -0.13213017083324508 -0.020343881749970413 -0.019749695562886936 0.011084809344333956 0.29263335410901842 0.21896567022024127 0.095660648380007068 0.1746635069182286 -0.018597167654716598 -0.061958550426587072 -0.00098773478140090046 0.17018270557356435
leaf_weight=386915 83271 114579 275 13677 27575 228 246 7678 514 33651 249 5130 632 487 12913 1396 4331 962 257 902 37076 43585 345908 94 286 175 975 15519 2441 137017 215
leaf_count=386915 83271 114579 275 13677 27575 228 246 7678 514 33651 249 5130 632 487 12913 1396 4331 962 257 902 37076 43585 345908 94 286 175 975 15519 2441 137017 215
internal_value=0 0.00178295 0.00656527 -0.004983 -0.00400911 -0.0026937 0.0883221 -0.00295152 -0.0112837 -0.00448289 -0.0231921 0.0175675 -0.0307277 -0.137926 -0.027495 -0.0418675 -0.0865546 -0.0621222 -0.0013734 -0.0163439 -0.0229989 0.010024 0.00763437 -0.0282078 0.0418599 -0.11741 0.132249 -0.0278127 -0.0809786 -0.0013474 -0.029293
internal_weight=0 1.19589e+06 655041 150969 540847 512963 1449 511514 124599 79307 45292 7067 38225 1119 37106 23936 5727 1651 13170 45656 37978 504072 389493 27884 5416 1137 1203 18209 2690 137292 27790
internal_count=1279159 1195888 655041 150969 540847 512963 1449 511514 124599 79307 45292 7067 38225 1119 37106 23936 5727 1651 13170 45656 37978 504072 389493 27884 5416 1137 1203 18209 2690 137292 27790
is_linear=0
shrinkage=0.1


Tree=28
num_leaves=32
num_cat=0
split_feature=3 3 8 2 2 1 1 3 2 1 1 1 1 1 1 8 8 1 1 2 8 2 2 1 2 4 1 4 2 1 1
split_gain=4730.25 2683.16 2246.18 2219.26 1418.11 1422.1 2495.46 1418.65 3367.48 1841.21 1198.11 1436.12 1815.07 1191.85 1245.66 990.948 1299.53 976.511 966.227 1366.33 959.186 951.206 899.686 1447.02 873.604 841.793 1356.31 868.09 806.397 802.563 1190.18
threshold=25550.000000000004 3635.0000000000005 3.0000000000000004 25.500000000000004 2.5000000000000004 320.50000000000006 179.50000000000003 101.50000000000001 4.5000000000000009 245.00000000000003 158.50000000000003 253.00000000000003 1298.5000000000002 976.00000000000011 396.50000000000006 26.500000000000004 24.500000000000004 609.00000000000011 1813.5000000000002 18.500000000000004 22.500000000000004 10.500000000000002 21.500000000000004 7117.5000000000009 179.50000000000003 3221.5000000000005 158.50000000000003 1117.5000000000002 14.500000000000002 79.000000000000014 126.50000000000001
decision_type=2 2 2 2 2 2 2 2 2 2 2 2 2 2 2 2 2 2 2 2 2 2 2 2 2 2 2 2 2 2 2
left_child=1 4 3 -3 5 6 25 8 17 -10 -9 20 -13 14 -11 16 -14 -6 21 -20 -12 -18 23 -21 -24 27 29 -1 -16 -27 -31
right_child=-2 2 -4 -5 7 -7 -8 10 9 13 11 12 15 -15 28 -17 18 -19 19 22 -22 -23 24 -25 -26 26 -28 -29 -30 30 -32
leaf_value=-0.016548639410319244 -0.023045066131201903 0.009626877800736771 -0.0073791075340208963 -0.027078399107914698 -0.13628599302885722 0.056422212489901147 -0.21212205791991232 -0.10756299609268452 0.16814883876305362 -0.093007171395393107 -0.034408969018373037 -0.050980119691829542 -0.042861065971652436 -0.069961262798298979 0.032957459828817662 -0.038282174914956418 -0.012963152083174743 0.10874267121569979 -0.016402256559103181 0.13266829837369423 0.037763422608158237 0.082981989705743164 -0.023288633450546836 -0.080305942933044161 0.16297715896439716 -0.0064390176221286914 0.095758837504663338 0.016578637198795626 0.14288825735926464 0.0089411529611882635 -0.01539960542004992
leaf_weight=9743 83271 531516 106526 16999 1687 4219 564 1567 910 747 2549 18380 6811 1296 9277 11711 1614 180 15849 1733 6634 2872 1869 391 291 280496 1380 42053 719 89394 25911
leaf_count=9743 83271 531516 106526 16999 1687 4219 564 1567 910 747 2549 18380 6811 1296 9277 11711 1614 180 15849 1733 6634 2872 1869 391 291 280496 1380 42053 719 89394 25911
internal_value=0 0.00160465 0.00590874 0.00848935 -0.00360819 -0.00136493 -0.00190727 -0.0152966 0.0128922 0.0309948 -0.0210755 -0.0191586 -0.0246649 0.0206277 0.0315561 -0.0134534 -0.00420203 -0.112662 0.00649323 -0.00285824 0.0177299 0.0484623 0.0472489 0.0934626 0.00180551 -0.0016432 -0.00320686 0.0103473 0.0408646 -0.00355192 0.00347137
internal_weight=0 1.19589e+06 655041 548515 540847 453760 449541 87087 14816 12949 72271 70704 61521 12039 10743 43141 31430 1867 24619 20133 9183 4486 4284 2124 2160 448977 397181 51796 9996 395801 115305
internal_count=1279159 1195888 655041 548515 540847 453760 449541 87087 14816 12949 72271 70704 61521 12039 10743 43141 31430 1867 24619 20133 9183 4486 4284 2124 2160 448977 397181 51796 9996 395801 115305
is_linear=0
shrinkage=0.1


Tree=29
num_leaves=32
num_cat=0
split_feature=3 3 8 2 4 0 4 0 0 8 0 4 7 4 4 6 0 7 4 0 4 4 4 4 0 6 4 4 4 6 4
split_gain=3874.64 2326.8 1933.45 1852.72 1265.05 1171.53 1552.41 1108.11 2979.39 1185.89 1163.82 876.915 850.833 821.361 781.993 711.534 1449.25 1457.74 990.206 1003.98 974.395 1632.48 870.903 1431.27 1020.5 973.231 5706.31 1483.19 1109.39 1054.06 3292.83
threshold=15683.500000000002 3635.0000000000005 3.0000000000000004 25.500000000000004 48801.500000000007 1581581400.0000002 52414.500000000007 1580055000.5000002 1580027274.0000002 26.500000000000004 1579099769.0000002 61569.500000000007 11.500000000000002 60949.500000000007 51827.500000000007 1580464629.0000002 1581381688.5000002 11.500000000000002 1317.5000000000002 1581315929.5000002 3245.5000000000005 3102.5000000000005 3294.5000000000005 28993.500000000004 1579057607.0000002 1580411968.0000002 4322.5000000000009 4361.5000000000009 4398.5000000000009 1580329433.5000002 4288.5000000000009
decision_type=2 2 2 2 2 2 2 2 2 2 2 2 2 2 2 2 2 2 2 2 2 2 2 2 2 2 2 2 2 2 2
left_child=1 4 3 -3 15 7 14 8 10 12 -6 -9 -10 -12 -7 20 17 -17 19 -19 21 -1 -22 24 -24 27 -27 29 -29 30 -26
right_child=-2 2 -4 -5 5 6 -8 11 9 -11 13 -13 -14 -15 -16 16 -18 18 -20 -21 22 -23 23 -25 25 26 -28 28 -30 -31 -32
leaf_value=0.014255610750418993 -0.019141163777525443 0.0091813120073560277 -0.0066411968451667441 -0.024370559938333057 -0.046384954034549675 -0.029796170024517888 -0.012351280158074511 0.00047433874676279384 -0.12220299373855159 -0.033576638581488093 -0.00091986128097670036 -0.24079433237480014 -0.04305452634446879 -0.052338361395101542 -0.18106320579788704 0.0026093174437860733 0.0098036110368231212 -0.17736762536967055 -0.01855936109876772 0.044748720227603844 -0.011102591597802407 0.11761770216554793 0.18586388789011205 -0.0038922505945928384 0.0066321357710123381 0.27281510981420681 -0.017668732758481187 0.22986322855338073 0.047110354309223751 -0.054559589350329979 0.22173190256606509
leaf_weight=30355 97678 517109 106526 16999 7334 478 2382 64121 3872 6911 52017 151 2092 3304 1199 47117 45799 752 71971 279 47890 1609 351 87839 49824 960 2288 351 6191 2688 722
leaf_count=30355 97678 517109 106526 16999 7334 478 2382 64121 3872 6911 52017 151 2092 3304 1199 47117 45799 752 71971 279 47890 1609 351 87839 49824 960 2288 351 6191 2688 722
internal_value=0 0.00158248 0.00566002 0.00811346 -0.00324738 -0.0112814 -0.064242 -0.00974374 -0.0179564 -0.06177 -0.00895318 -9.24955e-05 -0.09444 -0.00399079 -0.137947 -0.000335983 -0.00533211 -0.0111031 -0.0199533 -0.11726 0.00325148 0.0194586 0.000649591 0.00437155 0.0158253 0.0148783 0.0681886 0.0119817 0.0569157 0.00645966 0.00970462
internal_weight=0 1.18148e+06 640634 534108 540847 143861 4059 139802 75530 12875 62655 64272 5964 55321 1677 396986 165918 120119 73002 1031 231068 31964 199104 151214 63375 63024 3248 59776 6542 53234 50546
internal_count=1279159 1181481 640634 534108 540847 143861 4059 139802 75530 12875 62655 64272 5964 55321 1677 396986 165918 120119 73002 1031 231068 31964 199104 151214 63375 63024 3248 59776 6542 53234 50546
is_linear=0
shrinkage=0.1


end of trees

feature_importances:
Column_1=213
Column_4=196
Column_3=188
Column_2=117
Column_8=97
Column_0=75
Column_7=27
Column_6=16
Column_5=1

parameters:
[boosting: gbdt]
[objective: regression]
[metric: l1,l2]
[tree_learner: serial]
[device_type: cpu]
[linear_tree: 0]
[data: ]
[valid: ]
[num_iterations: 30]
[learning_rate: 0.1]
[num_leaves: 32]
[num_threads: 0]
[deterministic: 0]
[force_col_wise: 0]
[force_row_wise: 0]
[histogram_pool_size: -1]
[max_depth: -1]
[min_data_in_leaf: 20]
[min_sum_hessian_in_leaf: 0.001]
[bagging_fraction: 1]
[pos_bagging_fraction: 1]
[neg_bagging_fraction: 1]
[bagging_freq: 0]
[bagging_seed: 3]
[feature_fraction: 1]
[feature_fraction_bynode: 1]
[feature_fraction_seed: 2]
[extra_trees: 0]
[extra_seed: 6]
[early_stopping_round: 0]
[first_metric_only: 0]
[max_delta_step: 0]
[lambda_l1: 0]
[lambda_l2: 0]
[linear_lambda: 0]
[min_gain_to_split: 0]
[drop_rate: 0.1]
[max_drop: 50]
[skip_drop: 0.5]
[xgboost_dart_mode: 0]
[uniform_drop: 0]
[drop_seed: 4]
[top_rate: 0.2]
[other_rate: 0.1]
[min_data_per_group: 100]
[max_cat_threshold: 32]
[cat_l2: 10]
[cat_smooth: 10]
[max_cat_to_onehot: 4]
[top_k: 20]
[monotone_constraints: ]
[monotone_constraints_method: basic]
[monotone_penalty: 0]
[feature_contri: ]
[forcedsplits_filename: ]
[refit_decay_rate: 0.9]
[cegb_tradeoff: 1]
[cegb_penalty_split: 0]
[cegb_penalty_feature_lazy: ]
[cegb_penalty_feature_coupled: ]
[path_smooth: 0]
[interaction_constraints: ]
[verbosity: 0]
[saved_feature_importance_type: 0]
[max_bin: 255]
[max_bin_by_feature: ]
[min_data_in_bin: 3]
[bin_construct_sample_cnt: 200000]
[data_random_seed: 1]
[is_enable_sparse: 1]
[enable_bundle: 1]
[use_missing: 1]
[zero_as_missing: 0]
[feature_pre_filter: 1]
[pre_partition: 0]
[two_round: 0]
[header: 0]
[label_column: ]
[weight_column: ]
[group_column: ]
[ignore_column: ]
[categorical_feature: ]
[forcedbins_filename: ]
[objective_seed: 5]
[num_class: 1]
[is_unbalance: 0]
[scale_pos_weight: 1]
[sigmoid: 1]
[boost_from_average: 1]
[reg_sqrt: 0]
[alpha: 0.9]
[fair_c: 1]
[poisson_max_delta_step: 0.7]
[tweedie_variance_power: 1.5]
[lambdarank_truncation_level: 30]
[lambdarank_norm: 1]
[label_gain: ]
[eval_at: ]
[multi_error_top_k: 1]
[auc_mu_weights: ]
[num_machines: 1]
[local_listen_port: 12400]
[time_out: 120]
[machine_list_filename: ]
[machines: ]
[gpu_platform_id: -1]
[gpu_device_id: -1]
[gpu_use_dp: 0]
[num_gpu: 1]

end of parameters

pandas_categorical:null
